const float layer_1_weights[] = { -2.2330506, 0.9614501, -0.981663, -1.1825202, -1.1247529, -2.0391593, -1.3283919, 0.42657658, -1.7089924, -1.8387244, -0.5784878, -1.1026661, -2.400616, -1.1002431, 0.0987615, -0.2192826, -0.14814237, -1.9231684, 0.9474293, -2.2779477, -3.0365572, 1.0000362, 0.8009806, -0.91251004, -0.7815541, -1.635398, -0.28882653, 0.604232, 0.011113601, -2.1439342, -1.8615073, -1.3146383, 0.1531801, -2.5481427, 0.11011656, -2.5803852, -1.361324, -0.082650445, -2.156578, -0.84053344, -0.15832603, -1.6230952, -2.1473875, -0.3358195, -0.6320522, -1.7324449, -0.63876873, -1.7302208, -1.9042572, 0.67772, -1.5428066, -2.0962842, -0.7384095, -1.2375821, -2.1922083, 0.78613603, 0.06640916, -1.6519014, -0.91517776, -1.139013, -1.8996555, 0.98612285, -0.5942312, -1.3791437, -1.1948165, -1.1478217, -1.758084, 1.3106728, -0.23318708, -0.53679824, -1.4611534, -0.8926617, -1.7039104, 0.24146967, -0.2919671, -0.62561625, -2.002876, 0.25696024, -1.7661637, -0.4422873, -0.17971988, -0.6797379, -2.053225, 0.6285957, -1.8160048, -0.4229243, 0.2948924, -0.67216337, -2.2513356, 0.6253032, -1.8979114, -0.1588057, 0.11747013, -0.62296426, -2.3828838, 0.5542296, -1.7775369, 0.74172944, -0.0016977143, -0.42412695, -2.591603, 0.5269997, -1.9154643, 0.5095763, 0.100646265, -0.7029255, -2.752589, 0.38234633, -1.9565728, 0.060557704, -0.18734328, -0.5503317, -2.876656, -0.16646704, -2.1108773, -0.17923741, -0.34546986, -0.43058336, -3.0598812, -0.19678761, -2.240089, 0.006902244, -0.5676644, -0.5396734, -3.0784724, -0.20521195, -2.3430266, 0.57902557, -0.64139944, -0.646089, -3.0690722, -0.27618754, -2.7714503, 0.29523596, 0.45602325, -0.72800505, -2.8045113, -1.0258405, -2.8610044, -0.15179569, 0.41231552, -0.7397439, -2.684672, -1.2243766, -2.768811, -0.4013146, 0.4932093, -0.68875027, -2.605882, -1.5733683, -2.8494298, -0.60518354, 0.55249095, -0.69294226, -2.6154268, -1.6444689, -2.832599, -0.9037441, 0.5326596, -0.73501396, -2.5711858, -1.8983307, -2.7538595, -0.61710185, 0.25364098, -0.7368489, -2.4578907, -1.8506567, -2.8420696, -0.4056365, 0.13617913, -0.73315275, -2.2228277, -1.5591533, -3.044408, -0.7152913, 0.16681771, -0.76074386, -2.1717653, -0.92933553, -3.154957, -0.4996446, 0.1668585, -0.79525405, -1.8679389, -0.39540964, -3.2371645, -0.16400151, 0.10720186, -0.76023823, -1.7273568, -0.6116805, -3.2727175, -0.09830951, -0.0048930477, -0.7819963, -1.6118823, -0.11472393, -3.3529792, -0.09598117, -0.045316853, -0.76364297, -1.5529261, 0.3215264, -3.4034512, -0.016660953, -0.053075038, -0.7191553, -1.5021676, 0.48947057, -3.5491278, 0.24827482, -0.13157347, -0.7535765, -1.5410197, 0.72052735, -3.6401455, 0.45662156, -0.16811946, -0.7794802, -1.5104324, 1.1293017, -3.6604202, 0.51275545, -0.26751938, -0.75115407, -1.42349, 1.372543, -3.6813383, 0.6503507, -0.2681636, -0.68708134, -1.3961549, 1.7855624, -3.6153417, 0.73543006, -0.38740566, -0.61495715, -1.4025649, 1.8238604, -3.6679556, 0.5388804, -0.37496012, -0.4961352, -1.3858874, 2.0688672, -3.5739996, 0.42781016, -0.27565137, -0.4251985, -1.3891441, 2.356954, -3.584903, 0.3752699, -0.21762583, -0.46447712, -1.4254901, 2.4266813, -3.5449612, 0.40105185, -0.14483564, -0.5166311, -1.3750633, 2.5315232, -3.527948, 0.38394582, -0.11087628, -0.56365097, -1.3719139, 2.5927525, -3.477809, 0.363339, -0.038042333, -0.49935195, -1.2561107, 2.489883, -3.561148, 0.3260415, 0.059023906, -0.41783074, -1.1877631, 2.258146, -3.485195, 0.26502773, 0.16127415, -0.21659482, -1.1229224, 2.0360515, -3.2283125, 0.24954934, 0.31625232, -0.10257036, -0.916819, 1.9157176, -3.5031881, -0.07126563, 0.3599891, 0.016206775, -0.749617, 1.5912714, -3.5762377, -0.31088898, 0.5252634, -0.057393048, -0.4860744, 1.7846212, -3.5987048, -0.2247919, 0.5132353, -0.12609982, -0.20632885, 1.5082965, -3.7099018, -0.31424487, 0.46555462, -0.29809648, -0.10177974, -0.9611868, -3.6497028, -0.4228719, 0.342161, -0.27284715, 0.08025046, -1.8436781, -3.6901894, -0.034606714, 0.055457868, -0.2926679, 0.44503686, -2.0008962, -2.0681963, 0.5318745, -1.1917285, -0.011876343, -1.4206452, -1.0229084, -2.0879943, 0.6099155, -1.2519004, 0.10763343, -0.780487, 0.39458492, -2.0355618, 0.7181202, -1.1187068, 0.25045073, 0.17526294, 0.17315175, -2.0228558, 0.6866272, -1.1880492, 0.687202, 0.7996876, -0.5373862, -2.007252, 0.7859328, -1.1912347, 0.8566981, 1.1312469, -1.5007064, -1.8200709, 0.59168357, 0.84084666, -0.45798278, 1.3698728, 0.51129484, -1.7890846, 0.5664526, 0.90018404, -0.7510012, 1.4637939, 0.4548134, -1.7410395, 0.5237127, 0.94593966, -0.45976818, 1.4429365, 0.5602091, -1.667563, 0.5949815, 0.984024, -0.112391874, 1.4961212, 0.7543457, -1.6767114, 0.624594, 0.988592, 0.014216075, 1.5667796, 0.73665696, -1.5971568, 0.69909286, 0.92644316, 0.1187355, 1.5764998, 0.6009086, -1.5698415, 0.73433447, 0.86110735, 0.27586347, 1.5648628, 0.66260386, -1.5727845, 0.76005924, 0.8859545, 0.3725405, 1.4641715, 0.69328797, -1.5029598, 0.76234424, 0.89958304, 0.5823319, 1.4314178, 0.6118007, -1.4792751, 0.8245637, 0.82216257, 0.7099382, 1.5729388, 0.30829805, -1.494881, 0.7930099, 0.9046576, 0.7433704, 1.5699927, 0.050958686, -1.4919926, 0.7615017, 0.9009898, 0.7902171, 1.5132602, -0.117655315, -1.5213209, 0.7008167, 0.90981, 0.8313816, 1.4466169, -0.2060967, -1.5330997, 0.6127232, 0.93319654, 0.81492275, 1.353216, -0.6637524, -1.5721335, 0.6049099, 0.9244261, 0.75279754, 1.3360587, -0.9596242, -1.5546464, 0.55678564, 0.9818561, 0.73456603, 1.2790608, -1.2862887, -1.5333551, 0.48120686, 0.99323595, 0.6791153, 1.2563913, -1.4005405, -1.5437881, 0.45267612, 0.8817163, 0.6144568, 1.2882984, -1.3590237, -1.4717033, 0.36485606, 0.8274339, 0.6304702, 1.2239987, -1.2817469, -1.3194283, 0.39298108, 0.6885236, 0.5897725, 1.2197224, -1.1873722, -1.2841518, 0.27150303, 0.6837576, 0.61162424, 1.2296578, -1.037938, -1.1928297, 0.33982274, 0.6042263, 0.5876018, 1.2082222, -0.914708, -1.1469504, 0.26747653, 0.5959182, 0.6058675, 1.1348163, -0.83725786, -1.0812503, 0.23150349, 0.5601256, 0.6680591, 1.088859, -0.5567889, -1.0292495, 0.28437877, 0.52826554, 0.668743, 1.0848787, -0.30773234, -0.7539291, 0.33236536, 0.46381366, 0.6565303, 0.97273463, 0.02441817, -0.5723274, 0.36565477, 0.4714668, 0.5893513, 0.9751376, 0.19733611, -0.451833, 0.40667453, 0.46802086, 0.50464267, 0.9623885, 0.32726404, -0.3216416, 0.5077076, 0.49196368, 0.37030885, 0.8780008, 0.4010227, -0.2663363, 0.7008155, 0.19829376, 0.21360414, 0.8639401, 0.60633165, -0.22751416, 0.7237158, -0.12092222, 0.1608038, 0.77690965, 0.36261505, -0.2790851, 0.5655453, -0.1067507, 0.10621244, 0.69416845, 0.05563362, -0.12510756, 0.5076609, -0.18324274, -0.02706822, 0.5574234, -0.16695578, 0.10572716, 0.3493592, -0.023608267, 0.01203844, 0.46378693, -0.37774894, 0.29817292, 0.079560325, 0.0890846, -0.02543882, 0.3204912, -0.7175054, 0.44089675, -0.13154568, 0.18473545, 0.02152452, 0.20931149, -1.064141, 0.68777496, -0.29750618, 0.14199574, 0.0741797, 0.14479941, -1.0576762, 0.678268, -0.37091744, 0.17055081, 0.03544541, 0.10115081, -1.0483613, 0.56999224, -0.36632094, 0.1682022, 0.019029666, -0.022793595, -1.0767925, 0.5164614, -0.27053475, 0.15590407, 0.032865793, -0.060030565, -1.0679362, -1.1568947, 0.8083693, -1.7106446, -1.4543359, -2.4730258, -2.1296093, -0.5306094, 0.45967346, -2.3033357, -2.0042648, -1.9516025, -1.7030553, -1.2220231, -0.5001657, -0.32539326, -0.78993654, -1.7254965, -2.483145, 0.18953517, -1.4961582, -0.7185008, 1.6438632, -0.34749842, -0.6090765, -0.35699663, -1.04622, -0.35760394, 0.873473, -1.233645, -0.88314015, -2.1020555, -0.8901009, 0.86887664, -1.4315424, -0.7186065, -2.6208475, -1.1264712, -0.73470914, -2.507184, -0.80156535, -0.6461388, -1.7512116, -1.1139567, -0.08616913, -1.4187624, -1.528994, -0.7357287, -1.8029028, -2.3156507, 0.9078256, -2.4040601, -1.786342, -0.74157757, -2.2941935, -2.5169694, 1.5443728, -1.0966514, -1.2195425, -0.597689, -1.9373982, -2.2868204, 0.86289227, -1.0926706, -0.4933965, -0.6291247, -1.1846106, -2.1027114, 0.8817444, -0.9689089, -0.13226974, -0.7203954, -0.34609786, -1.7083331, 0.10257551, -1.0415994, -0.02800558, -1.135523, 0.0039572194, -1.5834827, -0.013966875, -0.9290904, 0.021668267, -1.1569047, 0.06339047, -1.7372391, -0.2661489, -0.36269003, 0.097883046, -1.3699638, -0.08400232, -1.7648348, 0.2080235, -0.5194589, 0.17448868, -1.55958, -0.11078385, -1.7532209, 0.8732199, -0.54469943, 0.25298747, -1.6410947, -0.13230143, -1.9564196, 0.64734286, -0.34296927, 0.084223524, -1.8173889, -0.18389045, -1.6344655, 0.5020578, -0.47966054, 0.21171683, -2.0610492, -0.7252328, -1.4976833, 0.23836672, -0.5102553, 0.18039094, -2.2152188, -0.6121555, -1.5036963, -0.5197136, -0.552822, 0.18035832, -2.362218, -0.63858074, -1.8257254, -0.22010696, -0.3982463, 0.15031755, -2.4623404, -0.7775906, -1.9170423, -0.33952147, -0.044083357, 0.0711548, -2.6187706, -1.0548921, -2.0414376, -0.72152746, -0.041125976, -0.004749714, -2.5725334, -1.0794295, -1.9248905, -0.74114674, 0.20362598, -0.0032704975, -2.4112148, -0.86846995, -1.9918948, -0.7420867, 0.5502234, 0.018759549, -2.2688448, -0.79416394, -2.0312588, -0.7792693, 0.74413246, -0.068543345, -2.193511, -0.72769964, -1.7725434, -0.6514367, 0.5520217, -0.07549442, -2.1162076, -0.6717602, -1.8164096, -0.6413727, 0.49917936, -0.119889386, -1.95739, -0.54394335, -1.9200046, -0.58679235, 0.41130418, -0.07213233, -2.0485826, -0.072112344, -2.0757682, -0.49590093, 0.40734127, -0.101217285, -1.8008132, 0.54717654, -2.2684476, -0.3502605, 0.3363293, -0.14950605, -1.6033475, 1.023581, -2.4666846, -0.3243701, 0.24120027, -0.12038892, -1.38502, 1.0474912, -2.7642179, -0.245181, 0.17301294, -0.1551181, -1.308731, 0.84737784, -3.1193874, -0.2593654, 0.104853794, -0.15189552, -1.2096044, 0.77055, -3.4162385, -0.12000652, -0.019990275, -0.20135409, -1.2143936, 0.7978106, -3.4914522, -0.015198419, -0.046133224, -0.15677154, -1.1623865, 0.8109362, -3.452538, 0.067590676, -0.10543304, -0.123061106, -1.1910954, 0.83875227, -3.5373178, 0.09732137, -0.18798167, -0.05962849, -1.090856, 0.89754957, -3.4873853, 0.17689793, -0.24394126, 0.109512195, -1.0781225, 0.940076, -3.5179906, -0.16111116, -0.22987305, 0.2229172, -1.0602657, 0.98353827, -3.5147634, -0.18088193, -0.22749625, 0.27321061, -1.0004845, 1.0161247, -3.5238962, -0.2323697, -0.12005089, 0.30079883, -1.0041369, 1.0349491, -3.449623, -0.19076577, -0.00097516004, 0.21405998, -1.0113871, 1.0954995, -3.3422358, -0.22055458, 0.0140255075, -0.0040642386, -0.9364098, 1.1077789, -3.3520882, -0.21099347, 0.11209993, -0.22353524, -0.8660091, 1.1950874, -3.3364172, -0.26152125, 0.1745677, -0.23178288, -0.7901513, 1.141653, -3.323039, -0.41528547, 0.23270953, -0.15392144, -0.6447357, 1.0923346, -3.2572186, -0.40516007, 0.39045247, -0.0049597393, -0.4893201, 0.6196788, -3.421425, -0.69265777, 0.5008243, 0.068952225, -0.23991755, 0.38057363, -3.419704, -0.9343768, 0.71926093, 0.03598486, 0.048584152, 0.41598615, -2.8402205, -0.79731345, 0.768985, 0.007638116, 0.37764105, 0.067234464, -3.4165587, -0.80131763, 0.6080127, -0.0220478, 0.45272225, -0.66218513, -3.4531941, -0.8395401, 0.28725925, -0.101746306, 0.5236913, -0.7064913, -3.3127625, -0.53755623, 0.22114357, -0.15046573, 0.72181433, -0.88861597, -1.8303666, -0.19679925, -0.52646637, -0.22845362, -0.591595, -0.4972454, -1.7933987, -0.0379782, -0.61850584, -0.32472065, -0.12388569, -0.18373507, -1.7313468, -0.0028406805, -0.43746576, -0.26476243, 0.3362191, -0.21323828, -1.649734, -0.02054469, -0.5005183, 0.030049521, 0.47306114, -0.5766241, -1.537157, 0.059430487, -0.40895912, 0.038130812, 0.5398369, -1.3466431, -1.3715183, -0.18994185, 1.4564816, -0.35210732, 0.6274344, -0.123184636, -1.3641284, -0.2458409, 1.4596503, -0.5975768, 0.59391975, 0.52915525, -1.2822256, -0.25189126, 1.5012026, -0.50009567, 0.52856344, 0.5780764, -1.1758475, -0.27732733, 1.4834832, -0.36878964, 0.588735, 0.8659592, -1.0473654, -0.18096875, 1.525247, -0.3509826, 0.71131974, 0.89024514, -1.0139582, -0.19279589, 1.5229156, -0.22334753, 0.7297319, 0.951132, -1.0123352, -0.15435746, 1.4534152, -0.1904327, 0.7290669, 0.9386468, -0.7856278, -0.10307503, 1.3749412, -0.15602684, 0.74640125, 0.9653072, -0.6324881, -0.10045703, 1.4461572, -0.13034095, 0.7199453, 0.9504404, -0.5712991, 0.006815672, 1.4263709, -0.14445324, 0.94013613, 0.8995155, -0.69839376, 0.010366828, 1.4301665, -0.15286824, 0.88414925, 0.86736333, -0.74280405, 0.008748869, 1.4611444, -0.16392136, 0.928653, 0.81121546, -0.9299277, 0.013930867, 1.5027082, -0.1876629, 0.92853874, 0.8220918, -1.0130354, 0.15384708, 1.5423945, -0.14452715, 1.0069927, 0.46045223, -1.1019884, 0.66747475, 1.5011641, -0.18212245, 1.1341599, 0.029207258, -1.1391326, 0.6257114, 1.6109807, -0.17479543, 1.1840285, -0.23083459, -1.1441289, 0.6108217, 1.6148171, -0.22160539, 1.2370988, -0.33343193, -1.1662194, 0.5674374, 1.5636119, -0.12968738, 1.2431821, -0.35369596, -1.0987769, 0.50328517, 1.4173203, -0.14049426, 1.2468127, -0.41721496, -1.0392066, 0.42959228, 1.0437984, -0.07073708, 1.2312583, -0.46668485, -0.9134726, 0.3419298, 0.8045172, -0.04790561, 1.1931527, -0.40211415, -0.90088147, 0.27182496, 0.6340146, -0.06503024, 1.1639571, -0.48820436, -0.8348589, 0.17126125, 0.6612923, -0.054041058, 1.1273183, -0.44147122, -0.7609779, 0.11496949, 0.57153153, 0.15824778, 1.0832994, -0.16616921, -0.775241, 0.12045089, 0.6091776, 0.710889, 1.0526588, 0.028365683, -0.62976986, 0.10155319, 0.5242613, 0.75330794, 0.9512675, 0.021059452, -0.48940575, 0.045555875, 0.5161118, 0.7429339, 0.9342651, -0.21896265, -0.34232038, -0.04668759, 0.57206106, 0.6219139, 0.7727804, -0.3651267, -0.27264404, 0.013236994, 0.56260514, 0.4864332, 0.7006852, 0.00046025793, 0.16462044, 0.26963347, 0.33752152, 0.36223587, 0.67282355, 0.41212997, 0.20217216, 0.17818223, 0.029117906, 0.25002694, 0.45468795, 0.17793371, 0.20724893, -0.042199425, -0.045520227, 0.09761599, 0.09533248, 0.07174541, 0.25631386, -0.22427754, -0.3394385, 0.007941682, -0.017750258, 0.10126216, -0.48672953, -0.35831305, -0.12213939, 0.0031423909, -0.02802374, 0.0019750686, -0.3093978, -0.5927658, 0.2739894, 0.015957296, 0.006869368, -0.32762906, 0.274771, -0.6703972, 0.12735707, 0.047351375, 0.23871861, -0.6512956, 0.9535248, -0.5882599, 0.68483037, 0.0496666, 0.62339646, -0.79047096, 0.9284784, -0.6568824, 0.631307, 0.07032711, 0.6787425, -0.64061517, 0.7817246, -0.68133235, 0.5458082, 0.03814045, 0.6255841, -0.61053115, 0.8275867, -0.6605854, 0.675818, -0.027488742, 0.65380657, -0.46741748, 0.25373963, -0.22954811, 0.50006104, 1.443748, 1.1153973, 1.0045438, 0.6484231, -0.24264634, 0.2753971, 1.4261605, 1.2620872, -0.002328239, 0.83134943, -0.04055927, 0.100782275, 1.3879013, 0.43051443, 0.32955232, 0.5711721, 0.5089309, -0.007403126, 0.66600883, 0.19613051, 0.3020486, -1.2396502, -1.1136107, -0.584241, -0.3056661, 0.37069255, 0.898321, 0.53845924, -0.028337266, -0.18517454, 0.8891396, 0.56357795, 0.8847766, 0.42652804, -0.6794211, 0.30863002, -0.32133454, 0.25772503, 0.14333689, 0.7463625, -0.85205126, 0.60125583, -0.13171919, 0.06906211, 0.9353807, 0.65940636, -0.6848443, 0.46070755, -0.6900115, 0.013792313, 0.79307425, 0.56409717, -1.4002293, 0.42785814, -0.8737833, 0.017534181, 0.49376646, 0.6306982, -1.4307624, 0.6776139, -1.144038, -0.016388746, 0.6825723, 0.5566885, -1.4546888, 0.5315409, -1.2708137, 0.020063275, 0.89195335, 0.4378054, -1.2544291, 0.375345, -1.209903, 0.110367805, 0.9482551, 0.35924438, -0.5882132, 0.3675658, -1.0291758, 0.32512408, 0.97561747, 0.2997842, -0.43552116, -0.08439767, -0.55976087, 0.37683704, 1.07713, 0.34229478, -0.501515, 0.10533467, -0.5684624, 0.2578476, 0.7178684, -6.26939e-05, -1.1593804, 0.29609656, -0.7764909, 0.09583403, 0.4811499, 0.17701173, -1.1414528, 0.22830135, -0.44217637, 0.17942622, 0.4800331, -0.012156436, -1.3612287, 0.4066518, -0.6688587, 0.15899627, 0.5055064, 0.21354114, -0.8710847, 0.4131814, -0.87300485, 0.18179137, 0.42924705, 0.104514346, -0.8219676, 0.22457895, -1.023747, 0.31150308, 0.44596303, 0.2165605, -0.97988164, 0.23206402, -1.0220339, 0.40967253, 0.38444304, 0.18317269, -0.3391584, 0.5765667, -1.1641037, 0.4607289, 0.030164707, 0.13264948, 0.25785315, 0.07896395, -1.2062087, 0.56602, -0.5140481, -0.09697207, 0.48258147, -0.34749106, -1.2431964, 0.6881662, -0.60680246, -0.10420318, 0.39118087, -0.40124786, -1.2725142, 0.70579153, -0.5480831, -0.09085993, 0.53519505, -0.48635837, -1.3609494, 0.6658392, -0.47379425, -0.14084268, 0.51183087, -0.19647624, -1.3250954, 0.6769913, -0.4078239, -0.15727103, 0.49651226, 0.2362608, -1.3328768, 0.7852691, -0.29448828, -0.09515442, 0.07038253, -0.70806575, -1.2786076, 1.3496838, -0.3362303, -0.06457626, -0.08763261, -0.7366345, -1.2307675, 1.0183932, -0.12024936, 0.105619505, 0.492774, -0.63354987, -1.3111143, 0.28445742, -0.16202542, 0.31942892, 0.62996185, -0.56085014, -1.3355944, -0.15649904, -0.40221927, 0.46719494, 0.7913591, -0.53217137, -1.2815244, -0.2904072, -0.532887, 0.52591556, 0.78712547, -0.5188702, -1.3621241, -0.23093115, -0.6535442, 0.6763281, 0.86605984, -0.5446057, -1.3665098, -0.22652484, -0.8128716, 0.6262939, 0.9287919, -0.58041835, -1.3756131, -0.2686201, -0.9285253, 0.6522549, 0.8889326, -0.57691044, -1.4365287, -0.28356358, -1.0299922, 0.61735415, 0.7730479, -0.5147843, -1.5066783, -0.24940054, -1.09438, 0.64634717, 0.73787457, -0.48502627, -1.5126313, -0.18902318, -1.0624734, 0.64495635, 0.80548394, -0.373131, -1.5774797, -0.1817934, -0.82701993, 0.6740842, 0.88277406, -0.5490817, -1.6529518, -0.19497314, -0.6709357, 0.6373245, 0.9136728, -0.5793819, -1.6941773, -0.2097348, -0.67539144, 0.6614919, 1.06459, -0.734736, -1.6147215, -0.15898967, -0.49396646, 0.66591823, 1.0915788, -0.7929281, -1.5695362, -0.20212796, -0.42634562, 0.7410581, 1.1925449, -0.78551704, -1.3987966, -0.12598044, -0.33019325, 0.71829736, 1.1203023, -0.91517353, -1.2052629, -0.19229306, -0.3266118, 0.75864255, 1.2142079, -1.0540754, -1.0578142, -0.12896305, -0.3320072, 0.7653159, 1.2155869, -1.0282326, -0.89430314, -0.19809233, -0.2752371, 0.75169694, 1.3111868, -1.194885, -0.7733032, -0.15341096, -0.14271991, 0.7662998, 1.4342078, -1.3345699, -0.7516663, -0.26012135, 0.010692919, 0.7044993, 1.4947982, -1.4130166, -0.6482808, -0.2834654, 0.20073687, 0.73868, 1.5099493, -1.4454037, -0.6603712, -0.28815302, 0.33143976, 0.72132075, 1.6046996, -1.0602897, -0.5492781, -0.23124295, 0.5480668, 0.69672185, 1.5453361, -1.4356287, -0.51398176, -0.0025769186, 0.42976317, 0.70684505, 1.5771495, -1.4690932, -0.51192236, 0.022578143, 0.27962273, 0.7319402, 1.5603647, -1.3731294, -0.50868404, -0.06723479, -0.121330835, 0.7178339, 1.588329, -1.0797604, -0.4963642, -0.16810265, 0.105403736, 0.6570951, 1.5810741, -0.82706386, -0.46355927, -0.13864774, 0.35714665, 0.6109819, 1.5434847, -0.6774999, -0.46606085, -0.60620713, 0.45925522, 0.5487322, 1.4378759, -0.58107513, -0.48238948, -0.6242791, 0.3352143, 0.47075132, 1.4761091, -0.57106805, -0.34931555, -0.60545725, -0.15746543, 0.2751506, 1.5046904, -0.57076675, -0.1398683, -0.6256019, -0.22808954, 0.12320253, 1.5697305, -0.646053, 0.0074321264, -0.67614126, -0.27876717, -0.12249575, 1.5573173, -0.6679047, 0.22400767, -0.645652, -0.2394357, -0.2514925, 1.6289105, -0.6497635, 0.5952106, -0.7004931, -0.29918537, -0.36505076, 1.6146911, -0.6552204, 0.7544507, -0.6694749, -0.25073126, -0.41402873, 1.4134773, -0.5339573, 0.81126994, -0.706413, -0.23265034, -0.45767415, 1.0281141, -0.5639005, 0.8634343, -0.71947134, -0.25120378, -0.462398, 0.74116075, -0.52570117, 0.8506577, -0.70652205, 0.07838405, -0.46445122, 0.7711889, -0.55043215, 0.83828944, -0.7623969, 0.4431898, -0.43262288, 0.913501, -0.55853343, 0.9067974, -0.73706174, 0.75679904, -0.39551008, 1.1506084, -0.6977016, 0.8643475, -0.673186, 0.85673535, -0.3707549, 1.3829701, -0.80845094, 0.8593467, -0.5928157, 0.7754521, -0.38642803, 1.5424398, -0.9309485, 0.91582954, -0.34919655, 0.74851066, -0.39177984, 1.4621438, -1.1496822, 0.9517718, -0.0797937, 0.40221226, -0.41089034, 1.3946495, -1.2815952, 1.1473346, 0.11461591, 0.27279544, -0.41533902, 1.2708663, -1.2303125, 1.2816066, 0.13875525, 0.050100043, -0.43482825, 1.1883898, -1.1446116, 1.3794625, 0.1482835, -0.30568138, -0.4976916, 1.0469025, -0.4587194, 1.503279, 0.11783079, -0.45348272, -0.5481008, 0.95695615, -0.3050666, 1.5939524, 0.1714955, -0.5360155, -0.6175898, 0.7700206, -0.34204876, 1.6440879, 0.160822, -0.6375735, -0.69732004, 0.7269545, -0.3689153, 1.6948087, 0.17647894, -0.53378963, -0.7273921, 0.65306693, -0.46699944, 1.6666725, 0.21521641, -0.21230848, -0.74582404, 0.7126665, -0.50267637, 1.6148865, 0.28347597, -0.066396795, -1.0127753, 0.6311124, -0.3998616, 1.4836155, 0.28096968, -0.5260322, -1.2373071, 0.47328967, -0.44687384, 1.3021051, 0.29517087, -0.15021, -1.3755523, 0.37000024, -0.43520954, 1.2136734, 0.32923326, -0.14722309, -1.3509834, 0.33070433, -0.40984043, 1.1190245, 0.3569902, -0.33448634, -1.0348573, 0.17189614, 0.5466388, 1.0070381, 0.33261985, -1.3977547, -1.1031767, 0.16872936, 0.5705331, 0.9680865, 0.44565618, -1.2158881, -1.0853585, 0.12066948, 0.64133215, 0.92952126, 0.71901673, -0.72020906, -0.97104335, -0.0043682316, 0.5733043, 1.0174322, 0.9969928, -0.42309913, -0.6357893, -0.11736716, 0.44321033, 0.9999427, 1.2921903, -0.39250016, -0.6212806, -0.16748902, 0.322115, 0.8779206, 1.5692372, -0.48320454, -0.69345796, 0.05018606, 0.2757885, 0.76087195, 1.5340555, -0.30468065, -0.6933696, 0.23968266, -0.17743033, 0.94224876, 1.2926266, -0.38736668, -0.68973035, 0.18601364, -0.42677182, 0.9201433, 1.1857061, -0.44465962, -0.660269, 0.11083691, -0.40879682, 0.90305156, 1.1115311, -0.50468886, -0.7093139, -0.047874372, -0.31859517, 0.9855079, 1.0298285, -0.64642805, -0.96162057, -0.06647789, 0.78886575, 0.087460205, 0.6849718, 1.1115425, -0.60511476, -0.12839818, -0.59430176, -0.42714426, 0.7614296, 0.30735785, -0.36092845, 0.09899925, -1.0300378, 0.14028691, 1.0434219, -0.44235948, -0.7849886, -0.5266315, 0.42937937, 0.13738987, 1.1538526, -0.6464567, -0.6709534, 0.7855318, -1.1998491, -0.06821214, 0.8324476, -0.22410865, -1.1378161, 0.7001525, 0.3616298, -0.08440118, 0.4867966, -0.6286283, -1.2257917, -1.1668613, 0.5939252, -0.53167784, -0.07247624, -0.6017998, -0.92537975, -0.071141854, -0.21181792, -0.14502816, -0.007334581, -0.5025083, -1.1240072, 0.46155262, 0.287781, -0.853992, 0.035789642, -0.44830534, -0.8831719, 0.4238009, -0.20323604, -0.9399979, 0.0073009715, -0.296024, -1.1267782, -0.18720886, -0.42045423, -0.64576286, -0.41286072, -0.30608508, -0.71687543, 0.9804607, 0.1736023, 0.34682438, -0.18189245, 0.58735675, -0.94860005, -0.6428554, -0.1369851, -0.7294826, 0.006337505, -0.022508115, -0.8830202, -0.3070658, -0.1074117, -0.5840988, -0.029419366, 0.19366483, -0.86445224, -0.6382289, 0.9884424, -0.54666156, -0.06912759, 0.5700374, -0.90565884, -0.004475342, 0.18688594, -0.544517, -0.0005573316, 0.7241271, -0.77758294, 1.3526797, -0.09807063, -0.3401361, 0.02209859, 0.83942133, -0.78556156, 1.3512975, 0.1647512, -0.4537681, 0.005880088, 0.7528287, -0.5675796, 1.4546206, -0.0019272912, -0.43732023, 0.0564535, 0.6767661, -0.43447012, 0.12484953, -0.116619326, -0.48625502, 0.07880674, 0.7021496, -0.33572638, 0.49596336, -0.0064012897, -0.5169371, 0.05098457, 0.7829976, -0.21948117, 0.8587635, -0.03203993, -0.61344737, 0.028363274, 0.55766046, 0.73769563, 0.052069493, 0.50085825, -0.64716, -0.016030679, -0.45921713, 0.23843177, -0.12654066, 0.28621683, -0.6319782, -0.010543057, -0.7360607, 0.30050513, -0.23549803, 0.14413883, -0.6035764, 0.0015543161, -0.913311, 0.21460101, -0.27464694, 0.05942026, -0.61876065, -0.09364906, -0.8952666, 0.18328738, -0.26757225, 0.038365573, -0.593259, -0.11666729, -0.8564661, 0.1864387, -0.13708639, -0.014583854, -0.64825916, -0.13829224, -0.85963196, 0.16405644, -0.18166314, 0.04075289, -0.6669728, -0.18052429, -0.93785274, 0.10999379, -0.22423252, 0.05605457, -0.67807716, -0.3199493, -0.58529115, 0.04425865, -0.19828734, 3.0710897e-05, -0.7389623, -0.48490027, -0.5006541, -0.0378151, -0.12920763, -0.0040430897, -0.7716328, -0.76421136, -0.255604, -0.1336192, -0.13035734, -0.06485711, -0.796143, -0.9701755, 0.042151015, -0.2290398, 0.37537453, -0.059439868, -0.7891039, -1.0776664, 0.41562983, -0.24547164, 0.41916525, -0.025443405, -0.77298635, -1.2176776, 0.76206154, -0.4443603, 0.4569227, -0.09173277, -0.79558074, -1.3087763, 1.1334295, -0.5301672, 0.47761783, -0.027219335, -0.823864, -1.3482232, 1.2741712, -0.653368, 0.48282328, 0.009907472, -0.85235816, -1.3885617, 1.2153747, -0.682173, 0.4940949, -0.03305639, -0.7830327, -1.3546079, 1.0610113, -0.7550068, 0.5174561, -0.01395019, -0.72538805, -1.428775, 1.0490824, -0.8228665, 0.5623563, -0.025982749, -0.5833152, -1.4545814, 1.1941435, -0.9170962, 0.53673315, 0.008628764, -0.57042724, -1.4854937, 1.220094, -1.0304409, 0.5115935, -0.027745327, -0.5534451, -1.473466, 1.1790557, -1.0363835, 0.6130219, 0.0036774238, -0.59418255, -1.4989711, 1.2648424, -1.0093218, 0.62776315, 0.021246497, -0.5442933, -1.4728507, 1.3946366, -0.92292494, 0.6137282, -0.013789268, -0.51577926, -1.5154773, 1.4949313, -0.9295919, 0.6829007, 0.0074370545, -0.43768832, -1.56336, 1.5004256, -1.000184, 0.7015707, 0.026504738, -0.31733453, -1.6227006, 1.4556513, -1.1240257, 0.6786421, 0.06790775, -0.32139564, -1.5650629, 1.3504844, -1.1478904, 0.59031445, 0.079111926, -0.2318365, -1.5945516, 1.1633382, -1.1615468, 0.55258733, 0.19711006, -0.2126322, -1.385759, 0.94339347, -1.110475, 0.52624387, 0.1436142, -0.23347065, -0.9964266, 0.53801876, -1.0295514, 0.49916855, 0.1497133, -0.20349409, -0.3519922, 0.13167617, -1.0510006, 0.24958453, 0.020764388, -0.19612701, -0.20239617, -0.43090215, -1.0112724, 0.29515874, 0.19022922, -0.17457427, -0.307119, -0.6870514, -1.0253114, 0.37000206, 0.28458634, -0.2903677, -0.27065933, -0.65901065, -1.0982769, 0.34837905, 0.32182756, -0.30851206, 0.0017587654, -0.37248653, -1.134788, 0.34792638, 0.38168278, -0.31531006, 0.08071967, -0.4162426, -1.2126769, 0.33369902, 0.40354484, -0.35900417, 0.06597232, -0.5501952, -1.228523, 0.42172158, 0.44384307, -0.46490544, 0.032373022, -0.53329825, -1.2965716, 0.4085534, 0.53567713, -0.4653491, 0.049037486, -0.4208547, -1.3107891, 0.39200267, 0.5618574, -0.48835802, 0.013097153, -0.30752218, -1.3518122, 0.41849005, 0.55673486, -0.0018688805, -4.925943e-05, -0.17879607, -1.3288348, 0.39955735, 0.6161109, 0.028555956, -0.03796961, -0.122706205, -1.3492416, 0.45361504, 0.5878999, 0.16454211, 0.013102561, -0.09795396, -1.3281033, 0.46484217, 0.48403558, 0.3294581, 0.06332744, -0.05048593, -1.2957699, 0.44110402, 0.55009544, 0.43616274, 0.110879414, -0.09780059, -1.3044428, 0.4202976, 0.60241276, 0.55588466, 0.07584258, -0.0671071, -1.2800636, 0.43314224, 0.60352963, 0.59126514, 0.10671627, -0.054395486, -1.2822016, 0.35140577, 0.643592, 0.516178, 0.19403933, -0.06927996, -1.2354367, 0.35739028, 0.64224666, 0.549379, 0.2987245, -0.09439719, -1.3299847, 0.34923357, 0.62917846, 0.4800349, 0.5484635, -0.08033337, -1.2849119, 0.38198537, 0.55148435, 0.3915364, 0.8880371, 0.14461316, -1.3432722, 0.48203453, 0.44719455, 0.38147488, 1.1088868, 0.34955433, -1.3441519, 0.5113742, 0.44456398, 0.35306522, 1.2240136, 0.4106094, -1.3579507, 0.61570054, 0.37190267, 0.36014602, 1.3467145, -0.07212193, -1.3687779, 0.6740912, 0.31079867, 0.3706081, 1.3735882, -0.34443995, -1.3525006, 0.748618, 0.26168713, 0.3862712, 1.4134893, -0.5785628, -1.3290505, 0.76649475, 0.22985497, 0.43822235, 1.3760201, -0.6808308, -1.2836777, 0.7759163, 0.14801688, 0.43829218, 1.3692209, -0.7530416, -1.2072808, 0.7586128, 0.006635895, 0.5120518, 1.3795986, -0.7072774, -1.172345, 0.7514038, -0.0044019166, 0.5501376, 1.3758723, -0.70740837, -1.0899622, 0.69982636, -0.055960476, 0.5680169, 1.3814245, -0.5023382, -1.0372257, 0.7334476, -0.118784435, 0.6104939, 1.3320137, -0.120142914, -0.91715634, 0.8139495, -0.16890046, 0.6812019, 1.3329294, 0.05211433, -0.8955268, 0.75750166, -0.1799603, 0.7564759, 1.2914318, 0.05057116, -0.7513255, 0.8080829, -0.23179643, 0.7145125, 1.2512597, 0.084943704, -0.6154717, 0.72154486, -0.26366556, 0.65220547, 1.2164737, 0.18598038, 0.044513952, 0.77224797, -0.29512793, 0.58491504, 1.2034861, 0.31812853, 0.7018019, 0.6752068, -0.3292356, 0.4941785, 1.06794, -0.38089082, 0.77497536, 0.64463633, -0.43035024, 0.40330675, 0.95119107, -0.46658748, 0.7109149, 0.25450557, -0.4391539, 0.3226794, 0.62210816, -0.5731259, 0.76730996, 0.1659706, -0.36026025, 0.15740393, 0.2683035, -0.56484085, 0.19196294, 0.06776963, -0.14350708, 0.11265023, -0.12699473, -0.6661882, 0.322535, -0.16813119, 0.021852551, 0.057762798, -0.427248, -0.9305472, 0.42611048, -0.30397308, 0.029450415, 0.10372853, -0.5456887, -1.3003544, 0.5781564, -0.19861582, 0.073925994, 0.07214752, -0.52766097, -1.1768605, 0.4307428, -0.22426909, 0.04052931, 0.07762501, -0.5573589, -1.1505711, 0.3839144, -0.19133288, 0.041607283, 0.12618761, -0.55236626, -1.1114144, 0.45508057, -0.17063262, 0.034233056, 0.14482649, -0.5605566, -0.9809621, -0.6540078, 0.10731905, 0.050298706, 0.23819776, 0.47592828, 0.6586097, 0.056885596, -0.492003, -0.5479122, -0.48366252, 1.1385028, 0.4566715, 0.46289065, -0.15856953, -0.63645524, -0.04709126, 1.3068992, -0.73692477, -0.26909095, -0.9719165, 0.35291052, 0.46123248, 1.30164, -1.0172325, 0.24638969, 0.39892027, -0.6458668, 0.4177452, 1.0778235, -0.35005507, -0.43489364, 0.06072094, 0.09046984, 0.38835642, 0.57810336, -0.63658315, -0.7410621, -0.50666994, 0.3144933, 0.5201852, 0.006032465, -0.30710286, -0.8736745, -0.79844177, 0.52547973, 0.22692491, -0.38788748, 0.07998581, -0.61767894, 0.944049, -0.97862834, 0.15323463, -0.51014537, 0.55078053, -0.81009865, -0.24069552, 0.38883683, 0.408952, -0.30648053, 0.35321686, -0.6466849, 0.4475491, -0.18069537, 0.46593815, -0.377291, 0.2627172, -0.43081954, 0.6393833, -0.11741301, 0.32877538, -0.39367428, 0.22460486, -0.34948626, -0.32190797, -0.072638325, 0.11671995, -0.52918845, 0.1289563, -0.36757118, -0.46173006, 0.048652146, 0.13873588, -0.33656535, 0.14320077, -0.49754444, -0.7154285, 0.40537626, 0.111856714, -0.3673221, 0.06684779, -0.6247653, -0.4455786, 0.19659586, 0.24136697, -0.2451389, 0.16682301, -0.41875777, 1.1169896, -0.1241808, 0.26654413, -0.13505663, 0.222753, -0.5275616, 0.9270645, 0.006362148, 0.110849805, -0.25005314, 0.007715179, -0.31582358, 0.7242592, -0.14682591, 0.20368503, -0.21355218, -0.5571642, -0.21206255, -0.14505135, -0.3392233, 0.16698319, -0.2787672, -0.6067382, -0.22458203, 0.0013602887, -0.313517, 0.16651912, -0.31183752, -0.67177606, -0.34525752, 0.34593838, -0.43171746, 0.083384044, -0.32350534, -0.61246216, 0.0952161, -0.07844379, 0.4242826, 0.022597766, -0.39027068, -0.9349132, -0.0792888, -0.38134754, 0.4018415, 0.0044700922, -0.42397317, -0.936306, 0.049797326, -0.5263793, 0.35846174, -0.0039655925, -0.5161211, -0.6677105, -0.029408336, -0.61549306, 0.3713251, -0.009497117, -0.60328174, -0.66369456, -0.05187901, -0.6316126, 0.34584373, -0.033580568, -0.7002435, -0.564377, 0.18894887, -0.47666347, 0.08436391, -0.016645452, -0.71222353, -0.51702017, 0.13394506, -0.47543484, 0.089217976, -0.03185277, -0.82291996, -0.47282752, 0.07048954, -0.50333154, 0.11263406, -0.091167614, -1.1214856, -0.5152668, -0.062326424, -0.36422506, 0.10501231, -0.098667204, -1.2131925, -0.33432397, -0.18703167, -0.20104183, 0.04478928, -0.16483495, -1.2102478, -0.79894865, -0.29806986, -0.17892498, 0.055800017, -0.13736778, -1.2963881, -0.48281342, -0.45275518, -0.11947855, -0.02027786, -0.18823777, -1.3701575, -0.026066724, -0.5658353, 0.010219562, -0.0038190233, -0.21884975, -1.4667373, 0.22048478, -0.88578755, 0.11712811, -0.0370443, -0.20822093, -1.5779191, 0.4035851, -0.98363626, 0.2054386, 0.043058082, -0.27392435, -1.5898949, 0.545219, -1.0422378, 0.18021567, 0.07477956, -0.1792692, -1.6248189, 0.5468836, -1.0573796, 0.23699765, -0.003004592, -0.15657805, -1.6160402, 0.5782695, -1.0664381, 0.20189115, 0.012017781, -0.06670552, -1.675962, 0.61327845, -1.1475353, 0.006822937, 0.059637506, 0.07027978, -1.674285, 0.6153518, -1.2209938, -0.0803172, 0.1026955, 0.123467065, -1.6254413, 0.5946485, -1.2224249, -0.15067963, 0.16774938, 0.13948117, -1.6441967, 0.68542355, -1.2564282, -0.1834923, 0.15604916, 0.111089095, -1.6155216, 0.7941676, -1.3154582, -0.11732229, 0.18952645, 0.030531112, -1.6621753, 0.90223455, -1.3150332, -0.080590345, 0.2166506, 0.014493189, -1.6673115, 0.9908573, -1.2965055, -0.0020942013, 0.18977869, 0.018986404, -1.6154687, 1.0709542, -1.3504113, 0.011827446, 0.17529258, 0.013434653, -1.6168854, 1.0454288, -1.32801, 0.027034773, 0.25696772, 0.0024935212, -1.556744, 0.93211585, -1.3776366, -0.064552866, 0.31086525, -0.017650915, -1.4799048, 0.7047308, -1.3724838, -0.13815828, 0.4042906, 0.01694014, -1.2626692, 0.72649395, -1.3804495, -0.11711133, 0.41460273, 0.0073791663, -0.9754947, 0.4870582, -1.3955754, -0.060313392, 0.40722454, -0.058587074, -0.82111317, 0.26276505, -1.3319322, -0.29815486, 0.3411439, -0.011102778, -0.75094867, -0.19249499, -1.3041291, -0.25279853, 0.358099, -0.0647071, -0.9004674, -0.54935056, -1.3696549, -0.18152638, 0.5729705, -0.33219543, -0.8728192, -0.46795613, -1.2996017, -0.15868688, 0.5276603, -0.36721718, -0.66719306, -0.2726226, -1.3378954, -0.13811609, 0.8006047, -0.40610164, -0.40640354, -0.4565271, -1.383751, -0.16516721, 0.81457967, -0.1951375, -0.32831228, -0.6671923, -1.3847289, -0.20284528, 0.87267154, -0.33905053, -0.19391625, -0.69828093, -1.4282254, -0.20884411, 0.96943146, -0.41345924, -0.10989283, -0.358206, -1.4661827, -0.2406592, 1.0265852, -0.63066876, -0.023324411, -0.045112416, -1.4341341, -0.18035655, 1.0655084, -0.55576086, -0.02765003, 0.1239795, -1.4525388, -0.14344949, 1.0394604, -0.45514116, 0.10523079, 0.4376331, -1.5109142, -0.088608496, 1.0165018, -0.43681553, 0.14427458, 0.48773408, -1.50217, -0.026873818, 0.93719023, -0.35367674, 0.25823024, 0.52583104, -1.5350868, -0.01257557, 0.9223822, -0.2535215, 0.2757676, 0.6127954, -1.4509718, 0.002559683, 0.9651177, -0.123131566, 0.33796152, 0.67006046, -1.4470831, -0.06019789, 0.94491804, -0.08470155, 0.30864248, 0.67899007, -1.4077437, -0.034568515, 0.96098787, -0.064337425, 0.63451844, 0.6623305, -1.4856225, -0.04568312, 0.97211623, -0.101578265, 0.71108675, 0.6370577, -1.5131296, -0.05766428, 0.9441563, -0.09442255, 0.791101, 0.54939336, -1.5266982, -0.08084175, 0.9613359, -0.15821512, 0.8669444, 0.51554716, -1.5142487, -0.03490025, 0.92468697, -0.21129246, 0.911459, 0.17862613, -1.552707, 0.08251181, 0.89344287, -0.2548814, 0.9941687, -0.124070354, -1.5186598, 0.32039398, 0.9061102, -0.2411991, 1.1389729, -0.4028073, -1.5434287, 0.40523896, 0.80535114, -0.24336368, 1.2427633, -0.52457786, -1.5229069, 0.3940805, 0.7635129, -0.22806273, 1.3013986, -0.6214422, -1.4446803, 0.42107818, 0.53919965, -0.20856798, 1.253743, -0.6412259, -1.3597567, 0.36632183, 0.4386476, -0.17405967, 1.2690679, -0.6328326, -1.2789629, 0.25794622, 0.30294886, -0.088993736, 1.2632434, -0.6423913, -1.2324635, 0.2683127, 0.16310285, -0.077181935, 1.2103908, -0.553313, -1.1077209, 0.17391004, 0.11189734, 0.053300675, 1.1555122, -0.50372684, -0.99133986, 0.202823, -0.030614039, 0.1502705, 1.0774701, -0.13623351, -0.86753744, 0.23347636, -0.112216555, 0.34520638, 1.0133097, 0.14237405, -0.8451308, 0.25774375, -0.11027712, 0.46712935, 0.79375595, 0.30943292, -0.79645157, 0.19852652, -0.11163029, 0.48282716, 0.7168648, 0.53018993, -0.72855896, 0.235911, -0.15500474, 0.37092087, 0.6176182, 0.7170154, -0.7081117, 0.30202097, -0.19024597, 0.2993455, 0.530369, 0.9040959, -0.3944623, 0.5600131, -0.1328633, 0.16109589, 0.44169468, 0.7980223, -0.14925031, 0.6136968, -0.43780288, 0.09516705, 0.293477, 0.5540393, -0.13606398, 0.53242856, -0.44363046, -0.020435471, 0.14851521, 0.19083467, -0.14362729, 0.44889405, -0.4646867, -0.165437, -0.0425142, 0.09259596, -0.49438715, 0.41663903, -0.14842801, -0.12546232, -0.16505261, -0.13355035, -0.31904894, 0.19571288, 0.0015080273, -0.09966175, -0.18395366, -0.39404246, -0.07259433, -0.1437855, -0.052557472, -0.014654263, -0.09391364, -0.8320615, 0.2810573, -0.056432012, 0.13721351, -0.09295417, -0.04677812, -0.5838449, 0.35220957, -0.04571363, 0.082285285, -0.09114738, 0.019133706, -0.59518707, 0.2862628, 0.07106613, 0.048108708, -0.089276604, 0.02748949, -0.70215505, 0.36044276, 0.10486423, 0.09737355, -0.08851886, 0.0051510334, -0.6191964, 0.40290555, -0.3904164, 1.0086175, 0.8368296, 0.9118014, 0.96206397, 0.44529217, 0.34479406, 0.7578307, 1.5794876, 0.49014944, -0.29018816, 0.09486118, 0.87715834, 0.6504563, 1.5222895, 0.47388062, 0.50503224, 0.4873819, 1.3396949, 0.44616354, 0.05059961, 0.5152593, 0.69835454, -0.3181867, 0.6357912, 0.12067501, -0.67345285, 0.4760297, 1.3122923, 0.46023607, 0.6187619, 0.71306336, 0.5169286, 0.57547003, 1.0880493, 0.44198397, -0.39975846, 0.865822, 0.1420708, 0.50532323, -0.010023597, 0.7125896, -0.6315174, 0.9297161, 0.5195211, 0.47110024, 0.38965783, 0.5947827, -0.7133187, 1.6603152, 0.080457196, 0.3913659, 0.32331446, 0.64624095, -0.63680714, 0.49771848, -0.3007915, 0.49884441, 0.3304067, 0.70691514, -0.6916031, 0.7318759, -0.6886164, 0.49649975, 0.42403474, 0.63013965, -0.51373196, 0.49478075, -1.144668, 0.5379467, 0.646868, 0.4306726, -0.9183393, 0.68618524, -1.2824243, 0.85629165, 0.6567765, 0.7512637, 0.11199403, -0.15358998, -0.32794178, 1.0885829, 0.859443, 0.71060085, 0.5539087, 0.20513873, -0.42403615, 0.70363927, 0.68994236, 0.8323486, 0.10357801, 0.22113961, -1.1002038, 0.60006607, 0.13647974, 0.7681151, -0.16137153, 0.10615799, -1.2180219, 0.5391251, -0.2003989, 0.82121384, -0.06368953, 0.012292161, -1.044034, 0.4702235, -0.11603241, 0.8046022, -0.23273137, 0.13026346, -1.3159267, 0.42940968, 0.25708959, 0.7670837, -0.15369615, 0.05557475, -1.4887438, 0.31591073, 0.42837512, 0.77085054, -0.10367664, 0.044297297, -1.553733, 0.26339662, 0.4351047, 0.8342707, -0.037059583, 0.031326436, -1.6423861, 0.15993895, 0.59118855, 0.7818859, 0.5871508, -0.19399203, -1.6293745, 0.08818128, 0.32699382, 0.78790766, 0.79023474, -0.4985066, -1.6380748, 0.100241065, -0.19932687, 0.79942495, 0.7068543, -0.8233986, -1.6564145, 0.05629491, -0.35335368, 0.7057989, 0.7903723, -0.97716045, -1.6210152, 0.10932398, -0.3372626, 0.6521864, 0.9703211, -0.9433406, -1.6270422, 0.09263348, -0.27520394, 0.3578482, 1.0524026, -0.69445205, -1.59185, 0.13615485, -0.25081292, 0.27008063, 1.164887, -0.6124232, -1.5188642, 0.16297139, -0.17163505, 0.24327177, 1.0437666, -0.5980558, -1.5355357, 0.36697152, -0.10585714, 0.2237131, 0.6727524, -0.53921115, -1.5057561, 0.30850035, -0.045356374, 0.23774357, 0.87366277, -0.46235946, -1.5233045, -0.038533993, 0.189731, 0.21414901, 1.0042124, -0.45777175, -1.4834411, -0.50136477, 0.09397988, 0.2321002, 1.162424, -0.44753712, -1.4929024, -0.55453634, -0.024338502, 0.342851, 1.2574754, -0.40138113, -1.4518065, -0.519195, -0.03324955, 0.65442306, 1.1882925, -0.3194758, -1.481751, -0.38382676, 0.005569827, 0.65697044, 1.0796876, -0.302931, -1.5350565, -0.39045057, 0.07544278, 0.617619, 1.0595508, -0.30233243, -1.5868881, -0.32580295, 0.112829685, 0.63635296, 1.026261, -0.25623477, -1.5989412, -0.30515018, 0.09097023, 0.7136833, 0.9934019, -0.11148317, -1.7030082, -0.29860672, 0.12742801, 0.6789513, 1.3808166, -0.17787032, -1.6957306, -0.29371098, 0.22793591, 0.77662164, 1.3579404, -0.23753856, -1.7275212, -0.2022446, 0.24149318, 0.72993875, 1.4383739, -0.35473016, -1.7731076, -0.2480283, 0.25411546, 0.7668164, 1.4592568, -0.528099, -1.7528737, -0.20109929, 0.40973833, 0.8153276, 1.4391334, -0.59637594, -1.670477, -0.20061406, 0.486422, 0.8831442, 1.5183642, -0.6770495, -1.580338, -0.22981007, 0.48484242, 0.9084187, 1.4762374, -0.76836497, -1.4147325, -0.23086011, 0.45515352, 0.89661956, 1.4495791, -0.84965444, -1.3059602, -0.24393198, 0.3442276, 0.9328116, 1.3435658, -0.77025676, -1.2915123, -0.30760992, 0.24681562, 0.9191149, 1.406826, -0.86491334, -1.2669796, -0.34223554, 0.1831819, 0.9635969, 1.4544328, -1.1277755, -1.2186261, -0.4474641, -0.10624712, 0.7782197, 1.6052417, -1.1970521, -1.0087471, -0.49579304, -0.056149147, 0.8856839, 1.6697743, -1.3122945, -0.8166581, -0.47694582, 0.67935205, 0.9103118, 1.8650001, -1.2095228, -0.81295824, -0.5044524, 0.88099384, 0.85049003, 1.8549337, -1.5044818, -0.7382897, -0.45003724, 0.96480983, 0.4554469, 1.8447245, -0.5104661, -0.63501877, 0.2080452, 0.6353592, 0.43130946, 1.8428596, -0.26961496, -0.6752724, 0.16130768, 0.10792724, 0.41830045, 1.8455178, -0.43335778, -0.66051453, 0.18699896, 0.24841556, 0.4423392, 1.8221271, -0.13668856, -0.8930097, 0.13188791, 0.4842729, 0.38569465, 1.7110325, -0.11177983, -0.9055517, 0.22570057, 0.48560017, 0.36217037, 1.6370403, -0.08106517, -0.9207138, 0.2382461, 0.56802815, 0.2941294, 1.6798171, -0.1089143, -0.63069344, 0.2876175, 0.5218526, 0.12001709, 1.6643769, -0.14834994, -0.55707526, 0.29498747, 0.40859282, -0.0072247386, 1.729898, -0.22850911, -0.45572343, 0.33283922, 0.04771493, -0.19911605, 1.7311473, -0.18680683, -0.2777663, 0.32452282, -0.04208814, -0.3589668, 1.7701149, -0.23355797, -0.056236528, 0.22447218, -0.019355228, -0.42620015, 1.733248, -0.11508933, 0.09113672, 0.19573274, -0.031608574, -0.50919425, 1.4847368, 0.07342496, 0.17307346, 0.25968596, -0.10591724, -0.50185525, 1.109536, 0.077450044, 0.18163228, 0.21909487, -0.11017668, -0.527457, 0.95208365, 0.050835118, 0.22751865, -0.13895863, 0.10912556, -0.51808006, 0.9446708, -0.014836119, 0.253593, -0.16269346, 0.47198385, -0.53579473, 0.96590656, -0.106520884, 0.4019228, -0.18363136, 0.76403034, -0.45823696, 1.1208178, -0.16618747, 0.45072824, -0.20596617, 0.8695132, -0.4435259, 1.2694405, -0.326935, 0.5243206, -0.20628163, 1.1485518, -0.39714247, 1.3124179, -0.4926086, 0.521987, 0.11991716, 1.3065684, -0.38163766, 1.3671954, -0.64898443, 0.61629343, 0.41899177, 1.3965892, -0.40944389, 1.3874041, -0.83872116, 0.85092056, 0.5018411, 1.2795811, -0.43081483, 1.4187006, -0.78317916, 1.0180401, 0.52439344, 0.8105143, -0.41982135, 1.417099, -0.80136, 1.2072879, 0.41456532, 0.5505508, -0.40422508, 1.4045501, -0.6357653, 1.2401015, 0.4705712, 0.41245028, -0.44965503, 1.327509, -0.50132614, 1.2705144, 0.38623053, 0.29868442, -0.37912205, 1.2330065, -0.5374369, 1.3255801, 0.41659757, 0.2609033, -0.41778094, 1.2014668, -0.66169995, 1.3196673, 0.32181853, 0.29020396, -0.30747792, 1.2353449, -0.6550845, 1.4967655, 0.32343414, 0.17662781, -0.30049202, 1.2983288, -0.6906613, 1.6911689, 0.28389257, 0.33665523, -0.3851158, 1.1770831, -0.6193054, 1.792919, 0.2552207, -0.22203295, -0.39590043, 1.1634378, -0.5683795, 1.6681367, 0.21173984, 0.05822061, -0.39568293, 1.1373291, -0.52367383, 1.600293, 0.2094359, -0.08142433, -0.4777405, 1.1652359, -0.4556785, 1.5319653, 0.19072703, -0.29651147, -0.037346918, 0.6417261, 0.7545576, 1.4074205, 0.037890892, -1.3339394, -0.10428706, 0.6087775, 1.1972919, 1.3577416, 0.019323664, -1.3423662, -0.18968803, 0.5969573, 1.3741311, 1.402505, 0.10371731, -1.3161627, -0.15315765, 0.5502095, 1.3990426, 1.361298, 0.095836066, -1.2675521, -0.014918083, 0.44551513, 1.1608983, 1.3317066, 0.109170176, -1.1992579, -0.1147704, 0.438228, 1.0065227, 1.2538621, 0.108746566, -1.3125354, -0.35955137, 0.36318955, 1.0555471, 1.2720505, 0.025642054, -1.307329, -0.6363075, 0.28448123, 1.1670477, 1.2860066, -0.09964818, -1.3330532, -0.6954877, 0.24258722, 1.1492245, 1.3116783, -0.08130564, -1.4439865, -0.6448711, 0.18727975, 1.0820552, 1.2547997, -0.04205364, -1.4617747, -0.64248556, 0.09939115, 1.0641977, 1.2262806, -0.0029078347, -1.585208, 1.1845903, -1.7984796, -0.04749983, -1.2139239, -0.26396602, -0.074998856, 0.43698663, -1.4672087, 0.58467263, -1.2136029, -0.29291257, 0.68896, 0.11535304, -1.44709, 0.86724234, -1.2298374, -0.27887183, 1.134083, 0.111300476, -1.4960347, 0.085836, -1.5705814, -0.22246236, 1.2770747, 1.1322018, -0.43587548, 0.7559691, 0.14769262, -0.13341327, 1.3577678, 0.9032824, -1.6775413, 1.1002014, -1.036033, -0.13451695, 1.3852581, 1.0476351, -0.9885502, -0.24376342, -0.59789073, 0.18635643, 1.3263985, 1.0287508, -1.1544824, -0.7364827, -0.8710546, 0.41722804, 1.2414496, 1.1057029, -1.5142293, -0.6643723, -0.39351055, 0.56854665, 1.2685559, 0.75802773, -1.0917839, -1.1064546, -0.29103887, 0.5856279, 1.1545931, 1.0252175, 0.33425727, -1.1601218, -0.5453137, 1.1683053, 1.1631328, 0.6479934, -0.4902047, -0.9518573, -1.4385909, 0.9520812, -0.22043483, 0.90004426, 0.595253, -0.75196874, -0.2528583, 0.44497526, 0.759419, 0.83574873, 0.38819897, -1.0207402, -0.890061, 0.4181974, 0.5057396, 1.1986544, 1.5307639, -0.95210725, -0.9148622, 0.26869348, -0.73502696, 0.26383603, 0.37616688, -0.67451257, -0.916074, 0.18131337, -0.71560067, 0.91662794, 0.6975687, -1.1120669, -0.4057868, 0.28018665, -0.59756005, 0.8187786, 0.42903078, -0.9080485, -0.52151227, 0.11468825, -0.7564213, 0.7207924, 0.35710755, -0.8803334, -0.3975906, -0.11879667, -0.88332236, 0.70230347, 0.08904263, -0.9048846, -0.14147824, -0.26708865, -0.82198995, 0.7411292, 0.19704776, -0.9341806, -0.03665136, -0.45534036, -0.81188846, 0.42695537, 0.022668239, -0.77728605, -0.013226379, -0.558575, -0.58451134, 0.32133526, -0.27806598, -0.18670197, 0.06290364, -0.63482624, 0.073776424, 0.30762738, -0.6237604, -0.0039340514, 0.12538175, -0.7379036, 0.4307512, 0.24414313, -0.8889383, 0.064308465, 0.15690044, -0.84781367, 1.2419955, 0.10499823, -0.7561674, 0.09452119, 0.18127309, -0.7773347, 1.4244946, 0.039986, -0.56296504, 0.078454636, 0.23391055, -0.7854148, 1.6518992, 0.042237267, -0.3377886, 0.0522213, 0.15604788, -0.8068658, 1.5370553, 0.0476585, -0.1761104, 0.11977173, 0.2084968, -0.9481674, 1.3962371, 0.02747415, -0.109793425, 0.12608826, 0.16679452, -1.0500007, 1.3096898, 0.08529593, 0.071163066, 0.12182486, 0.20776178, -0.76424944, 1.3088099, 0.21521515, -0.013333149, 0.14421824, 0.227645, -0.40837586, 1.3477529, 0.25112697, -0.029312523, 0.17097078, 0.23035727, -0.1448756, 1.2610866, 0.40210837, -0.01159539, 0.18712401, 0.1964447, -0.09035507, 1.2118331, 0.58184123, -0.03889592, 0.20831846, 0.21588418, -0.03724588, 1.3245907, 0.6878697, -0.06551371, 0.21515901, 0.26007885, -0.058746606, 0.6608902, 0.897621, -0.11670791, 0.27043054, 0.2635498, -0.042104907, 0.22795093, 0.9425427, -0.120111786, 0.2608715, 0.24468781, -0.10049677, 0.2426411, 1.0603755, -0.07219574, 0.24731256, 0.2575609, -0.045388266, 0.13292606, 1.1021358, -0.08299346, 0.24423294, 0.24223542, -0.049639136, -0.21349023, 1.095577, -0.17958336, 0.22886695, 0.2517656, -0.032398667, -0.8123686, 1.2052231, -0.1958949, 0.2497817, 0.18488532, -0.06621861, -0.84957725, 1.2018387, -0.09992175, 0.23131579, 0.24266002, -0.016460825, -0.48397702, 1.1221877, -0.05271747, 0.18602422, 0.20713137, -0.030924898, -0.63238263, 1.0820787, 0.0061268997, 0.14469805, 0.16929919, -0.047385745, -0.82559776, 1.0098195, 0.005768994, 0.12549892, 0.2207026, -0.06757469, -0.9471153, 1.0380267, 0.00069161324, 0.07237697, 0.24506363, -0.14833681, -0.94662845, 1.1024759, -0.030405384, 0.119127624, 0.2246788, -0.17861287, -0.9066535, 1.1455426, -0.009353901, 0.12270948, 0.20466107, -0.19208057, -0.84103596, 1.1615645, -0.06414013, 0.15075779, 0.19773565, -0.17956415, -0.74499226, 1.1060432, -0.03436025, 0.16598767, 0.34141088, -0.10688433, -0.5669257, 1.0240225, -0.08768868, 0.20384702, 0.83486265, -0.05458857, -0.25385755, 1.0413293, -0.08516535, 0.20919098, 1.0511003, -0.036693517, 2.1054363, 1.0001076, -0.1383858, 0.32900178, 1.0748979, 0.043897446, 2.1246283, 1.0727234, -0.20124903, 0.39080757, 1.009545, -0.003297737, 1.8547585, -0.13652998, -0.4137377, 1.1292629, 0.11346091, 0.71168816, 1.5468694, -0.1091266, -0.37609428, 1.1311883, 0.11066188, 0.88148403, 1.0242324, 0.07971988, -0.51892805, 1.780645, -0.08091376, 0.769082, 1.2014211, 0.08763743, -0.49069718, 1.8329815, -0.0024304893, 0.8132771, 1.0852469, 0.11309161, -0.4721455, 1.8311554, 0.07802949, 0.916129, 1.0826375, 0.05404102, -0.3774666, 1.8660177, 0.22816154, 0.9701649, 1.1553003, 0.026088743, -0.35790184, 1.9151736, 0.2855676, 0.96665704, 1.1073303, 0.043611184, -0.4062218, 1.9129453, 0.26460811, 1.0470977, 1.0575353, 0.07801412, -0.42079362, 1.8990757, 0.4107401, 1.1152619, 1.00821, 0.0761062, -0.45926607, 1.8878752, 0.019386362, 1.153492, 1.0624868, 0.05474468, -0.4701237, 1.9445367, -0.26763403, 1.1894141, 0.9793476, 0.044528127, -0.41016412, 1.9310434, -0.3144366, 1.1792434, 0.9026123, 0.058663175, -0.37447792, 1.9822066, -0.39498842, 1.1879883, 0.76628065, 0.101879686, -0.33391023, 2.0175438, -0.3388267, 1.256218, 0.7092809, 0.08184323, -0.22273485, 1.9600223, -0.32957307, 1.2166036, 0.76103824, 0.072961666, -0.23506513, 1.9729798, -0.32088012, 1.1414429, 0.8502485, 0.085009925, -0.23602292, 1.9422537, -0.23691987, 0.74100137, 0.9546938, 0.046384457, -0.30411056, 1.860209, -0.14387007, 0.25062057, 1.5934365, 0.1066912, -0.34041288, 1.8550286, -0.10374414, 0.24234124, 1.316794, -0.09868773, -0.41679275, 1.7757763, -0.03597697, 0.3497047, 0.5719398, -0.07182269, -0.43499768, 1.7467916, -0.09254759, 0.3582198, 0.4654888, -0.04061405, -0.42888242, 1.6371578, -0.08054677, 0.30517367, 0.80644315, -0.07302251, -0.39149967, 1.6560977, -0.08705424, 0.36775345, 0.9920926, -0.044698942, -0.37364742, 1.6271803, -0.13583408, 0.38719487, 0.8419239, 0.013188195, -0.32973078, 1.6120172, -0.13761723, 0.39975518, 0.65343404, 0.06511431, -0.31790337, 1.6001362, -0.07434652, 0.38294196, 0.62834144, 0.103786826, -0.27508727, 1.6061945, -0.079923, 0.43591255, 0.5183439, 0.22375311, -0.27436292, 1.53377, -0.027159337, 0.56621873, -0.2825964, 0.34987503, -0.33757064, 1.5068425, 0.07036361, 0.5762649, -0.72350764, 0.6745516, -0.5831536, 1.4379983, 0.16506588, 0.5821031, -0.593466, 0.9557908, -0.7127772, 1.4202707, 0.25983557, 0.6651824, -0.6409908, 1.1809232, -0.7694605, 1.3858204, 0.25594026, 0.62386656, -0.6340383, 1.3647435, -0.8295748, 1.3353486, 0.29184955, 0.7319563, -0.5652283, 1.5276238, -0.8901963, 1.2490264, 0.29006264, 0.7355689, -0.32914126, 1.8758553, -0.6523541, 1.4536599, 0.2708708, 0.6160442, 0.61956805, 1.8844827, -0.62397856, 1.3994853, 0.2239591, 0.68930894, 0.55126065, 1.7891248, -0.5803174, 1.3580928, 0.22032951, 0.67846817, 0.4857433, 2.0270886, -0.5815766, 1.4295403, 0.27928022, 0.8784836, 0.50569445, 2.3293674, -0.68493617, 1.4178078, 0.32581222, 1.1395897, 0.42210937, 2.4309957, -0.7271904, 1.4320961, 0.461202, 1.6159021, 0.3420052, 2.4088416, -0.87300164, 1.4281791, 0.7738423, 1.5128187, 0.28237534, 2.2450197, -0.9964155, 1.4607801, 0.87029624, 1.2540412, 0.33167133, 2.1629362, -1.1694854, 1.4676064, 0.8994476, 1.0655525, 0.42380843, 2.074888, -1.3044795, 1.4916016, 0.7524246, 0.9366638, 0.47391552, 2.0594342, -1.4707016, 1.616912, 0.64173836, 0.85728675, 0.6138066, -0.6017516, 0.92378587, 0.5282096, 1.2214197, 1.1311396, 1.0643897, 0.3903035, 0.99091005, -0.8226961, 1.344836, 1.2271674, 0.1274914, 0.8114377, 0.99199116, -1.2025886, 1.7865546, 0.55810493, -0.15085456, -0.30526313, 1.0458034, 0.6272835, 1.0718819, 0.39912, 0.01586424, -1.250864, 0.8281937, -1.6560407, -0.10691469, 0.42925945, 0.08024444, -0.8690378, 1.7944633, -0.43611687, 1.3690144, 0.44659397, -0.058126785, -1.0842729, -0.59712845, 0.5347737, -0.3871193, -0.25855154, -0.12035394, -0.7027599, 0.17642282, -0.27382243, 0.35711697, -0.36017755, -0.29472908, -0.9721121, 0.99478745, 0.18949714, 0.026439808, -0.39756864, -0.5986927, -0.46978998, 0.36491054, -0.36418068, -0.4783446, -0.36688176, -0.76839805, -0.9228163, -0.94946605, -0.5362114, -0.5525693, -0.6205453, -0.684651, -0.19827005, 0.24408643, -0.0045114686, 0.5907036, -0.4466673, 0.70228356, -0.94828415, -1.163292, -0.20125112, -0.905784, -0.20590347, 0.44443947, -0.6993256, -0.40794274, -0.08223138, -0.59044105, -0.17643738, 0.736082, -1.300422, -0.5955529, -0.006697575, -0.51672184, -0.026130635, 0.95341843, 0.16852888, 0.38690385, -0.19528928, -0.281459, 0.04043523, 0.9245108, -0.80365974, -0.01717056, 0.10310343, -0.95472467, -0.06964985, 0.5764731, -0.4912202, 0.10616031, 0.01621832, -0.51558256, -0.052773092, 0.30974248, -0.15362461, -0.822402, -0.050620474, -0.42096403, -0.004986196, 0.32907292, -0.09599937, -0.47986937, -0.0066726003, -0.5801388, 0.044167403, 0.371372, -0.13160916, -0.021397157, -0.021868644, -0.72120655, 0.10207912, 0.5753733, -0.047627915, 0.7988262, -0.074578606, -0.70481324, 0.1529649, 0.77993023, 1.0816901, 0.018806882, 0.32309484, -0.6732108, 0.09702343, -0.49481633, 0.09973108, 0.11127647, 0.0026582708, -0.7101152, 0.15427023, -1.180687, -0.016992556, 0.24931082, -0.14939298, -0.7739179, 0.11165683, -1.3273834, 0.02283156, 0.18076251, -0.118073866, -0.8443276, 0.14592467, -1.38194, -0.014731089, 0.07167919, -0.11434605, -0.8239239, 0.18427268, -1.4023463, 0.023384366, -0.1753174, -0.061154313, -0.8793644, 0.15608366, -1.3451618, -0.013033661, -0.1920903, 0.013932663, -0.8588276, 0.10700751, -1.0141027, -0.064698294, -0.16195606, -0.012451622, -0.90672094, 0.016940339, -0.7808804, -0.06627061, -0.13997412, 0.070484, -0.93396896, -0.24295467, -0.2697575, -0.0015162252, -0.124101125, 0.023792576, -0.9379077, -0.6779106, -0.23446424, 0.085348465, -0.08392133, -0.024360022, -0.99490416, -0.8692521, -0.1723472, 0.06975618, -0.068510614, -0.026430098, -1.0188658, -0.9407835, -0.14627726, -0.007239981, -0.06281528, 0.012908075, -1.0055641, -0.94953173, -0.03038055, 0.04816768, 0.596522, -0.016599746, -1.0712048, -0.8973122, 0.21193501, 0.012150364, 0.64239424, 0.06370099, -1.012235, -0.86036366, 0.66693485, -0.017295923, 0.733287, 0.0043785227, -0.96974844, -0.83248156, 0.78764, -0.05583777, 0.69285774, 0.039592024, -0.8884174, -0.7794127, 0.4673276, -0.13096303, 0.8061358, 0.0044912645, -0.8621677, -0.8042344, 0.56936437, -0.12742615, 0.8588826, -0.02687357, -0.86280507, -0.7658056, 0.9994243, -0.25466654, 0.8934564, -0.046729647, -0.8268262, -0.7266435, 0.9781678, -0.22489145, 0.9498096, -0.049589593, -0.84306747, -0.7606174, 0.5732337, -0.26562127, 0.92735887, -0.097733386, -0.92777354, -0.6929641, 0.6523471, -0.1784113, 0.88133687, -0.09626304, -0.95602274, -0.66143787, 0.6301387, -0.1228517, 0.8879796, -0.08295038, -1.0457343, -0.61821455, 0.6373432, -0.09645513, 0.85509866, -0.070849985, -1.0973796, -0.61743087, 0.5586927, -0.20236419, 0.93294257, -0.05881975, -1.1414037, -0.58628684, 0.38693878, -0.2607959, 0.8752757, -0.117184296, -1.1286373, -0.4963015, 0.3227839, -0.36697593, 0.87142974, -0.10071698, -1.13517, -0.42670047, 0.3043557, -0.4105563, 0.9275788, -0.07302036, -1.0239792, -0.3957709, 0.14696977, -0.34011397, 0.8756755, -0.10711155, -0.9481368, -0.34074026, -0.1081476, -0.27031907, 0.8644179, -0.18973161, -0.8644327, 0.14124049, -0.5868884, -0.24027635, 0.81723744, -0.23965251, -0.8503768, 0.13663696, -1.2181956, -0.26285958, 0.8114873, -0.27566323, -0.73577076, 0.13916922, -0.87731373, -0.21992739, 0.85722595, -0.25749528, -0.6691249, 0.16945736, -0.3881747, -0.31260806, 0.8733518, -0.32325003, -0.6238265, 0.26858726, 0.036390223, -0.47779396, 0.85473806, -0.28445333, -0.66963375, 0.30865648, 0.121382006, -0.56703204, 0.8914535, -0.36003065, -0.68157023, 0.15185547, 0.058946732, -0.76850426, 0.9504979, -0.3454905, -0.81008637, 0.07313483, 0.04867387, -0.82490486, 0.97572225, -0.4396584, -0.7377175, -0.07688594, 0.033808388, -0.91683, 0.93328154, -0.39301175, -0.6121865, -0.15415415, 0.016243761, -0.9127003, 0.93403417, -0.3870908, 0.14108722, -0.28613654, 0.017216027, -0.8345129, 0.9833205, -0.395847, 0.4272809, -0.32046434, 0.012398859, -0.81110334, 0.92076284, -0.40843436, 0.9779826, -0.3598919, 0.007117633, -0.74420786, 0.9216077, -0.48933804, 1.3561527, -0.34539065, -0.0070746588, -0.77256554, 0.91772014, -0.5311706, 1.3497217, -0.3548125, -0.08037754, -0.75137836, 0.8611997, -0.48089373, 1.2673471, -0.3063967, -0.20301701, -0.73090637, 0.75293255, -0.44730917, 1.1700217, -0.2951113, -0.21209593, -0.70210415, 0.69313586, -0.4260104, 1.1256732, -0.2960067, -0.13980459, -0.6621819, 0.6660706, -0.47923952, 1.0081117, -0.21078403, -0.08553638, -0.72295904, 0.7561235, -0.5520357, 0.8611936, -0.0006477816, -0.20808095, -0.685308, 0.8529567, -0.5954689, 0.7868202, 0.27234444, 0.5895128, -0.6262461, 0.9156065, -0.5683092, 0.6329429, 0.59869325, 0.6231514, -0.67107654, 0.97690356, -0.56873167, 0.5901778, 0.6834301, 0.36406296, -0.6295577, 0.9600583, -0.4572622, 0.5677955, 0.68716866, -0.7161684, -0.58707714, 0.9900992, -0.4663573, 0.5324386, 0.61876637, -1.227787, -0.5747875, 1.0155683, -0.42545477, 0.6050663, 0.6250014, -2.169094, -0.49079177, 0.9866117, -0.3848671, 0.639619, 0.57580113, -2.0897353, -0.5379489, 0.93539166, -0.37486708, 0.61910033, 0.5391343, -2.0578873, -0.48380843, 0.9473069, -0.30326685, 0.64957863, 0.560839, -1.9565794, -0.46496078, 0.8279549, -0.23699035, 0.6534226, 0.5756064, -1.9433918, -0.4702293, 0.76724005, -0.17992024, 0.7168737, 0.48375618, -1.7319496, -0.46075177, 0.77517194, -0.12787403, 0.7320845, 0.4858747, -0.7634765, -0.66692364, 0.7851558, -0.07922704, 0.6575912, 0.46887228, -0.5524962, -1.0696422, 0.84578615, -0.070296854, 0.6140155, 0.44402307, -0.7052152, -1.3105042, 0.80170566, -0.09517352, 0.6576742, 0.4938626, -0.6082859, -1.3797603, 0.7764247, -0.13343972, 0.6831803, 0.42531052, -0.70415914, -1.0210351, 0.75783545, -0.16377567, 0.7178294, 0.43755522, -0.84883314, -1.2191377, 0.7346377, -0.22718708, 0.81955254, 0.42762604, -1.7336394, -1.1801145, 0.6488706, -0.2599854, 0.8873188, 0.3707034, -1.6063136, -1.161345, 0.4024047, -0.2030826, 1.021409, 0.4160903, -1.2765555, -1.1947789, -0.103005484, -0.2248027, 0.996329, 0.3843625, -0.85514784, -1.1659483, -0.25246227, -0.2314569, 0.9278372, 0.3817784, -0.67655176, -1.153085, -0.30383345, -0.21622302, 0.88153714, 0.117665485, -0.5005779, -1.1571589, -0.20217466, -0.2212636, 0.7053744, 0.023157153, -0.41664964, -1.1672627, 0.17199306, -0.321323, 0.5863579, 0.060580634, -0.41790166, -1.2492387, 0.5266103, -0.450778, 0.46821123, 0.12041555, -0.3895846, -1.2871195, 0.6882635, -0.4909015, 0.46436638, 0.18892668, -0.48308346, -0.99928635, 0.815543, -0.61323696, 0.50758815, 0.1771745, -0.51190233, 0.27230093, 1.069605, 0.5049356, 1.8570646, 0.6229092, 0.34391862, 0.13599415, 1.1998757, -0.22513773, 1.4309989, 0.60136163, 0.84675014, 0.21516849, 0.64417505, -0.112349, 1.9491912, -0.34466138, 1.1629317, 0.6797689, 1.0379564, -0.7470226, 0.56177014, -0.38182643, 1.0369681, -0.86169785, -0.1494438, -0.13139866, -0.120232716, -0.342037, 0.4740408, -0.06862738, 1.2356787, -1.171818, 0.6376837, -0.03247798, 0.7344976, -0.016281782, 0.801121, 0.51057184, 0.282377, -0.7267272, 0.70513904, -0.1785191, 0.31071675, 0.31703237, 0.24653503, -1.063935, 0.4558487, -0.094871625, -0.18335384, 0.6804171, 0.36197218, -1.1579113, 0.48082745, -0.037313595, -0.6447705, 0.102436736, 0.21332571, -1.1608515, -0.038309846, 0.073975876, -0.61965865, 0.13931099, 0.05490748, -1.1049131, 0.13264407, -0.001163716, -0.54274666, 0.38722017, -0.055232055, -1.0523472, 0.34621677, -0.35993546, 0.27141097, -0.34119695, -0.0901309, -0.95736927, 0.43926358, -0.33419344, 1.0144682, -0.06706148, -0.1517718, -0.76933444, 0.4521824, -0.8348385, 0.29761297, -0.6434235, -0.23660439, -0.5636657, 0.6528152, 0.5021186, 1.7934122, -0.53266907, -0.20750166, -0.8108702, 0.8924293, -0.8860496, -0.23373339, 0.2812718, -1.0788085, -1.0586756, -0.024596857, -0.540795, 0.31977552, -0.55860215, -0.6427833, -0.8803338, -0.022739263, -0.7806694, 0.33919135, -0.56400687, -0.60963607, -0.9279834, 0.14937359, -0.8492081, 1.1429471, -0.49863854, -0.7675918, -0.9432281, 0.15003605, -0.9149626, 1.0428677, -0.84490186, -0.80907094, -0.79998696, 0.13655123, -0.6988312, 0.9627713, -0.736394, -0.6911905, -0.7602661, 0.3287156, -0.07554504, 0.23826997, 0.24044889, -0.739327, -0.68231714, -0.18316817, -0.657519, 0.6187856, 0.35891414, -0.6974241, -0.456767, -0.16929664, -0.90052116, 0.7916369, 0.40076184, -0.7614444, -0.31993097, -0.11093688, -0.97763443, 0.7484615, 0.40055707, -0.8931098, -0.21366589, -0.058416273, -0.97371095, 0.6257622, 0.24686325, -0.90322536, -0.11554127, -0.053203605, -0.9986985, 0.39635074, 0.3080695, -0.84254235, -0.10298217, 0.43852016, -1.0464203, 0.2974355, 0.20464937, -0.85227495, -0.14330585, 0.51308805, -0.9836073, 0.31209832, 0.077558845, -0.90778726, -0.12819342, 0.5220706, -0.8846202, 0.80392337, 0.13234007, -0.858369, -0.1405302, 0.43370464, -0.7783855, 0.79962784, 0.07659347, -0.8762938, -0.19474468, 0.31213984, -0.5745673, 0.8563495, 0.03801835, -0.8686496, -0.14769027, 0.08194524, -0.4419133, 0.8631005, 0.08157835, -0.8340281, -0.1373465, -0.1196353, -0.33266473, 0.8123312, 0.15228832, -0.8591495, -0.06422466, -0.24458624, -0.068356104, 0.85184205, 0.09250325, -0.9138737, 0.004141361, -0.33426106, -0.11364139, 0.79154813, 0.08047731, -0.9626448, 0.034476213, -0.41022107, -0.043087047, 0.7783508, 0.007868783, -0.96268475, 0.019447198, -0.37107804, -0.03532947, 0.8112063, 0.07630711, -1.0460007, 0.055719133, -0.41697955, -0.10859492, 0.8829986, 0.0453502, -1.1099855, 0.1195194, -0.3859456, -0.08142803, 0.98910856, 0.05023388, -1.114995, 0.11417297, -0.36979955, -0.023141896, 1.0405631, -0.08281914, -1.18179, 0.0973082, -0.43050444, 0.007415344, 1.0619893, -0.12956944, -1.1699377, 0.10767074, -0.62128747, 0.020175934, 1.0055461, -0.1627144, -1.1854709, 0.12695843, -0.7593502, 0.006664087, 0.86206245, -0.19692495, -1.1192727, 0.19039649, -0.7259944, 0.083760396, 0.86393386, -0.12124995, -1.124898, 0.21976678, -0.73163587, 0.09095308, 0.905344, -0.20796515, -1.1410884, 0.20103112, -0.69440794, 0.0676632, 1.0205964, -0.33624655, -1.038742, 0.26565865, -0.6417817, 0.09327726, 1.0643522, -0.40014198, -0.88344663, 0.20981558, -0.59247535, 0.081248716, 1.1343125, -0.5416543, -0.7836504, 0.21097612, -0.47258893, 0.117470436, 1.2199144, -0.75521284, -0.6632905, 0.0563435, -0.39631915, 0.09374476, 1.2360076, -0.8414685, -0.6165182, -0.11324911, -0.23823689, 0.12580238, 1.2786208, -0.89765996, -0.56787336, 0.23302536, -0.011150436, 0.046894416, 1.3097442, -0.33642292, -0.5428457, 0.3277147, 0.42088515, 0.036440358, 1.2592524, -0.89267606, -0.48081315, 0.62985766, 0.6748986, 0.022167122, 1.2331728, -1.0614451, -0.4471453, 0.75640917, 0.6860766, 0.06009349, 1.1365218, -1.0910797, -0.37243256, 0.6601433, 0.401738, 0.037928652, 1.0992986, -1.090153, -0.38456422, 0.6351303, 0.6847323, 0.078597456, 1.1444166, -1.0876921, -0.3011512, 0.6910928, 1.2661858, 0.074617215, 1.1605394, -1.1131865, -0.24419838, 0.42650062, 1.3609459, 0.017072009, 1.1245106, -1.066498, 0.3396662, 0.4194371, 1.0892904, -0.030741753, 1.1077075, -1.0115125, 0.5222074, 0.42866346, 0.50250375, -0.038740274, 1.1243787, -1.0550512, 0.6114581, 0.4039885, 0.39229164, -0.05041623, 1.0440333, -0.9804835, 0.7164637, 0.39166597, 0.3670686, -0.11612202, 1.0817695, -1.0176076, 0.8380082, 0.3137389, 0.3314292, -0.0950567, 1.1705737, -1.0978305, 0.87189204, 0.3101278, 0.21867092, -0.10653106, 1.1541749, -1.0998366, 0.8189481, 0.31175515, 0.17519696, -0.17850809, 1.1727924, -1.1123126, 0.7726325, 0.21634337, 0.123538144, -0.21862946, 1.1079513, -1.1127082, 0.78862643, 0.2648784, 0.19396363, -0.19153346, 1.0883608, -1.0669651, 0.73901516, 0.17392848, 0.16701928, -0.25766936, 1.060474, -1.1008397, 0.79208356, 0.16068393, 0.13333468, -0.21949674, 1.1479778, -1.05431, 0.7579886, 0.12588148, 0.20449762, -0.18924794, 1.1773993, -1.1209292, 0.8139207, 0.029347468, 0.22984119, -0.123045556, 1.229417, -1.1726902, 0.80441177, -0.043291822, 0.11388919, -0.080828086, 1.2168034, -1.1966709, 0.802796, -0.04574938, -0.33388805, -0.10329853, 1.0950911, -1.1794844, 0.82015485, -0.11765924, -0.4696916, -0.09714704, 0.828342, -1.1452932, 0.7927128, -0.1315453, -0.4688315, -0.07850613, 0.62921524, -1.0845163, 0.86627764, -0.23246892, -0.5271959, -0.09525104, 0.55742514, -0.91106296, 0.87285507, -0.20076197, -0.5236704, -0.16017039, 0.44774404, -0.58629876, 0.89683276, -0.2512095, -0.4807631, -0.24811424, 0.38140446, -0.3529884, 0.86054933, -0.23411193, -0.5695343, -0.35874504, 0.3116572, -0.22366828, 0.8137092, -0.21173078, -0.51846737, -0.5317735, 0.25117376, -0.12312925, 0.77992827, -0.20096345, -0.47795528, -0.56349516, 0.2308739, -0.07363273, 0.7999396, -0.19990641, -0.49333632, -0.71388954, 0.25292605, 0.054756694, 0.7174144, -0.14867322, -0.6123579, -0.95132387, 0.29783523, -0.008087403, 0.47154382, -0.14865829, -0.7694105, -1.0683012, 0.39417666, 0.03956311, 0.19051419, -0.12234183, -1.0110278, -1.188725, 0.49300888, 0.06372223, 0.1918714, -0.11786292, -1.2215383, -0.83687866, 0.5213344, 0.06513368, 0.28568223, -0.029611267, -1.5677444, -1.0733551, 0.5178803, 0.20479259, 0.43639922, 0.062013593, -1.6629649, -1.1575382, 0.48152006, 0.3673876, 0.4929474, 0.20824829, -1.3265209, -1.1640633, -0.059504427, 0.42202774, 0.62529266, 0.50896084, -0.89170885, -1.1228595, -0.21667673, 0.5609576, 0.87048525, 0.7354831, -0.5926702, -0.55311906, -0.36208183, 0.13638796, 0.8458536, 0.964494, -0.4828589, -0.64899, -0.46478528, -0.2821908, 0.6841735, 1.2416862, -0.30860502, -0.89261806, -0.07714832, -0.29348335, 0.6362329, 1.2086335, 0.45913285, -1.0326627, -0.103848636, -0.87915987, 0.63778865, 1.0816382, 0.6289396, -1.0412832, 0.28706765, -1.0347587, 0.64998233, 0.96885884, 0.6367472, -1.10109, 0.7144059, -0.97746813, 0.58050585, 0.9325182, 0.48635533, -1.3340698, 0.8543128, -0.94355816, 0.561155, 0.8809367, -0.22309779, -0.46533647, 0.1997128, -0.15280321, 0.17120714, 1.0687401, 0.99097663, 0.18106686, -0.19415282, -0.6308748, -0.51160806, 1.2578341, 0.59657025, 0.49441096, -0.055267394, -0.75526947, 0.10691914, 1.1914527, -0.52956486, 0.37571594, -0.33019197, -0.028293032, -0.25305283, 1.1738648, -0.68434805, 0.12082847, 0.8679863, -0.94810677, -0.4965274, 1.3145052, -0.18238144, -0.108667985, 1.4570025, -0.70703673, 0.2558055, 1.2106483, 0.1727579, -0.52378345, 0.011700162, 0.21099308, -0.4829511, 0.43013117, -0.03347165, -0.7096231, 0.0116235865, 0.4384265, -0.13304317, -0.23916416, 0.02191915, -0.26005444, 1.0893164, -1.2412694, 0.04796349, -0.49546453, 0.27673355, -0.22457398, 0.13240102, 0.028712055, 0.266021, -0.50051767, 0.051780667, -0.4471796, -0.06160329, -0.36905167, 0.13963206, -0.6620725, 0.4553681, -0.044398505, 0.42968926, -0.33216, -0.008275781, -0.72470754, 0.5236637, -0.2618612, -0.43163306, -0.066021115, -0.42649323, -0.6809298, 0.5224069, -0.12621152, -0.3053449, 0.054762032, -0.44187286, -0.6184594, 0.537855, -0.40904492, 0.16622797, 0.756771, -0.46426028, -0.5789194, 0.42944944, -0.5608915, -0.03468608, 0.5658346, -0.19717018, -0.45641562, 0.5499585, -0.32495686, 0.4302841, 0.24452028, 0.137988, -0.37819716, 0.5157931, -0.41979063, 0.019920526, 0.37001935, -0.038137313, -0.50302786, 0.28386778, -0.18347088, -0.11898633, 0.061080698, 0.15599602, -0.42075545, -0.16972387, -0.16360536, -0.1441713, -0.034010347, 0.18320273, -0.38020298, -0.3709251, -0.23339283, 0.11217604, -0.21873012, 0.056964476, -0.3292431, -0.2738505, -0.27765828, 0.6191016, -0.58627087, 0.035955608, -0.27072188, -0.0303547, 0.42680514, 0.06489217, 0.5030352, -0.0011296624, -0.31574118, -0.48267674, 0.31166467, -0.14828016, 0.2230973, -0.0589129, -0.33704326, -0.6980935, 0.40161216, -0.4378918, 0.20549259, -0.013960312, -0.29130659, -0.86127895, 0.3026946, -0.5346399, 0.10997674, -0.06709648, -0.40021935, -0.9299733, 0.28827745, -0.6597513, 0.13680428, -0.02429434, -0.41008928, -0.94103205, 0.20016603, -0.47383615, 0.08674163, -0.07999414, -0.5051971, -0.60311955, 0.1478309, -0.47241056, 0.06439542, -0.061409127, -0.70579356, -0.51924926, -0.00682159, -0.5260103, 0.11928519, -0.1225927, -0.7656774, -0.41193143, -0.051985793, -0.39392933, 0.014439288, -0.24262135, -0.85220796, -0.56220573, -0.08865424, -0.21588553, -0.025070569, -0.23071322, -0.8629735, -0.62724113, -0.15110332, -0.09414813, -0.20444536, -0.2708284, -0.9751299, -0.6104944, -0.18379085, -0.06285544, -0.2623905, -0.27451193, -1.0625359, -0.47743195, -0.21027195, 0.14628872, -0.25277823, -0.27740544, -1.1903223, -0.27952197, -0.31977516, 0.26932594, -0.18699294, -0.35681656, -1.3591139, -0.1422978, -0.41334996, 0.41628036, -0.19150685, -0.35629064, -1.3885717, -0.0028602637, -0.5726835, 0.46069393, -0.14089487, -0.22100918, -1.3775212, 0.12883388, -0.8786411, 0.4686522, -0.15021707, -0.048215695, -1.3890002, 0.2158745, -0.95377743, 0.49079096, -0.13792053, 0.0424421, -1.3289063, 0.2432249, -0.9844012, 0.1329698, -0.11333566, 0.13585941, -1.3626912, 0.23467527, -1.02569, 0.07163143, -0.03130644, 0.22576775, -1.3352114, 0.29681793, -1.0667961, -0.02280713, 0.056235664, 0.21630284, -1.2996588, 0.30871984, -1.0544666, -0.06118724, 0.06665662, 0.23382048, -1.2413598, 0.44032243, -1.0152187, 0.008775043, 0.11529309, 0.21539183, -1.1867822, 0.5197194, -1.0916985, -0.061615534, 0.0243474, 0.21973656, -1.1930336, 0.59291536, -1.0802826, -0.03519309, 0.082764976, 0.2561493, -1.1510395, 0.6652243, -1.1193516, -0.002896095, 0.10450664, 0.20174474, -1.1246172, 0.92405736, -1.1891311, 0.012213348, 0.11784042, 0.22903952, -1.0300858, 0.93161505, -1.1990174, -0.06249599, 0.22374156, 0.19300696, -0.9263417, 0.97586346, -1.2355856, -0.21271323, 0.35757142, 0.12718308, -0.77508533, 1.0313116, -1.2116423, -0.102200516, 0.57730925, 0.16255765, -0.6103637, 0.90644133, -1.1826674, -0.091468476, 0.5825119, 0.10718438, -0.53045464, 0.7808024, -1.160229, -0.31944925, 0.25820777, 0.09841767, -0.5391703, 0.107963055, -1.1492327, -0.258411, 0.5709215, 0.035543535, -0.6969585, -0.1549569, -1.1723163, -0.17396697, 0.7762653, 0.0026916773, -0.7024807, 0.06176207, -1.1395999, -0.1804903, 0.8774007, -0.026855778, -0.52408123, 0.8689811, -1.2089996, -0.15360641, 0.91690594, -0.029297056, -0.38164893, 0.5051717, -1.256729, -0.23533362, 0.9328122, -0.0054317405, -0.30898333, -0.019391809, -1.2743046, -0.20665526, 0.9730145, -0.1429368, -0.16551866, -0.28789228, -1.2108775, -0.1905694, 1.0177774, -0.1771934, -0.10037041, -0.27363667, -1.244641, -0.2265298, 1.0706154, -0.48446614, -0.10984893, -0.18620184, -1.2453805, -0.1450738, 1.0947603, -0.36493474, -0.007935288, -0.11172032, -1.270916, -0.093534425, 1.0973666, -0.2872987, 0.0622634, -0.07084133, -1.2566385, -0.03157132, 1.0948579, -0.26682684, 0.18104546, 0.1090066, -1.1983113, -0.09705172, 0.96843183, -0.09307544, 0.24903068, 0.12553792, -1.2276549, -0.12104701, 0.9762259, -0.04172143, 0.32067075, 0.00776645, -1.1846948, -0.112237364, 1.0364541, 0.10783125, 0.32575285, -0.08321132, -1.1925613, -0.17969939, 1.0073704, 0.14721335, 0.6229916, -0.14142524, -1.2277203, -0.20852326, 0.9956901, 0.1520005, 0.68716764, -0.20626868, -1.2083806, -0.18516997, 0.9840275, 0.091191605, 0.76216954, -0.12742642, -1.1664982, -0.23765686, 0.94366664, 0.03419575, 0.7470552, -0.30520788, -1.1481543, -0.20309292, 0.8948756, -0.162659, 0.766375, -0.23041488, -1.0785598, -0.12969567, 0.8478858, -0.18104224, 0.7377075, -0.2729909, -1.0970892, -0.16213721, 0.846261, -0.24430893, 0.7283247, -0.36439112, -1.0635045, -0.1257212, 0.80591035, -0.32173327, 0.68132716, -1.335874, -1.0323652, -0.13639651, 0.7593898, -0.34181425, 0.6647482, -1.3688045, -0.9603328, -0.16837135, 0.76957566, -0.31459376, 0.6957336, -1.4256011, -0.82372904, -0.25786614, 0.63990116, -0.32134834, 0.62660795, -1.3939586, -0.6821795, -0.2586674, 0.5667376, -0.2880612, 0.68921643, -1.4437509, -0.55364305, -0.30797932, 0.32155225, -0.1883502, 0.5065485, -1.364078, -0.5329565, -0.3708138, 0.39828277, -0.19249386, 0.43861455, -1.3250023, -0.48365024, -0.39056492, 0.36942375, -0.13603848, 0.4522959, -1.2275525, -0.43247345, -0.33473727, 0.33671948, -0.031642877, 0.37793425, -0.9412163, -0.49914053, -0.24834049, 0.2564417, -0.004149816, 0.29992506, -0.76953757, -0.60614413, -0.15403554, 0.10457713, -0.027530646, 0.1896387, -0.5426907, -0.5777068, -0.1315201, 0.043289263, -0.029221509, 0.1799213, -0.17890246, -0.6461278, -0.060569588, 0.045035765, -0.10276124, 0.10214029, 0.16910224, -0.7805679, 0.028237795, -0.065656826, -0.23250753, 0.02399598, 0.5936027, -0.6591824, 0.06836981, -0.016891902, -0.2287395, -0.035006676, 0.5923777, -0.7163831, 0.28528002, -0.22274037, -0.2245943, -0.09720184, 0.59269667, -0.8360815, 0.21118924, -0.26280478, -0.19278081, -0.13963716, 0.5215152, -0.7484522, 0.15806164, -0.2973592, -0.16627912, -0.2397262, 0.52994996, -0.539121, 0.09500146, -0.19737321, -0.18976575, -0.24628997, 0.5289365, -0.430216, 0.102746055, 0.04678977, -0.15116145, -0.21116988, 0.32137772, -0.30367818, -0.0032705525, 0.10041123, -0.17444506, -0.20242819, -0.034351848, -0.3020275, 0.087184966, -0.06697863, -0.11723474, -0.09116598, -0.18679902, -0.033489972, 0.11423859, -0.18375534, -0.11906184, 0.12189599, -0.16128367, -0.05870901, 0.20332319, -0.260121, -0.14693455, 0.22049798, -0.29169014, 0.18857904, 0.30380595, -0.25209504, -0.131696, 0.2652329, -0.2652119 };
const float layer_1_bias[] = { -0.8634476, -1.3390652, -0.84182656, -1.3328695, -1.0285192, -1.2192051, 0.28719234, -1.5606607, -0.38702112, -1.0710508 };
const float layer_2_weights[] = { -0.8604877, -0.9097151, -0.3650222, -0.73668015, -0.527739, -0.58741206, 1.0934744, -0.2189027, -0.31534514, -0.26606387, -0.09066454, -0.4489073, 0.52331895, 0.087545246, 0.05453967, 0.6208041, -1.3350029, 0.040631734, 0.6330585, -0.19108011, 1.0611044, 1.2982002, 0.37910345, 0.38432842, 0.57157975, -0.4016704, 0.22628303, 0.07160367, -0.6880445, 0.5717564 };
const float layer_2_bias[] = { 0.7856182, -0.51226455, -1.3033216 };
