const float layer_1_weights[] = { 1.8511778, -1.2547745, 1.8428415, 1.525267, -1.1360456, -0.56615883, -0.16367467, -1.3278399, 1.8279628, -1.2308835, 1.3992397, 1.1531755, -1.0429597, -0.65818816, 0.90121424, 0.030122977, 1.2558838, -0.022829743, 1.4211358, 1.0963099, -0.4493627, 0.7841129, 0.33632714, -0.06636172, 1.2436851, 0.034680355, 0.025615811, -0.1992438, -0.2293888, 1.3787383, -2.0525196, -0.673703, 1.2228526, 0.032733068, -0.06639517, -0.36713508, -0.57768863, -0.46102548, 0.50610787, -1.214599, 1.2133298, 0.013046199, -0.32486904, -0.04765857, -0.14997314, 1.9693079, -0.2856028, -1.604551, 1.2240738, 0.028081937, -0.46453872, 0.07017897, -1.3000731, 1.0059708, -0.10974042, -0.89860976, 1.2685527, -0.016027803, -0.22475119, -0.65006185, -1.082739, 1.1693671, -0.9777886, -0.0013393284, 1.2183787, 0.010893789, -0.28359127, -1.0891345, -0.84104794, 0.45058894, -1.1461765, -1.0757837, 1.2362877, 0.019981215, -0.6804293, 0.62198794, -0.93270755, 0.5059663, -0.9361074, -0.93560606, 1.2521039, -0.030539664, 0.36968845, 0.46915305, -1.3185836, -0.19848137, -0.72918093, -1.1660163, 1.2580453, -0.02006898, -0.1209409, 0.5206546, -1.4107345, -0.5786138, -0.8917767, -0.24803057, 1.275453, -0.023581745, -0.65773183, 1.3235118, -1.3565282, -0.88983285, -0.9236952, 0.03654195, 1.2554914, -0.008628956, -0.43362668, 1.6752403, -1.4272857, -1.3364547, -0.89512223, 0.073161416, 1.2492846, 0.03264881, -0.43795234, 1.7305012, -1.5086727, -1.5487819, -0.95230156, -0.6031209, 1.2537881, -0.0013086807, -0.2407855, 1.2471802, -1.4482177, -0.81412274, -0.96179545, -0.83842534, 1.2408475, -0.01615966, -0.21742551, -0.24188161, -1.4786253, -0.23617049, -0.9796295, -0.97723174, 1.2515582, -0.020576121, -0.49320257, -0.035686336, -1.4271181, -0.5882182, -0.97422916, -1.0285821, 1.2469388, -0.034496535, -0.7638237, 0.8256157, -1.4813708, -0.75855935, -0.9541147, -1.1353375, 1.2673131, 0.032661922, -0.8756116, 1.1784941, -1.5121794, -0.5568025, -0.925268, -1.2072638, 1.2177278, -1.2644899, -0.84669703, 0.6886593, -1.520771, 0.44738665, -1.2802683, -1.4565023, 1.2537891, -1.2369622, -0.9642352, 1.518709, -1.5148466, 0.8503715, -1.3381746, -1.4423486, 1.2276019, 0.027787216, -0.9591191, 0.37590986, -1.1663189, 0.87861484, -1.3351, -1.3498147, 1.2307934, -0.033213694, -0.98633754, 0.04818045, 0.004899543, 0.9679873, -1.3578937, -1.3027947, 1.2740482, 0.021362936, -1.0603207, 0.25053114, 0.14196536, 1.023953, -1.374422, -1.0278286, 1.2690953, 0.01636541, -1.075661, 0.21887614, 0.12820598, 1.1425724, -1.3435853, -0.7481632, 1.2455195, 0.007109908, -1.0925505, -0.052952405, 0.32616997, 1.2197161, -1.3521954, 0.26462027, 1.229566, -0.03466208, -1.0654134, -0.4772389, 0.65309304, 1.2465467, -1.3547193, 0.46961507, 1.2706414, -0.01354829, -1.100243, -0.76007926, 0.929176, 1.2826049, -1.3179672, 0.6411024, 1.2707583, 0.028384235, -1.0518616, -1.1066252, 1.0005311, 1.2044194, -1.2937264, 0.8421525, 1.2190808, 0.018991742, -1.0423182, -1.4514173, 1.0128558, 1.2059126, -1.2061683, 0.96648705, 1.2582618, -0.003740516, -1.0419158, -1.3854332, 1.0716817, 1.1611139, -1.103111, 0.9999131, 1.2456464, -0.009037755, -1.0222062, -0.9743376, 1.0334634, 1.1033701, -1.0362428, 0.8927204, 1.2714759, 0.0040096235, -1.0543851, -0.59956867, 1.0111116, 1.0399351, -0.83058333, 0.8020704, 1.2420529, 0.007510822, -1.0753207, 0.07100495, 0.56508535, 0.9966802, -0.6240624, 0.56825304, 1.2433239, 0.017625222, -1.1491919, -0.16815352, 0.9588859, 0.9331809, -0.42417395, -0.32761803, 1.2175323, 0.02537033, -1.2631431, -0.17044353, 0.83581877, 0.97073084, -0.12168211, -0.8187675, 1.2210149, -0.0121733295, -1.192524, 0.49926823, 0.71787196, 1.0077846, 0.18684986, -0.9110856, 1.2136492, 0.034448467, -1.2410172, 0.08239079, 0.9262945, 1.0247076, 0.42471707, -1.2353181, 1.2190725, -0.03397059, -1.1690497, -0.48806456, 0.90788287, 1.0420717, 0.53752977, -1.3235962, 1.2604587, -0.032507755, -1.1772509, -0.66455173, 1.2852799, 1.1356499, 0.59123486, -1.4477808, 1.240301, 0.029549604, -1.1118726, -1.0321417, 1.3202143, 1.157024, 0.6648069, -1.3819075, 1.2472681, 0.034287423, -1.1070185, -1.2412003, 1.3311378, 1.2633071, 0.6461664, -1.2554271, 1.2168887, 0.027777754, -1.0950785, -1.2452925, 1.2657052, 1.3074337, 0.55272627, -0.95320785, 1.2489866, -0.013102318, -1.1289798, -1.2710831, 1.3288162, 1.3161782, 0.5135864, -0.36444294, 1.2387612, 0.0027030082, -1.1467696, -1.3141544, 1.3986715, 1.3539051, 0.4459145, 0.27750012, 1.2636681, 0.011268087, -1.1734084, -1.1749456, 1.2971882, 1.2847564, 0.44745392, 1.1034847, 1.2500411, -0.0048674806, -1.1717093, -1.1296067, 1.2452302, 1.333292, 0.43514138, 1.6047782, 1.2722474, -0.010901599, -1.2134091, -1.029411, 1.1201364, 1.3835492, 0.4047249, 1.7528763, 1.2185155, 0.00018116402, -1.2147503, -0.8988955, 0.9336391, 1.4343315, 0.3229552, 1.4809626, 1.2665576, 0.013516752, -1.2762035, -0.7164938, 0.68666923, 1.4095435, 0.22825898, 1.1930288, 1.2410971, -0.008729557, -1.280283, -0.8244962, 0.78354466, 1.4455326, 0.1313812, 0.9440362, 1.2382641, 0.003752233, -1.2586516, -1.0091285, 1.0171018, 1.4512906, 0.12083489, 0.8175757, 1.2385898, -0.015754817, -1.2910452, -1.0177948, 1.0716362, 1.4236939, 0.067572586, 0.8350562, 1.253593, 0.019581158, -1.4169565, -1.0927979, 1.1869531, 1.379054, 0.06695115, 0.98540324, 1.2560855, 0.015006774, -1.4649458, -1.1081417, 1.4627069, 1.3136564, 0.09438325, 1.0343276, 1.2412239, 0.0053744735, -1.4751192, -1.1214861, 1.5115348, 1.2235013, 0.1342431, 1.1880734, 1.2218865, 0.008947899, -1.534433, -1.1367368, 1.5569316, 0.75631875, 0.22904788, 0.88421535, 1.2225055, -0.035151325, -1.6195704, -1.2652946, 1.4829916, 0.38813385, 0.2858428, 1.0043597, 1.2254633, -0.013242144, -1.6044952, -1.270515, 1.3105524, 0.19986714, 0.37048176, 0.94079256, 1.251552, -0.013525709, -1.6319286, -1.2051132, 0.92697966, 0.080459036, 0.40919006, 0.83344465, 1.2120057, 0.02353414, -1.5386865, -1.2163215, 0.5221418, 0.016760696, 0.44039062, 0.45034027, 1.2212595, 0.0007031696, -1.4572866, -1.1539602, 0.29903713, 0.002272251, 0.44268823, 0.6136198, 1.2496859, 0.009920981, -1.3394339, -1.1453598, 0.13357711, 0.055134643, 0.53305155, 0.58999825, 1.2529817, 0.0037198388, -0.93228596, -1.1747812, 0.1289065, 0.0140157025, 0.5405169, 0.6305929, 1.2592133, -0.007974311, -0.83604765, -1.2031715, 0.025144113, -0.38904074, 0.58647144, 0.74272215, 1.2098445, -0.006535118, -0.62094, -1.2473694, 0.015670372, -0.6361152, 0.6299546, 1.0312711, 1.220388, -0.01845208, -0.48518637, -1.1755171, -0.027560705, -0.76344633, 0.6241962, 1.393888, 1.2762103, 0.01970662, -0.38191822, -0.9935512, 0.04133122, -0.9076857, 0.65848583, 1.3382806, 1.2495275, 0.034423023, -0.34524256, -0.85334826, -0.021302825, -1.2736951, 0.67856103, 1.2064637, 1.2180475, 0.00034050862, -0.30626494, -0.7721998, -0.0709451, -1.423621, 0.64593476, 0.7609825, 1.2481457, 0.019751498, -0.27271143, -0.53857785, -0.29403743, -1.3768277, 0.6151788, 0.6024477, 1.2516922, -0.020800125, -0.2756886, -0.24600877, -0.63123, -1.3595574, 0.5401253, 0.5598504, 1.2307857, 0.0019790602, -0.2739655, -0.057289172, -0.9811806, -1.3016539, 0.40821472, 0.45302394, 1.2616934, 0.01513793, -0.2848435, 0.24059361, -1.107508, -1.2713614, 0.21401362, 0.2749788, 1.2659639, 0.009937452, -0.293612, 0.5308681, -1.1461347, -1.2212906, -0.009005184, -0.066597946, 1.2675961, -0.028288258, -0.022702638, 0.109918796, -0.98620075, -1.1886368, -0.20846137, -0.43566144, 1.4721738, -1.2500428, 0.30516383, -0.34333703, -0.7131871, -1.2057749, -0.44097942, -0.7157418, 1.4639386, -0.019343853, 0.34554616, -0.6547471, -0.35147372, -1.1983656, -0.54944956, -1.1098005, 1.5177323, -0.0096069025, 0.35848123, -0.7798298, -0.07808036, -1.20674, -0.62680787, -1.0932444, 1.5055991, -0.03403782, 0.27317962, -0.7572015, 0.090084046, -1.2057065, -0.71340054, -1.0042088, 1.4871399, -0.030860784, 0.18037374, -0.88526106, 0.30022687, -1.2137396, -0.44281045, -0.5572725, 1.4608229, 0.012711764, 0.072311014, -1.139463, 0.48122936, -1.1582447, -0.5980138, 0.117510684, 1.4267943, -0.008234892, -0.20164499, -1.2989287, 0.7026631, -1.1825445, -0.74636084, 0.5643146, 1.4110967, -0.024082074, -0.2676108, -1.3931643, 0.9124921, -1.2097385, -0.8709874, 0.85644794, 1.439648, -0.029304145, -0.5229721, -1.3816383, 0.9717671, -1.2413872, -1.2901525, 1.1595906, 1.4398704, 0.021790339, -0.35459822, -1.3070493, 0.990295, -1.28091, -1.312106, 0.8713536, 1.4149904, -0.01682593, -0.22158423, -1.01751, 0.99405247, -1.2701868, -1.3120717, -0.2863653, 1.389233, 0.032277215, -0.10762357, -0.91271406, 1.0069281, -1.223415, -1.1708605, -0.37790057, 1.4105605, 0.00031700332, -0.04641905, -0.9824384, 1.0904804, -1.2407651, -1.0678605, -0.41807106, -0.15463236, -0.012489377, -0.5501563, -0.5570869, -0.2869066, -1.065376, -0.8867588, 0.8458672, -0.15453035, 0.015392038, -0.591343, -0.40005425, -0.20418343, -1.0596906, -0.779579, 0.91511893, -0.13723111, -0.003887284, -0.72121596, -0.25029373, -0.06275115, -1.0072162, -0.57658774, 0.99033207, -0.16616194, 0.011600499, -0.7580883, -0.020264672, 0.009207344, -0.9932483, -0.40396884, 0.934077, -0.13998285, -0.029350102, -0.8168757, -0.30063173, 0.10228054, -0.9682061, -0.22414088, 0.6387454, -0.16935338, -0.0011006903, -1.0249617, -0.35398793, 0.1531122, -0.9337991, 0.027638238, 0.53648365, -0.6494991, -0.033829637, -1.1803881, 0.3055428, -0.27291578, -0.8712007, -0.48925677, 0.24998888, -0.61403143, -0.01164775, -1.2427106, 0.28906897, -0.19710942, -0.90445215, -0.29890475, 0.18412176, -0.6038973, -0.004541218, -1.2070659, 0.2993865, -0.18881744, -0.98357564, -0.24405584, -0.1470446, -0.57449305, -0.026769564, -1.2737336, 0.24966674, -0.2686889, -1.0505158, -0.16195968, -0.3642293, -0.12395326, 0.31026566, 0.39297575, -0.15591279, 0.5062274, 0.60455775, 0.73811036, -0.17190662, -0.10274537, 0.64275396, 1.1907402, -0.17040059, -0.85281485, 1.1875172, 0.3019663, 0.53531396, -1.1878073, 0.026661862, 0.07528972, -1.6901224, 0.50427556, 0.693292, 0.44361645, 0.22309282, -1.1658958, -0.019079365, 1.2093233, -0.12498493, -0.16317058, -0.113311395, 1.3576664, -0.034694582, -1.1437914, -0.012996728, 0.5637888, 0.898116, -0.4792561, -0.1289726, -1.4005028, -0.4862081, -1.1719726, 0.023991589, 0.25594458, 0.9789155, -0.6561576, -0.65865, -0.5337903, -0.63777936, -0.45372537, -0.027492858, -0.21165957, -0.21949811, 0.75469047, -0.006371759, -0.062251493, -0.55823576, -0.39002338, 0.028122153, 0.26366028, -0.3025374, 0.1123882, 0.4716132, 0.67507917, -0.040974602, -0.4434298, 0.029048815, 1.2806934, -0.16293502, -0.2839475, 0.87323356, 1.0240772, 0.653497, -0.34174174, 0.029481215, 0.6597399, -0.9899728, 0.30887195, -0.26838362, 0.6547461, -0.29113555, -0.34459424, 0.015301933, 0.743948, -0.7648144, 0.33894116, 0.07388214, 0.51206785, -0.3535877, -0.3629723, 0.0045862603, -0.13978136, -0.5978566, 0.27506837, 0.24725488, 0.4358619, -0.21081851, -0.3443339, 0.031732466, 1.0900443, 0.058755185, 0.18718615, 0.072390065, 0.4134591, -0.13927746, -0.36863407, 0.009812074, 0.9654617, 0.28877383, 0.18435045, 0.11461436, 0.2798461, -0.14156437, -0.36635605, 0.031843584, 0.98535043, 0.31707564, 0.16634414, 0.2540661, 0.1746394, 0.10335201, -0.32484615, -0.035020333, 0.867015, 0.8276158, 0.13187103, 0.26363716, 0.07554519, 0.4044439, -0.33206403, 0.01972352, 0.8301652, 0.3325952, 0.1045132, 0.17910641, 0.042602986, 0.3905628, -0.33002144, 0.015782159, 1.125243, 0.085400715, 0.10373301, 0.22821712, -0.09577111, 0.4961608, -0.34513015, -0.020977495, 1.1313725, -0.5317831, 0.15013042, 0.32145476, -0.1649782, 0.44084424, -0.37638247, 0.012400311, 0.9907913, -0.85531884, 0.19505753, 0.22468287, -0.22645389, 0.4476896, -0.34540975, 1.0249348, 0.4604108, -0.92410743, 0.5797607, 0.106251724, -0.20736, 0.14931813, -0.32831186, 0.9771999, 0.21588586, -0.9459879, 0.6935962, -0.05594877, -0.2053555, 0.20279005, -0.2985104, 0.03401942, 0.3267211, -0.69180703, 0.6185329, -0.039961748, -0.123395644, -0.10131209, -0.27478406, -0.02980214, 0.3726032, -0.3496829, 0.57814264, -0.09042164, -0.10626225, -0.47953734, -0.298416, -0.032831382, 0.38449252, -0.17223853, 0.6084136, -0.10571167, -0.1427091, -0.8493702, -0.31225607, 0.013435679, 0.5499076, -0.16428022, 0.36871746, -0.031527553, -0.13672234, -1.2812219, -0.25072894, -0.0012504001, 0.29052994, -0.34498784, 0.33352605, -0.11842767, -0.16361336, -1.5579638, -0.2812092, -0.016830789, 0.27773878, -0.33033186, 0.14391288, -0.20795001, -0.61348414, -1.5335883, -0.29935345, -0.02742869, 0.2477996, -0.28159803, 0.12706353, -0.3364811, -0.60945857, -1.3907155, -0.26675293, -0.016458226, 0.25792915, -0.27483022, 0.21542525, -0.37240797, -0.6296814, -1.2313852, -0.27904496, 0.0029768911, 0.16429827, -0.21776174, 0.115572855, -0.37708828, -0.6476844, -1.1322088, -0.3101357, 0.0063214544, 0.1782231, -0.2470133, 0.17710045, -0.3435509, -0.7072443, -1.1226029, -0.30341086, 0.021450585, 0.16540924, -0.316592, 0.10988759, -0.5124799, -0.6748605, -0.9901592, -0.26819, -0.01465392, -0.04514724, -0.29760593, 0.14610374, -0.63076854, -0.7410376, -0.7601548, -0.30511114, 0.0005933982, -0.095474094, -0.12331269, -0.06280893, -0.65636224, -0.83568466, -0.23108326, -0.2698185, 0.003525209, -0.5990576, 0.0793166, 0.04380793, -0.7657977, -0.8830084, 0.25967285, -0.3026788, 0.02573372, -0.5421128, 0.19802192, -0.11515492, -0.71989876, -1.0355003, 0.5527584, -0.28855714, 0.028283125, -0.6982123, 0.3073701, -0.19592364, -0.6001932, -1.0938435, 0.89387375, -0.29699847, -0.033661727, -0.8028737, 0.28078583, -0.042622276, -0.5086325, -1.2512951, 1.3364615, -0.3120459, -0.023026127, -0.8284515, 0.36490965, 0.019598616, -0.3931373, -1.3556157, 1.0141135, 0.6263181, -0.031364094, -0.7673464, 0.48227713, 0.24202408, -0.34183925, -1.3880657, 1.034283, 0.64401793, 0.00786738, -0.7855018, 0.48623598, 0.2395342, -0.26241875, -1.4691079, 0.85976, 0.6531859, 0.018984329, -0.81029487, 0.31445196, 0.37663087, -0.1913087, -1.5094148, 0.8669268, 0.60841155, 0.017965479, -0.8482666, 0.1486331, 0.38850194, -0.16489834, -1.4415026, 0.89569736, 0.60011435, -0.006140151, -0.9199389, 0.04027006, 0.604283, -0.11831042, -1.3961076, 0.81684476, 0.59981585, 0.017343367, -0.8850895, -0.08239487, 0.63159204, -0.059028424, -1.3271809, 0.8214061, 0.608957, 0.0068704677, -0.8882466, -0.09505898, 0.6565857, -0.033946108, -1.2391925, 0.82574135, 0.6608215, -0.022529844, -0.8153513, -0.09643295, 0.69093144, 0.032483656, -1.2386699, 0.886903, 0.6468822, 0.023360414, -0.7257814, -0.08551509, 0.72413546, 0.059121314, -1.2176882, 1.0983112, 0.62412214, -0.0008503127, -0.80768275, -0.04597688, 0.5472167, 0.031951983, -1.1353315, 1.28856, 0.6498192, -0.0036248905, -0.7879411, -0.08655851, 0.5846196, -0.25287908, -1.0996416, 1.3426508, 0.6131691, -0.030782888, -0.78380877, -0.08439892, 0.64783376, -0.6786259, -1.0557728, 1.3512319, 0.6053157, -0.013277961, -0.84086436, -0.1001409, 0.65906495, -0.5980107, -0.9886261, 1.3741401, 0.648117, -0.027578354, -0.8401983, -0.097430065, 0.7619565, -0.5680935, -0.90752274, 0.8692736, 0.61170715, -0.024955964, -0.89995474, -0.0843889, 0.7647413, -0.443285, -0.7225365, 0.5440698, 0.57354426, 0.023046054, -0.88375026, -0.116785, 0.8064573, -0.3515124, -0.58815634, 0.4184666, 0.51064855, -0.023867672, -0.7916836, -0.10001056, 0.79468846, -0.20261505, -0.37036926, 0.39075655, 0.41716555, -0.03083325, -0.7932584, -0.12848885, 0.7406477, -0.16967641, 0.1473487, 0.3874191, 0.48371473, -0.006189092, -0.7467848, -0.13635029, 0.71433884, -0.11598548, 0.18006362, 0.23195325, 0.4623952, -0.0022191624, -0.7190918, -0.22324516, 0.6222768, -0.053837482, 0.13794026, 0.1365073, 0.7360962, 0.026422363, -0.6322481, -0.3281664, 0.8126705, -0.11552764, 0.17175962, 1.2740345, 0.6929829, -0.01479598, -0.62048936, -0.32243016, 0.78852534, -0.10068291, -0.21682775, 1.1997907, 0.62745047, -0.005437968, -0.65033996, -0.2467629, 0.7182512, -0.08868657, 0.0792969, 1.0264777, 0.6787692, 0.0022971171, -0.702783, -0.2528845, 0.71529174, -0.12714186, 0.06287116, 0.6946348, 0.6203966, -0.03052929, -0.79722047, -0.24601935, 0.7805715, -0.15391375, -0.22130333, 0.37319937, 0.62585515, 0.029719839, -0.8111462, -0.26990592, 0.7495946, -0.2850929, -0.24638982, 0.2343997, 0.6172957, 0.016254948, -0.8702414, -0.24056576, 0.7308857, -0.38143754, -0.3202072, 0.13710314, 0.59708464, 0.0016346066, -0.89622134, -0.12950578, 0.3156552, -0.40831253, -0.38127315, -0.11264708, 0.58115524, 0.01565814, -0.860219, -0.06461062, 0.25325638, -0.4785067, -0.40932146, -0.38573667, 0.50976896, -0.028491339, -0.49130023, -0.044346746, 0.2507226, -0.4339855, -0.41063946, -0.5486987, 0.54711753, -0.0008775775, -0.4166126, -0.05002111, 0.22021362, -0.3633567, -0.36596447, -0.7524117, 0.5598184, 0.0040249103, -0.8150052, -0.0009990743, 0.7059777, -0.26708326, -0.3505678, -0.7985891, 0.552362, 0.027086193, -0.8870786, -0.008401402, 0.9986465, -0.17331333, -0.2333902, -1.1896265, 0.48410162, 0.008293758, -0.9713641, 0.06928082, 0.7424821, -0.07686336, -0.24694048, -1.2601893, 0.52245456, 0.03088375, -1.0544865, 0.15358645, 0.6034964, -0.035861872, -0.096272156, -1.1988055, 0.476317, 0.026339367, -1.125267, -0.12042667, 0.53831357, -0.029957285, -0.018138537, -1.0879953, 0.4762375, 0.021130333, -1.3504391, 0.1869602, 0.5286914, -0.068044126, 0.041236002, -0.76125747, 0.48239866, 2.2914426, -1.3579668, 0.1942068, 0.48465177, -0.019456327, 0.15133883, -0.45653117, 0.3561009, 0.0059587387, -1.309451, 0.37006718, 0.33704144, 0.16502334, 0.016933631, 0.73241967, 0.32591605, -0.023166215, -1.2858105, 0.47103685, 0.33507127, 0.2624454, 0.04082938, 0.8062628, 0.2324619, 0.015567542, -1.1921736, 0.44595438, 0.29241022, 0.3364533, -0.002584427, 0.80895144, 0.20062067, -0.028605977, -1.101772, 0.5764578, 0.25636235, 0.39019468, 0.13034862, 0.709011, 0.13269472, 0.022333397, -1.0983843, 0.60039186, 0.33547953, 0.39146224, 0.34498602, 0.675818, 0.1168654, 0.026830541, -0.9470312, 0.5816253, 0.41572464, 0.90554464, 0.46839514, 0.6180697, 0.03383841, 0.03317622, -1.0734376, 0.49869734, 0.25576347, 0.88362724, 0.6919751, 0.42112854, -0.013265046, -0.015417718, -0.89816684, 0.45816356, 0.2685352, 0.8677055, 0.77753705, -0.4065619, -0.076329604, 0.0039837877, -1.0210226, 0.40043506, 0.3607021, 0.86817557, 0.91456425, -0.40672505, -0.07687422, -0.028285585, -1.2503072, 0.24143314, 0.44606835, 0.8042022, 0.94119644, -0.2525058, -0.13734873, -0.027221542, -1.5597781, 0.22185412, 0.4595519, 0.7788023, 0.9703117, -0.08289948, 0.13195758, -0.0016152232, -1.5833791, 0.2698869, 0.6665361, 0.8151225, 1.032037, -0.041091077, 0.35177842, 0.01843767, -1.4245397, 0.352793, 0.7505346, 0.77509904, 1.0140778, -0.24471924, 0.32578847, -0.021709949, -0.9836007, 1.3679867, 0.70788103, 0.7873183, 1.0656854, -0.3920686, 0.29984552, 0.025530783, -0.9353857, -0.024234356, 0.6410302, 0.85132974, 1.0833247, -0.5241326, 0.266403, -0.015425014, -0.74759984, 0.64739347, 0.80610555, 0.87922186, 0.6427762, -0.95342994, 0.22614236, 0.034291256, -0.6731361, -0.116948254, 0.76752603, 0.8575335, 0.57273597, -0.2201561, 0.533447, 0.031825088, -0.023268202, -0.5374334, 1.1609737, 0.83543545, 0.7829984, -0.5565037, 0.48993555, -0.030791089, 0.08589833, -0.5685267, 1.1520425, 0.82104933, 0.8661425, -1.0634682, 1.223987, 0.005066709, 0.026931848, -0.3121265, 1.6720363, 0.8480559, 1.5256697, -1.1436156, 1.1656157, -0.015599177, -0.016584067, -0.25621346, 1.4794719, 0.9226694, 1.6941721, -1.1116927, 1.0982553, -0.0038999491, 0.13056462, -0.4340329, 1.2603048, 0.9417835, 1.813028, -0.6226228, 0.7053249, 0.5294954, -1.3027526, 0.04847748, -0.04468693, 0.6069953, 0.8044493, 1.4575585, 0.6788347, 0.8403215, 0.435766, 0.8640136, -1.315317, 1.0201668, -0.27101833, 1.2611411, -1.8950466, 0.022189507, -0.1389582, -0.33894077, -0.1408559, 1.0073872, 0.19145945, 1.0764325, -1.8657736, -0.03466773, 0.59757215, 1.4944174, -0.9790682, 0.4793519, 1.1397817, 1.4601831, -1.9192294, 0.024624387, -0.3820384, 0.4417179, -0.5300159, 0.92280596, 0.18273526, 1.1327932, -1.8700258, 0.02763379, 0.18507396, 0.2375608, -1.0906854, 0.33538824, -0.5931461, 1.0958478, -1.0576475, 0.008157641, -0.39318174, -0.2667912, 0.040417515, -0.44431314, -1.555826, 0.17317061, -1.0787064, -0.015254479, -1.3900188, -1.1289772, 0.15779094, -0.4109748, -0.79056764, -0.63402885, -1.0934289, -0.00861351, -0.1924024, 0.7124678, -0.2170955, -0.03649635, 0.08715035, 0.6329974, -0.4473883, -0.032187328, -1.2232709, -1.0907156, 0.8478951, -0.5338786, 0.2664394, -0.09607336, -0.40350598, 0.000947811, -0.42774358, -0.7300634, 0.50967616, -0.23216209, 0.47330812, -0.030617218, -0.44498777, -0.00018786537, -1.2112569, -1.1509063, 0.7885233, -0.6913901, 0.32540962, -0.30831596, -0.45490542, 0.02735951, -0.8197307, -1.6528593, 0.7762075, -0.7904604, 0.1198857, -0.4037373, -0.4050359, 0.0071267923, -0.8982928, -1.5988873, 0.687826, -0.7715609, 0.026984595, -0.15776452, -0.46413994, -0.0098865, -0.9019849, -1.2036679, 0.7744103, -0.7917551, 0.040641207, 0.169018, -0.41477576, -0.011034336, -0.92124504, -0.50045085, 0.9400915, -0.89452136, -0.08688268, 0.35743713, -0.42332548, 0.020532083, -0.9420556, -0.065989345, 0.8414013, -0.97347564, -0.22618502, 0.40032792, -0.43699285, -0.015471274, -0.8743875, -0.25120562, 0.7182358, -0.9878438, -0.2912762, 0.052139707, -0.4204767, -0.014806556, -0.7476391, -0.5703641, 0.7309596, -1.0095093, -0.37206393, 0.029749077, -0.41731432, -0.020592956, -0.59484124, -0.8029312, 0.39178485, -1.1768321, -0.37880066, 0.060973175, -0.4638791, 1.3883421, -0.7383664, -0.62730604, 0.31471264, -1.5906404, -0.07436892, 0.47054008, -0.4338599, 1.3801906, -0.7546127, -0.07513071, 0.19424689, -2.010453, -0.020865174, 0.5271035, -0.06151293, 0.0035626353, -0.23451783, 0.30123472, 0.13764112, -2.104631, -0.15906234, 0.24961214, -0.09466977, -0.010763893, -0.23490094, 0.88260764, -0.1086118, -2.054461, -0.2375981, 0.038053825, -0.08905936, 0.00069634605, -0.29838583, 1.092718, -0.11453314, -1.9102248, -0.28891945, -0.2166544, -0.095399685, -0.031165438, -0.31211814, 1.061262, -0.84558415, -1.4894488, -0.41403452, -0.5469929, -0.052360047, -0.033051714, -0.3185494, 1.0025471, -0.5002063, -1.6571116, -0.54661447, -1.119145, -0.04398122, 0.029810278, -0.3693122, 1.0620584, -0.802818, -1.5762862, -0.62265146, -1.1838037, -0.083973885, 0.020021481, -0.43888074, 1.0208969, -1.0443218, -1.532681, -0.703836, -1.0907972, -0.07970023, 0.011221944, -0.44542146, 0.8886252, -1.2664434, -1.5222867, -0.84091866, -0.9510337, -0.03979292, -0.026297877, -0.41132304, 0.7070186, -1.6132568, -1.330124, -0.9383391, -0.8211945, -0.088907726, 0.027478246, -0.43681425, 0.85604596, -1.6731386, -1.3078682, -1.0569432, -0.76189625, -0.052275527, -0.02386895, -0.43939152, 0.78352326, -1.6854264, -1.2175169, -1.1817335, -0.6187359, -0.05066084, -0.010306747, -0.5043809, 0.49722517, -1.3190736, -1.2227783, -1.388558, -0.44920596, -0.05105912, -0.023779897, -0.4785387, 0.6918436, -1.0870506, -1.2115961, -1.5415078, -0.23356843, -0.071367376, 0.0072676935, -0.5418615, 0.68208545, -0.82156146, -1.2767129, -1.6348151, 0.0120222, -0.05087935, 0.0080080405, -0.3058148, 0.65179294, -1.0314554, -1.2233857, -1.6943438, 0.21233135, -0.10616143, 0.014336606, -0.3516625, 0.5534427, -0.90662044, -1.1844054, -1.6822335, 0.36538985, -0.037472513, -0.024177453, -0.48636886, 0.6293025, -0.8669189, -1.2074964, -1.6305282, 0.5114428, -0.08467615, 0.023267962, -0.589158, 0.79115474, -0.83135414, -1.284924, -1.6491809, 0.64543283, 1.0889095, 0.012396186, -0.4759047, 0.7304933, 0.07742995, -1.2446926, -1.694314, 1.1812682, 1.079785, 0.031348538, -0.47475415, 0.8486406, 0.14450982, -1.1678513, -1.8142412, 1.3227519, 1.0876254, -0.0068262178, -0.49379575, 0.8202724, 0.15359175, -1.1062852, -1.8217077, 1.0217308, 1.0421488, 0.035058614, -0.5310056, 0.8362052, 0.018845638, -1.0168375, -1.7738739, 1.3485632, 1.0592891, 0.024450138, -0.49410242, 0.8943231, 0.12582996, -0.9833258, -1.7038122, 1.1920843, 1.0814404, -0.030067934, -0.49753502, 0.9963993, 0.13356625, -0.9739376, -1.6279879, 1.0219939, 1.052283, 0.007080675, -0.4403894, 1.0069938, 0.15281321, -0.88792574, -1.524213, 0.86692905, 1.0884064, -0.029352352, -0.5066547, 1.0491165, 0.035638783, -0.8408542, -1.4670084, 0.73370874, 1.0836959, -0.031094605, -0.49838835, 1.1094586, 0.022876441, -0.8126284, -1.4151947, 0.8300077, 1.0602999, -0.01687036, -0.54434055, 1.1675034, 0.026976606, -0.81020993, -1.2919492, 0.90515727, 1.0376487, 0.0093557155, -0.5364351, 1.252049, -0.03318897, -0.84924036, -1.0384414, 0.53046274, 1.0434126, -0.032492973, -0.532289, 1.3769708, -0.05231293, -0.80832344, -0.7191719, -0.17099588, 1.0392046, -0.0050621107, -0.6330091, 1.4242265, -0.06542461, -0.49125144, -0.41955805, -0.43759575, 1.0284309, 0.027376052, -0.6493823, 1.4163074, 0.009189806, -0.3533236, -0.1347162, -0.38812727, 1.0594325, -0.0069289505, -0.62576103, 1.2871342, 0.013748119, -0.16325267, 0.13288303, -0.12842955, 0.9916777, 0.01181305, -0.5974129, 1.2226738, -0.014470992, 0.09604268, 0.1501546, 0.3815957, 0.92810816, -0.007186506, -0.62309825, 1.232635, 0.08182739, 0.26616153, 0.18453492, 0.5485135, 0.79711854, -0.033315416, -0.59060293, 1.2354852, 0.03125176, 0.37986377, 0.31640005, 0.933912, 0.80157435, 0.010360935, -0.6852945, 1.199587, 0.15242466, 0.51418644, 0.44646597, 1.3535162, 0.8229388, 0.03228257, -0.7634157, 1.1203012, 0.24126497, 0.5273613, 0.554009, 1.6825197, 0.76348734, -0.019676017, -0.765136, 1.0559905, 0.2970594, 0.5051021, 0.58809525, 1.2140998, 0.7567744, 0.029568477, -0.824357, 1.0161463, 0.43536088, 0.47852296, 0.6410837, 1.0694946, 0.64868104, 0.009130142, -0.9275449, 1.0267186, 0.43431032, 0.5577146, 0.67327255, 0.88788754, 0.69210184, 0.006882884, -1.0661861, 0.9667459, 0.44276044, 0.5911056, 0.72479963, 0.63899136, 0.6144341, -0.01859215, -1.2803267, 1.0258164, 0.50909925, 0.66503984, 0.83317643, 0.15997738, 0.61799437, -0.02112079, -1.3496368, 0.9411573, 0.62752515, 0.68966097, 0.85797715, -0.21605906, 0.67245245, 0.034355633, -1.3353839, 1.0025724, 0.5934667, 0.6684622, 0.92159504, -0.25260463, 0.60613525, -0.017111028, -1.4464724, 1.0282469, 0.56410134, 0.5991966, 0.9833291, -0.46858075, 0.5612351, -0.02577907, -1.4480494, 0.9565838, 0.53624046, 0.5731912, 0.9579553, -0.9094008, 0.5366815, -0.00010459162, -1.4215294, 0.86656207, 0.5149538, 0.57967764, 1.0542918, -1.1465604, 0.5029422, 0.03464482, -1.4171389, 0.75844455, 0.48919338, 0.6107704, 1.0208958, -1.2768708, 0.52850306, 0.012716818, -1.4439747, 0.7260319, 0.58563554, 0.7394917, 1.0536574, -1.0826236, 0.50155073, 0.018469248, -1.4432038, 0.6482728, 0.63810533, 0.81307805, 1.1553081, -0.23136173, 0.49649307, -0.009218174, -1.5368458, 0.5720743, 0.7610906, 0.9666912, 1.1550257, 0.017445043, 0.4658473, -0.0015445978, -1.5052228, 0.4409751, 0.7034229, 0.9531517, 1.3484416, 0.2895492, 0.48849678, 0.015687449, -1.5247068, 0.30259776, 0.60588366, 0.9753982, 1.5224985, 0.62132704, 0.48844254, -0.015625076, -1.5584726, 0.30956984, 0.49204728, 0.89704067, 1.6835545, 0.7222856, 0.6041614, 3.0807025, -1.4161118, 0.4424448, 0.35222277, 0.8329643, 1.8185182, 0.71274203, 0.45484447, 0.009970314, -1.3500288, 0.7321038, 0.10387741, 0.85732865, 1.6387328, 0.6225138, 0.4194259, -0.0014986282, -1.3440999, 0.8989991, -0.017166277, 0.7575043, 1.6601719, 0.65342385, 0.2955442, -0.014254634, -1.1276425, 0.9402952, -0.09238551, 0.7650608, 1.518841, 0.5197605, 0.26023299, 0.015483485, -0.9860463, 0.94302005, -0.16179898, 0.7347521, 1.188403, 0.08888295, 0.16310027, -0.024888525, -0.8014407, 0.87647337, -0.18485789, 0.71692973, 1.117149, -0.31142655, 0.16349956, 0.028061664, -0.5204444, 0.56773573, -0.15876952, 0.7381929, 1.17188, -0.57707095, 0.12195016, 0.021413159, -0.5755538, 0.61934257, -0.25309277, 0.7744047, 1.2441401, -0.6646519, 0.006021973, -0.033849407, -0.33517918, 0.8066329, -0.23241504, 0.52425367, 1.2169378, -0.69870037, -0.07701987, -0.03052607, -0.64275587, 1.3939215, -0.20885144, 0.63562405, 1.3372284, -0.33268496, -0.067813665, -0.010364307, -0.8614686, 1.5136335, -0.11767224, 0.6671589, 1.3340511, 0.17602266, -0.088090464, 0.032779153, -1.0654844, 1.8679096, -0.1135809, 0.6680519, 1.274834, 0.16396923, 0.5950661, 0.027926559, -0.97271156, 1.7669582, 0.5312659, 0.7772437, 1.1742489, -0.09344309, 1.113515, -0.012845555, -0.64049214, 1.3940918, 1.3148555, 0.7255877, 1.0031762, -0.4298022, 1.0777462, 0.01933695, -0.73040706, 1.2219197, 1.512853, 0.75261194, 1.0100949, -0.49925146, 1.0033317, -0.02943786, -0.6190943, 1.0415758, 1.1902573, 0.7354814, 0.9603199, -0.69740707, 0.93187565, -0.017950056, -0.4761856, 0.67611843, 0.42769167, 1.0901171, 0.91959345, -1.0196985, 0.9887334, 0.017307123, -0.39547637, 0.46703008, 0.46598977, 0.93597907, 0.725148, -1.3163983, 1.4947659, -0.00010787065, 0.80583096, 0.34318075, 1.2110473, 0.7674588, 0.97697914, -1.3376203, 1.9668354, -0.028687254, 0.76298213, -0.21046416, 1.7631023, 0.8714325, 1.8682686, -1.210791, 1.7135234, -0.030810697, 1.2187409, -0.4956317, 1.4579988, 1.5438975, 1.6865168, -1.1710143, 1.6340256, -0.03191057, 1.1350777, -0.51165795, 1.3922662, 1.8707064, 1.567882, -1.1098036, 1.6028836, -0.029804884, 1.3401517, -0.6170518, 1.4151983, 1.8730801, 1.576401, -0.6160169, 0.73240656, 0.49749577, -1.8034962, -0.08515936, 0.4018308, 0.94002044, 0.03196468, 0.85323966, 0.68114334, 0.56356376, -0.9553181, -0.8259297, 1.3264173, -0.040259715, 0.89046365, -0.08183016, 0.35274482, 0.031369776, -0.19481264, -0.40807012, 0.821648, 1.0251408, 0.6724719, -0.0634353, 0.35713995, 0.029217184, -0.6363456, -0.7136758, 0.48169982, 1.2871964, 0.8522189, 0.31508046, 0.3247398, 0.0024901708, 0.34488922, 0.11838723, 0.17143886, 1.0988891, 0.5676461, 0.8335272, 0.32497585, -0.024139853, -0.9720364, -1.7244391, 1.5135646, 0.7926619, 0.29954684, 0.7733974, -0.17483564, -0.024720471, 0.44583488, -1.1630791, 0.22745982, 0.95622283, 0.6282245, 1.5781559, -0.21850944, -0.016485862, 0.315745, -1.2251556, 0.24643748, 0.6385301, 0.20614864, 1.617949, -0.1880249, -0.020920508, -1.259902, -1.401377, 1.170729, -1.4694293, -0.44750422, 0.4428704, -0.52658415, 0.021462357, -1.0937653, -0.6463446, 0.46355784, -0.54033047, -0.15736747, 0.19560936, -0.5114314, 0.02247241, -0.32482502, -0.59811383, 0.4367001, -0.403568, -0.092010304, 0.21236578, -0.4932341, 0.033068642, -0.28424242, -0.78126097, 0.4609082, -0.6351888, -0.089602694, 0.7274555, -0.487109, -0.021819577, -0.54266346, -0.7297357, 0.39787465, -0.6114758, -0.03160778, 0.9005221, -0.50372064, -0.0264396, -0.6580861, -0.35620645, 0.41982466, -0.5653182, 0.048883658, 0.88792175, -0.47136986, 0.011972103, -0.688651, -0.53483766, 0.40678507, 0.23478904, 0.054220077, 0.7070562, -0.47741306, -0.020781321, -1.1683284, 0.280934, 0.44234768, 0.111609444, 0.025449978, 0.54498744, -0.49364293, -0.034222633, -1.5099399, 0.40027606, 0.4073131, -0.03510805, 0.10390422, 0.5408718, -0.5217797, -0.022148928, -1.0076637, 0.2932342, 0.47789708, -0.41187596, 0.096860886, 0.42353553, -0.46734643, -0.008484814, -0.695602, 0.2843136, 0.44441125, -0.80245376, 0.102820374, 0.33313495, -0.48469824, -0.025220165, -0.53492194, -0.32275915, 0.3808417, -1.0677518, 0.16287987, 0.46805066, -0.53081244, -0.4350021, -0.47849923, 0.40376762, 0.08511016, -1.1976615, 0.18444484, 0.7154973, -0.53353536, -0.49349242, -0.35377985, -0.10964302, 0.09894738, -1.3305529, 0.13743663, 0.6256309, 0.09176064, -0.0097830845, 0.37284064, -0.86125565, 0.67928165, -1.3650442, 0.033569258, -0.10422989, 0.04794144, -0.022139821, 0.26633647, -0.8490042, 0.70837724, -1.436507, 0.050607957, -0.42599553, 0.05230355, 0.025330354, 0.23585846, -0.6252452, 0.6350676, -1.4020225, 0.032971624, -0.6017641, 0.08276103, -0.008092116, 0.21480292, -0.34762323, 0.57262546, -1.3834437, 0.06468938, -0.4940641, 0.04902404, -0.0007006492, 0.21846008, -0.8014199, 0.5084176, -1.3571988, 0.08695752, -0.3887569, 0.100253396, -0.02456396, 0.23994295, -0.6746221, -0.043239836, -1.396888, 0.32642198, -0.40359342, 0.10130452, 0.00364129, 0.2076467, -0.56695783, -0.038373575, -1.4500651, 0.29255563, -0.36807713, 0.097459555, -0.028633572, 0.21221572, -0.18619262, -0.042044275, -1.5269111, 0.31378046, -0.40180174, 0.05772123, 0.020958504, 0.19116962, 0.22061886, -0.09474947, -1.6128646, 0.2878556, -0.39720815, 0.094609745, -0.021778217, 0.17731653, 0.16523741, -0.104536735, -1.6487451, 0.27889058, -0.063484035, 0.11781661, 0.004991093, 0.14844759, 0.21282959, -0.10522179, -1.6324713, 0.30771837, -0.12350666, 0.089203425, 0.01607561, 0.16507484, -0.020011775, -0.05050909, -1.6385348, 0.3345875, -0.05853739, 0.10151195, -0.00079491065, 0.13554765, 0.13044284, -0.12393392, -1.6006944, 0.3394248, -0.13789032, 0.06644749, -0.024166945, 0.35719928, 0.30962902, -0.16401362, -1.5870942, 0.27676064, -0.17105988, 0.07842082, 0.019162988, 0.33177447, 0.1448082, -0.13307367, -1.5818933, 0.27646932, -0.11958633, 0.09583157, -0.024954692, 0.30980402, -0.09889813, -0.19571032, -1.5574759, 0.14360099, 0.030231748, 0.11016835, -0.0025536902, 0.3233621, -0.2679244, -0.24078241, -1.5459772, 0.028371785, 0.26177225, 0.09131534, -0.01156078, 0.281716, -0.10401275, -0.30267245, -1.5627725, -0.20663345, 0.81042963, 0.10582186, 0.02204995, 0.27544537, 0.26365033, -0.36919868, -1.483971, -0.3776136, 1.2018626, 0.11087861, 0.018666431, 0.22783625, 1.0967805, -0.3936939, -1.4862529, -0.5117552, 1.1350062, 0.09606572, 0.026376447, 0.16916, 1.5649158, -0.58771616, -1.5412848, -0.6680143, 1.1352304, 0.09313419, 0.030515116, 0.208771, 1.5922415, -0.66899085, -1.5447098, -0.7922257, 1.1175133, 0.102988735, 0.022619553, 0.24505898, 1.6483802, -0.7161129, -1.5022093, -0.8910341, 1.0970573, 0.070153974, -0.01808244, 0.30775598, 1.5894248, -0.7986578, -1.5498041, -0.99292153, 1.0554279, 0.074901074, 0.00772223, 0.2424558, 1.593422, -0.7880624, -1.5704039, -1.0038189, 1.0109825, 0.07083478, -0.034322057, 0.17155586, 1.6664599, -0.8069402, -1.5914689, -0.95258546, 1.0076879, 0.07936129, 0.033177733, 0.16476479, 1.6079738, -0.80607194, -1.5770967, -0.7642865, 1.0362648, 0.1185536, 0.021122597, 0.14103441, 1.6104388, -0.75887233, -1.570423, -0.6865107, 0.8481765, 0.08095523, 0.02304234, 0.10353022, 1.5726238, -0.7901615, -1.4708645, -0.6674284, 0.47482035, 0.08803631, 0.030147348, 0.118362665, 1.5676216, -0.8485496, -1.2898648, -0.572074, 0.30270207, 0.0492925, 0.0010126203, 0.0526055, 1.5918138, -0.8462385, -1.1863652, -0.2645212, 0.12857328, 0.07670078, 0.03195436, 0.10076221, 1.5893384, -0.89665854, -1.1573848, 0.09580457, 0.3968636, 0.09662654, -0.007537003, 0.110940404, 1.5811102, -0.88940233, -1.1610886, 0.2567432, 0.49589363, 0.0729921, 0.028270395, 0.16284084, 1.5921547, -0.96556294, -1.0870951, 0.22171348, 0.56734097, 0.0688784, 0.027578631, 0.2396393, 1.6046473, -0.93696135, -1.0433418, 0.16784216, 0.74141186, 0.09663363, 0.02904223, 0.29117596, 1.5892346, -0.9436999, -1.087693, -0.038216148, 0.97238463, 0.104719624, -0.0017183566, 0.3364405, 1.5533116, -1.0103428, -1.0723209, -0.101109065, 1.1815492, 0.11674438, 0.002644795, 0.34617156, 1.6214484, -0.96998, -1.0728706, -0.3300765, 1.0817105, 0.11010453, 0.017425139, 0.31518218, 1.569113, -0.8959779, -1.0775505, -0.36771795, 0.77322245, 0.08586715, 0.004190109, 0.31513587, 1.5747633, -0.84785897, -1.0428982, -0.27205974, 0.79890716, 0.07830801, 0.028061997, 0.3321122, 1.6019864, -0.8019968, -0.91599953, -0.4650844, 0.84594864, 0.07668813, 0.0256343, 0.3413331, 1.5579214, -0.8141675, -0.6620519, -0.45081905, 0.9272651, 0.08913605, -0.026791885, 0.40762073, 1.5699433, -0.8127021, -0.43895918, -0.2908564, 1.2075012, 0.12763807, 0.0027880226, 0.40400904, 1.5737395, -0.8411932, -0.15345013, -0.26438364, 1.2158598, 0.12696907, 0.004912658, 0.338237, 1.5284791, -0.8644513, 0.20038015, -0.22063896, 1.2127727, 0.119473025, 0.031156186, 0.38214564, 1.4824344, -0.5889106, 0.5698514, -0.20540309, 0.45357993, 0.097747356, 0.021592202, 0.32518163, 1.4312943, -0.57923967, 0.9792717, -0.17114525, 0.1529195, 0.096003406, 0.0057838964, 0.09379436, 1.4341481, -0.5674479, 1.6192704, -0.1347176, -0.053360064, 0.07596711, 0.014815372, 0.029841965, 1.478566, -0.56752026, 1.4591022, -0.16906905, -0.12632379, 0.12917791, -0.02123951, 0.22761801, 1.5252827, -0.82800514, 1.430106, -0.16452, -0.4104843, 0.10198366, -0.018168984, 0.16332577, 1.5386888, -0.7519178, 1.4053897, -0.1105703, -0.17375226, 0.13157211, -0.00781293, 0.043269422, 1.5128837, 0.004632382, 1.4057733, -0.17617087, -0.24775887, 0.087428935, -0.022297993, -0.11373248, 1.504505, 0.22700636, 1.4502095, -0.10787316, -0.32970005, 0.13235943, -0.03337715, -0.40434596, 0.96448815, 0.37906727, 1.4405408, -0.101168476, -0.5050648, 0.13695364, -0.03263626, -1.1777036, 0.5051275, 0.36964574, 1.5446075, -0.10460486, -0.7540784, 0.14728045, 0.5282908, -1.0277563, 0.50197476, 0.3628772, 1.5462775, -0.052081276, -1.2109891, 0.1587954, 0.007177145, -0.8576575, 0.58054286, 0.38275644, 1.5837094, -0.033026263, -0.76460516, 0.14139403, 0.02036339, -0.8022134, 0.7457139, 0.2874431, 1.5559169, 0.008757489, -0.5968178, 0.14583713, -0.033256765, -0.8251061, 0.7136361, 0.29118928, 1.5927871, 0.031704314, -0.5834555, 0.12025906, 0.021326298, -0.87205845, 0.857252, 0.17805927, 1.55582, 0.1047974, -0.50214684, 0.128361, 0.008018636, -0.8899289, 1.231778, 0.03869689, 1.5052992, 0.00082234264, -0.53790605, 0.16578573, 0.015946632, -0.9174505, 1.2674992, -0.081271924, 1.204571, 0.15857264, -0.5034899, 0.14142324, 0.034633864, -0.85652417, 1.2365097, -0.2859968, 1.1590527, 0.54636824, -0.5920307, 0.122190036, -0.012064219, -0.8344569, 1.1823406, -0.40566102, 1.171747, 0.90540427, -0.46344984, 0.12655956, 0.0029692415, -0.7174792, 1.1700791, -0.50783104, 1.1117653, 0.64281493, -0.6625766, 0.14301048, 0.026898596, -0.33743265, 0.90390056, -0.4986936, 1.1517143, 0.57803327, -0.62920123, 0.15627924, 0.0054274187, -0.5132166, 0.8701556, -0.5697463, 1.1255944, 0.45106065, -0.49536574, 0.17113882, 0.009416348, -0.49046856, 1.0794054, -0.6338549, 1.0933679, 0.30819017, -0.41719025, 0.1565214, -0.0053993277, -0.45544577, 1.1647106, -0.7084615, 1.1611512, 0.26295954, -0.52631545, 0.17937088, -0.0078084376, -0.7089484, 0.41283858, -0.68267035, 1.1790249, 0.12821835, -0.6977077, 0.18751219, -0.02563226, -0.6492415, 0.1094155, -0.625563, 1.1887125, 0.08163337, -1.0451274, 0.21983646, 0.025076466, -0.56085956, -0.54142123, -0.49942806, 1.2176597, 0.27527034, -1.1496141, 0.15786247, -0.030148696, -0.46941403, -0.3637349, -0.43886757, 1.2291112, 0.26482907, -1.4640193, 0.21249153, -0.01651174, -0.22499871, 0.122526094, -0.3950476, 1.2372276, 0.2218983, -1.376582, 0.21085545, 0.009088105, 0.25758213, 0.15549618, -0.43818647, 1.2345508, 0.13944791, -1.1030835, -0.08448199, -0.00872729, 0.64659345, 0.14540887, -0.60232407, 1.201467, -0.21111318, -1.0774908, -0.11131239, 0.0115243485, 0.60833925, 0.13998848, -0.5523572, 1.195784, -0.30205706, -0.72684264, -0.093524985, -0.025699418, 0.51035476, 0.17324565, -0.426252, 1.1981028, -0.35644153, -0.23568113, 0.92459595, 1.3598053, -0.63541895, -0.5936498, -0.12784168, 1.6896977, 0.03796991, 0.5260389, 0.906732, 1.3383139, 0.07898427, 0.96369034, -0.7660556, 1.6748612, -0.65161794, -0.31132704, -1.0411639, 0.011448488, -1.577535, -0.13318914, 0.05180771, 0.9974836, -0.53975856, -1.0617944, -1.0513363, 0.006106071, 0.35106993, 2.130841, -1.5941514, -0.1826241, 0.015106927, 0.93240297, -1.0079792, 0.0029049674, -1.4109693, 0.7310156, -0.47271827, 0.5367126, -0.48413926, 0.24496911, -1.0375175, -0.01937497, -0.9083335, -0.56826144, -0.057684593, 0.09669573, -0.17434217, 0.57001287, -0.72149116, -0.0076832864, -1.0163052, 0.49970517, -0.27593535, -0.70994884, 0.89216554, 0.9034222, -0.75939983, 0.011409953, -1.4138907, 1.846689, -0.50444186, -0.117122486, 0.2746782, 0.4959915, -0.75461364, -0.03228569, -1.6447366, 0.09203086, 0.39803854, -0.9820166, 0.23075396, -0.4220283, -0.023352884, 0.0059949975, -1.1629633, -0.74267423, 0.61072063, -1.3389034, 0.48762918, 1.2439986, -0.06687514, 0.0067695933, -0.5452035, 0.09880908, -0.1377918, -0.6690024, 0.4588186, 1.0284446, -0.05151388, -0.03266911, -1.0200173, -0.7158003, 0.4247494, -1.2653835, 0.3856155, 0.8471183, -0.048827376, 0.013831378, -0.90178066, -0.6299157, 0.29702833, -1.1928278, 0.21131219, 0.70690864, -0.049183216, -0.015521838, -0.7193449, -0.5390216, 0.08104643, -1.0833822, 0.12337538, 0.82327974, -0.06576083, 0.03081567, -0.7356222, -0.19379565, 0.08269169, -1.496628, 0.13563046, 0.94014853, -0.03702375, 0.010443206, -0.62689644, 0.45431235, 0.14189202, -1.5804464, 0.15333751, 1.149911, -0.069333054, 0.00528253, -0.5979551, 0.52719855, 0.18661605, -1.5334631, 0.10060969, 1.3162262, -0.05192694, -0.0236381, -0.6384496, 0.5560131, 0.12730792, -1.3430246, 0.06989807, 0.5326277, -0.079318374, -0.032428384, -0.636403, 0.42929167, 0.04053814, -1.3220698, 0.0532967, -0.27127904, -0.060175207, -0.029502526, -0.6067232, -0.13366322, -0.14821872, -1.2340909, 0.050183587, -0.44999275, -0.068000354, -0.41512886, -0.54007405, -0.21588783, -0.2577086, -1.345532, 0.058699075, -0.5223032, -0.07153622, -0.45787698, -0.3506483, 0.2558292, -0.4497853, -1.344939, 0.07381788, -0.2574975, 0.34725094, -0.02842814, 0.7169642, 0.48239648, -0.28317735, -1.3038073, -0.007937537, -0.9725548, 0.35367376, 0.018658381, 0.41498902, 0.9529771, -0.4598601, -1.2000512, -0.07956374, -0.8924127, 0.37362424, -0.012291248, 0.20100753, 0.9941891, -0.49447054, -1.1362032, -0.32007253, -0.84838825, 0.35223073, 0.007757288, 0.034597535, 0.9033406, -0.5465427, -0.9750035, -0.5479284, -0.94601977, 0.36794975, 0.029577518, -0.08404444, 1.1192466, -0.61139405, -0.8950344, -0.71636724, -1.2625465, 0.32926542, -0.020416921, -0.1909627, 1.2067825, -0.5605259, -0.8404603, -0.8862173, -1.2741071, 0.3237297, 0.0016879982, -0.29863483, 1.1021066, -0.4609289, -0.7926552, -1.0685428, -1.2264172, 0.33696657, 0.019768128, -0.23601685, 0.85808897, -0.45677924, -0.74529254, -1.1637926, -1.0812609, 0.37741604, 0.028409055, -0.15673323, 0.1617134, -0.38489047, -0.7013456, -1.2553948, -0.9808217, 0.33687967, 0.0049811886, -0.2500686, 0.46846923, -0.37736633, -0.6647881, -1.3112222, -0.69478613, 0.34040147, -0.020778634, -0.35918108, 0.7930736, -0.3657402, -0.5819866, -1.4265242, -0.5488668, 0.31292742, 0.014998091, -0.3236935, 0.5749226, -0.31885612, -0.52213436, -1.5246553, -0.38483745, 0.3194155, -0.02386307, -0.3270264, 0.63215065, -0.13990852, -0.48794153, -1.6380107, -0.23473708, 0.32633477, -0.011077684, -0.2840239, 0.41358837, 0.13459046, -0.46814847, -1.6644529, -0.0796599, 0.3731707, 0.011280044, -0.32578608, 0.35753024, 0.36727294, -0.4087581, -1.628794, 0.06756664, 0.35665023, 0.031376086, -0.34568137, 0.28426158, 0.503064, -0.39778274, -1.6470238, 0.29633704, 0.3656952, 0.03415825, -0.49942178, 0.34205854, 0.4530381, -0.384536, -1.5638751, 0.52769077, 0.33810788, 0.009724931, -0.6598008, 0.4975478, 0.38628185, -0.42060745, -1.6266736, 0.66195554, 0.3657891, 0.028813353, -0.68394804, 0.49631134, 0.5178618, -0.4338141, -1.706209, 0.72172177, 0.351419, -0.0025551023, -0.67436045, 0.54525, 0.573852, -0.38401774, -1.7291169, 0.8186351, 0.33361274, 0.009543379, -0.6917107, 0.4574636, 0.6173208, -0.37117967, -1.7337267, 0.8409678, 0.30412298, 0.03388692, -0.76246816, 0.443514, 0.59299135, -0.3087282, -1.7559235, 1.1200304, 0.357149, -0.017407678, -0.7111495, 0.50342613, 0.5731366, -0.3275815, -1.7667884, 1.3515333, 0.36896512, 0.022246301, -0.733661, 0.5152981, 0.5849504, -0.29024008, -1.7705526, 1.2923183, 0.34140283, -0.02468152, -0.693827, 0.57731587, 0.5506435, -0.23610893, -1.7857118, 1.1742935, 0.32180864, 0.025381744, -0.6754671, 0.6183259, 0.48911506, -0.20905468, -1.8163481, 1.1530253, 0.35832995, -0.00993475, -0.78823054, 0.6709313, 0.43187177, -0.18305211, -1.8182198, 1.0918527, 0.36667964, -0.0061538448, -0.755095, 0.6624439, 0.43068537, -0.22884196, -1.5640981, 1.0628424, 0.34289473, 0.0022966366, -0.81731105, 0.7350173, 0.43597427, -0.2596989, -1.458278, 0.5013052, 0.35150793, -0.010177402, -0.79404354, 0.78424793, 0.41029754, -0.327729, -1.3319385, 0.2441239, 0.3116566, 0.010324402, -0.81543946, 0.8714051, 0.37416494, -0.36382145, -1.2228864, -0.058129184, 0.3496686, -0.011129306, -0.8058594, 0.8664474, 0.38989767, -0.34943658, -1.0440129, -0.094018884, 0.33087605, 0.029973913, -0.84839493, 0.8252956, 0.4885258, -0.27625906, -0.8734766, -0.20701176, 0.3354259, -0.015250155, -0.84947723, 0.80915546, 0.5497906, -0.2541989, -0.7731354, -0.2964369, 0.28182784, -0.02570794, -0.8832168, 0.8203328, 0.66119695, -0.2874559, -0.66578096, -0.31666973, 0.25216877, -0.022710616, -0.9586399, 0.8575253, 0.8037591, -0.3296866, -0.51399696, -0.35926706, 0.27342585, 0.02871226, -1.136353, 0.8115267, 0.9901267, -0.27510116, -0.44187176, -0.45385805, 0.28636742, -0.015589715, -1.202827, 0.6809372, 1.0645119, -0.31308904, -0.32144928, -0.18530773, 0.2386807, -0.0014637602, -1.37278, 0.5676479, 1.1484742, -0.34795198, -0.21416801, -0.18324454, 0.22506033, -0.025880888, -1.4552441, 0.5057177, 1.2677387, -0.29015157, -0.15404056, -0.23784952, 0.19781671, -0.033882484, -1.5597746, 0.49012086, 1.363026, 0.2971566, -0.003701204, -0.32002062, 0.23719355, -0.03141503, -1.6529607, 0.43133318, 1.4175385, 0.68481046, 0.13363202, -0.29304042, 0.19680156, -0.019710349, -1.8249844, 0.39324948, 1.386739, 1.1033087, 0.25905463, -0.16449973, 0.18038096, -0.028574781, -1.8235337, 0.39527583, 1.4329388, 1.1364317, 0.3983845, 0.1547329, 0.19609345, -0.009337521, -1.8810819, 0.3058192, 1.3658088, 1.0690775, 0.60659516, 0.47771215, 0.1984426, -0.011698975, -1.9243785, 0.2367037, 1.3944263, 0.8802225, 0.7676044, 0.61617893, 0.16176149, 0.029606309, -1.9573416, 0.16627397, 1.41781, 0.76690847, 0.85979396, 0.54295623, 0.16261086, -0.011889639, -1.9204694, 0.11369805, 1.4563979, 0.61045146, 1.0570809, 0.67074144, 0.16761956, -0.020953774, -1.9269476, 0.04210885, 1.4065934, 0.43848786, 1.1147094, 0.856326, 0.16618124, 0.0181217, -1.9641103, 0.06714872, 1.3499018, 0.3023404, 1.2663598, 0.78366965, 0.15854797, 0.029670771, -2.024228, 0.11002184, 1.1443732, 0.27660742, 1.3298936, 0.79546094, 0.17962159, 0.00017664167, -2.0691636, 0.09975778, 1.1325319, 0.28213468, 1.4662392, 0.8053002, 0.15837146, 0.026139043, -1.9907714, 0.18382439, 0.9988043, 0.3295522, 1.5596404, 0.8894364, 0.16875012, -0.01257053, -1.9659251, 0.37040454, 0.83987933, 0.32595557, 1.5417968, 0.9589855, 0.17519392, -0.0009922633, -1.8455578, 0.49547508, 0.65940976, 0.28923374, 1.5985447, 0.9496291, 0.6485447, 1.335284, -1.4503263, 0.6704036, 0.69870526, 0.29234177, 1.622096, 0.8014884, 0.6418281, -0.009516, -1.3532947, 0.7350422, 0.59272593, 0.318555, 1.5944831, 0.35381258, 0.616067, 0.00038616208, -1.2607727, 0.8058724, 0.5255458, 0.2630863, 1.557264, 0.28737307, 0.53769547, 0.013762961, -1.1826223, 0.85791886, 0.5893739, 0.26355645, 1.5723441, 0.15535717, 0.54097813, -0.010962712, -1.1168972, 0.81709653, 0.5161428, 0.32943547, 1.5612746, -0.25668743, 0.50203717, -0.032098465, -1.0189534, 0.70778084, 0.45019448, 0.38845628, 1.596641, -0.58752036, 0.5312692, -1.5556403e-05, -0.81233203, 0.64569545, 0.45750803, 0.39580637, 1.6778116, -0.76293546, 0.5041137, -0.025400331, -0.89365727, 0.8625592, 0.3575172, 0.33716288, 1.6578054, -0.8204857, 0.4608594, -0.027486464, -0.6376296, 1.1593367, 0.28733504, 0.3355087, 1.3386728, -0.6777967, 0.49256197, -0.009691749, -1.1698439, 1.4338331, 0.3202951, 0.3519444, 1.0524226, -0.16155054, 0.49540517, 0.010363767, -0.8506618, 1.9851232, 0.38587874, 0.41735008, 1.0435356, 0.35003996, 0.48328197, 0.034361303, -1.2573161, 2.4241335, 0.34893394, 0.44323874, 0.9473887, 0.2474836, 0.4445716, 0.0042647175, -1.0732306, 2.2816558, 0.3357029, 0.4501086, 0.88265, 0.055786118, 0.71596557, 0.0021839528, -0.15728931, 1.3015723, 0.69250625, 0.42490134, 0.81834656, -0.36982846, 0.7510028, -0.023205487, -0.14295027, 0.8959427, 0.4424496, 0.48826805, 0.81661063, -0.37695184, 0.68692285, -0.008338569, 0.122921795, 0.7036994, 0.3350053, 0.50184476, 0.81750983, -0.53207934, 0.7428777, 0.0014313787, 0.2922887, 0.5273283, 0.24614245, 0.49085, 0.795384, -0.6177549, 0.71218634, 0.016273843, 0.36624193, 0.3598172, 0.3287257, 0.5436318, 0.7012882, -0.6189825, 0.69996583, -0.013976018, 0.29295534, 0.15102851, 0.35780656, 0.5897406, 0.50062674, -0.6110192, 0.69781893, -0.028971164, 0.393662, -0.043755114, 0.40440702, 0.5645154, 0.35467094, -0.6604333, 0.6811966, -0.0023167701, 0.36424294, -0.24195401, 0.42374942, 0.7600279, 0.29645655, -0.68997836, 0.6638311, 0.032725483, 0.2741236, -0.2902776, 0.52171326, 1.3669294, 0.117820196, -0.7396089, 0.68963397, 0.025585886, 0.43193614, -0.27451947, 0.5211473, 1.4387144, 0.032517403, -0.8001995, -1.3374057, 0.22441927, -0.28159493, 0.6417523, 1.2221211, -0.28438595, 0.28563705, -0.64379686, -1.3412222, 0.12504597, -1.203377, 0.2941091, 1.6925877, -0.8901767, 0.21557449, -0.24887861, 0.69639605, -0.012372128, -0.9559224, 0.047592346, 0.75389194, -0.13475922, -0.50034934, 0.38343665, 0.7124437, -0.034320053, 0.81587577, 1.258373, 0.5784186, 0.091222726, 0.07624894, 1.5519253, 0.69956106, -0.015649188, 1.3980451, 0.038540434, 1.1517767, -0.25177115, 0.95830905, 1.0355732, 0.69764686, -0.00030628958, 1.546045, 0.06555306, 0.6738653, -0.676871, 0.7824181, 0.7206619, 0.74937177, 0.032943595, 1.114147, -0.5674142, 1.1223197, -1.1374624, -0.20875424, -0.4158413, 0.7120161, -0.018541774, -0.20119137, -0.9494662, 1.6194385, -0.13229714, -0.06468413, -0.57517034, 0.7064318, 0.005829301, 1.3479211, 0.75651085, 0.7080521, 0.84519094, 0.5283528, 0.5785572, 0.13398995, -0.008292351, 0.6396507, -0.3704837, 1.5996821, 0.7084871, -0.22653858, 0.084840454, 0.1410946, -0.020396896, 0.76637757, -1.2224516, 1.5971566, 0.53003013, -0.41338873, -0.50568855, 0.11331421, 0.010483646, 0.80022204, -0.38515344, 1.6114477, 0.31359908, -0.4066772, -1.0630106, 0.11534095, -0.0010772524, 0.46895075, -1.4059901, 1.4917071, -0.43230325, -0.47787502, -1.2327678, 0.11111492, -0.008318836, 0.37263817, -1.2165928, 1.5264741, -0.79106253, -0.4207458, -1.0083854, 0.087934196, 0.01754962, 0.366663, -0.7346009, 1.4288601, -1.1124892, -0.37801492, -1.008842, 0.07800024, 0.013037121, 0.4344125, -0.4872915, 1.4735513, -1.2684237, -0.27420276, -1.0395553, 0.08372801, -0.021177044, 0.4227809, -0.26532307, 1.4665632, -1.2480052, -0.28641954, -0.98272103, 0.11948008, 0.014209836, 0.44647968, 0.017181939, 1.2699776, -1.2805026, -0.3161356, -0.98908454, 0.13971093, 0.026258815, 0.40475792, 0.35003594, 1.1470042, -1.3284193, -0.2678027, -0.87850124, 0.12943238, -0.012873814, 0.36616325, 0.12711684, 1.1482536, -1.3398722, -0.26217738, -0.8470229, 0.12756139, 1.0013883, 0.28782284, 0.24516888, 0.81152475, -1.404891, -0.2688544, -0.52923775, 0.112048686, 0.98720497, 0.21870108, 0.272659, 0.718331, -1.4360946, -0.32232153, -0.5351266, -0.30947095, -0.027717631, 0.049093127, 0.72478193, 0.013126931, -1.4444448, -0.27820072, -0.4815827, -0.27935892, -0.02176701, -0.03641835, 0.8548992, -0.041210014, -1.4106525, -0.32563323, -0.40928978, -0.31486773, -0.003774537, -0.079385705, 0.7788245, -0.09769584, -1.33325, -0.39272928, -0.4449648, -0.27277565, -0.018920956, -0.043471467, 0.58404803, 0.057444952, -1.3400024, -0.44800106, -0.35898396, -0.25415188, -0.009191836, -0.11646563, 0.61671317, -0.0329917, -1.345866, -0.53832906, -0.3415804, -0.31782013, 0.013781767, -0.12663777, 0.8142796, -0.033244662, -1.345642, -0.23711339, -0.4046419, -0.31548303, -0.013235978, -0.17565133, 1.0946662, -0.20818725, -1.3019758, -0.33426026, -0.5029491, -0.28808308, -0.034144457, -0.2434228, 1.1682491, -0.32389262, -1.2344406, -0.40769434, -0.552719, -0.25366116, -0.0066995453, -0.23792188, 1.1848516, -0.34485382, -1.175403, -0.46669018, -0.43993276, -0.28140163, 0.029939307, -0.18888268, 1.1876261, -0.39366233, -1.1296849, -0.48403746, -0.36626276, -0.31781632, 0.005763645, -0.211439, 1.2560656, -0.40008724, -1.0406126, -0.59766513, -0.23656188, -0.27274787, 0.021948457, -0.20018451, 1.2233169, -0.31564596, -1.0386887, -0.7180537, -0.00998818, -0.29259598, -0.0317918, -0.08721847, 0.8768126, 0.55080855, -1.0862572, -0.7258542, 0.19311851, -0.31253344, -0.012888216, 0.27379555, 1.1904211, -0.31076506, -0.99373627, -0.8316172, 0.6382277, -0.28206366, -0.02116333, 0.03873457, 1.216935, -0.3354869, -1.062624, -0.8780955, 0.57233495, -0.26056135, 0.00043868128, 0.035045344, 0.9819156, 0.20018098, -1.0609999, -0.9516417, 0.38572052, -0.31394237, -0.025205322, 0.0925611, 1.2417485, -0.34957337, -0.9475671, -0.96604896, 0.2301649, -0.2703399, 0.023051435, 0.03440655, 1.3148446, -0.34530094, -0.9813122, -0.90950596, 0.25388667, -0.3167011, -0.024848029, 0.01899474, 1.2593491, -0.2396104, -0.8789972, -0.9382334, 0.20890674, -0.31486452, -0.02995675, 0.021816676, 1.3068419, -0.21424204, -0.7990497, -0.8758863, 0.19102797, -0.25136584, -0.029779468, 0.043015234, 1.2402083, -0.08750164, -0.7087275, -0.6782488, 0.14807901, -0.26998168, 0.015458694, -0.018378219, 1.1812487, -0.118982345, -0.64978224, -0.4954166, 0.12846723, -0.29995215, 0.015245814, -0.0130743515, 1.1908209, -0.10620221, -0.52066946, -0.29970196, 0.2871578, -0.30826086, -0.032341886, -0.05441541, 1.1433308, -0.11904665, -0.42508855, -0.16434926, 0.6274893, -0.28660715, 0.001386016, -0.074956626, 1.2331893, -0.036911912, -0.41036016, -0.10180815, 0.7228608, -0.27347034, 0.025563817, -0.054012988, 1.2584037, -0.07803092, -0.33818632, -0.05468547, 0.65365285, -0.28851467, -0.007232176, -0.08321375, 1.2685652, 0.10680192, -0.33530214, -0.033484668, 0.12991628, -0.2731033, -0.008598514, -0.047789205, 1.295001, 0.59538376, -0.43262058, -0.021461518, -0.23373282, -0.27870333, -0.0045195795, -0.06345767, 1.2435851, 1.1677581, -0.43137735, -0.05562868, -0.43342975, -0.2573077, 0.01028376, -0.08764972, 1.2920905, 1.3089067, -0.24433865, -0.052972525, -0.5177689, -0.26370507, 0.00088637776, -0.09866666, 1.3025161, 1.2523928, -0.25835565, -0.0017132246, -0.64627147, -0.2603109, 0.007419409, -0.17783035, 1.3010714, 1.262146, -0.3305185, -0.011636895, -0.20712377, -0.27875692, -0.00014587025, -0.21226333, 1.1798413, 1.2284266, -0.32779253, -0.012782567, -0.16171055, -0.2937513, 0.016417075, -0.34358355, 1.1297692, 1.0465095, -0.27197018, -0.01500144, -0.0075857365, -0.25048816, 0.0038256317, -0.45151928, 1.0189377, 1.0393751, -0.4462622, -0.025918104, -0.035168923, -0.218394, -0.035064794, -0.45745423, 1.0216674, 0.8765129, -0.5525346, -0.2975486, 0.0012022664, -0.22568867, 0.032209806, -0.49715957, 1.0223315, 0.86940926, -0.4649158, -0.28614926, 0.041418664, -0.23638508, -0.028057778, -0.4490692, 1.044428, 1.042913, -0.4427687, -0.25839114, 0.0694123, -0.2221352, -0.015100786, -0.39474985, 1.1181362, 1.1209548, -0.42725524, -0.21673314, -0.12650809, -0.2374901, -0.0076784017, -0.3982605, 1.173033, 1.1223799, -0.3805951, 0.05135645, 0.54843736, -0.2137759, -0.020956801, -0.42260972, 1.0949997, 1.1241004, -0.28606448, -0.0870862, 0.8401064, -0.23326698, -0.0031332602, -0.32941562, 1.0910038, 1.0825038, 0.08014237, 0.0026234158, 0.85515815, -0.26873416, 0.0047420347, -0.4189104, 1.0496429, 0.81207526, 0.5325701, 0.38944495, 0.83533794, -0.2611726, -0.01924308, -0.4025724, 1.0155493, 0.93894005, 0.5399645, 0.5189899, 0.668307, -0.2277409, -0.011271104, -0.4317985, 0.97463083, 0.84194195, 0.70335466, 0.65933764, 0.77783626, -0.25980872, -0.03335555, -0.41727427, 0.9550203, 1.1170026, 0.7331934, 0.6994667, 0.87491906, -0.24632753, -0.012016261, -0.32630774, 0.9141256, 0.92831767, 0.7444803, 0.80709654, 0.85786694, -0.23775993, 0.034100812, -0.4931764, 0.92767274, 0.8214826, 0.742434, 0.80458856, 0.8592427, -0.21463878, -0.028942727, -0.5006374, 0.960865, 0.71654725, 0.6196835, 0.9016036, 0.9290598, -0.21551867, 0.009762741, -0.12293743, 1.0387349, 0.2789438, 0.5836186, 0.9532071, 1.100479, -0.24668095, -9.676074e-05, 0.027423587, 1.067884, 0.22238246, 0.42377833, 0.90500313, 1.4483161, -0.20891863, 0.0014417089, 0.21827444, 1.1703198, 0.46162465, 0.3780414, 0.9493803, 0.69148993, -0.251351, 0.03167089, 0.24957456, 1.1847167, 0.41675544, 0.3570926, 0.9471223, 0.20246433, -0.23958898, 0.017954735, 0.46826985, 1.1235164, 0.48924306, 0.32419822, 0.8767892, 0.41207644, -0.19476813, 0.027654631, 0.49964428, 0.76517934, 0.6217954, 0.31653342, 0.8858246, 0.80386025, -0.22648846, 0.7503061, 0.34606472, 0.6886628, 0.58853227, 0.305148, 0.8483852, 0.8441122, -0.20855552, -0.0063854586, 0.41655815, 0.6520226, 0.46422943, 0.46148324, 0.83685744, 0.45043182, -0.24626854, -0.031163756, 0.44238147, 0.7065636, 0.3454521, 0.46798584, 0.8354893, -0.09951608, 0.60296243, 0.025371881, 0.553324, 0.6828458, 0.76669616, 0.48816887, 0.9414287, 0.02189668, 0.60726637, 0.0067855082, 0.5757898, 0.65961, 0.7063948, 0.4903733, 0.92660815, -0.04579506, 0.6142349, -0.01379766, 0.6130215, 0.6346018, 0.7351908, 0.4830743, 0.6998159, -0.07930594, 0.6193069, -0.025364177, 0.6457653, 0.5864578, 0.80322856, 0.19238946, 0.66129524, -0.08785427, 0.5983674, -0.0034712104, 0.60684854, 0.59761614, 0.7515974, 0.19443162, 0.65867406, -0.003095829, 0.6159287, -0.019437402, 0.65476555, 0.6187493, 0.7579617, 0.22676302, 0.6419305, 0.4198102, 0.5856797, -0.032549135, 0.66456884, 0.6532199, 0.6645904, 0.35848486, 0.8934885, 0.45254445, 0.6108583, 0.021653011, 0.343019, 0.6602632, 0.66921717, 0.35509694, 0.9903421, 0.46184602, 0.5572443, 0.008861961, 0.6671549, 0.49339375, 0.6700976, 0.32109553, 0.9074445, 0.43985006, 0.5539473, -0.00536988, 0.68561476, 0.46579143, 0.67192024, 0.23935306, 0.8356558, 0.45041296, 0.50784004, 0.013694616, 0.6860705, 0.45389444, 0.58698064, 0.065279506, 0.7774396, 0.4207386, 0.5095431, -0.016741643, 0.27325866, 0.41546947, 0.5574043, -0.17398007, 0.57523113, 0.43593156, 0.4797651, -0.01650212, 0.30577028, 0.7887406, 0.46816105, -0.14632079, 0.38889235, 0.52563745, 0.5188868, 0.018409314, 0.37156123, 0.4633804, 0.40272984, 0.0707654, 0.47222906, 0.49942133, 0.5173414, 0.03175544, 0.345188, 0.5487253, 0.3707796, 0.13829385, 0.36561096, 0.23931281, 0.49649665, 0.017836198, 0.40742257, 0.7121204, 0.44636473, 0.25813356, 0.27291828, 0.39162928, 0.46414214, 0.015989322, 0.41772464, 0.6050195, 0.43687084, 0.3483159, 0.223642, 0.800219, 0.04236005, -0.0026354047, 0.4420858, 0.5058323, 0.12792662, 0.5765434, -0.30899715, 0.85584307, 0.06658261, 0.006200868, 0.45424402, 0.43705875, 0.116381705, 0.840514, -0.37144235, 0.8554604, -0.0033043134, 0.009733781, 0.44833562, 0.5016753, 0.13802995, 0.97389346, -0.37520158, 0.95415837, -3.0795994, 2.0899773, 1.4185374, -0.08188931, 0.89598143, -0.6901005, 1.3178725, -1.5225424, -3.1074736, 1.8848506, 0.9213882, -0.82541555, 0.5626992, -0.8278221, 1.6989422, -1.1741375, -0.32062507, -0.03394463, 2.0397522, -0.46270165, 0.75494236, -0.74113715, 1.360662, -0.715545, -0.2934835, 0.018970951, 1.1077476, 0.06657423, 1.2104131, -1.4684875, -0.6857855, -0.6101266, -0.320899, 0.004756095, 1.4606191, 0.89283174, 0.98578906, -1.0385827, 0.28111336, -1.45059, -0.3039844, 0.0004785817, 1.0986395, -0.05184289, 0.7817236, -1.8855085, 0.12590013, -1.3868446, 0.69365555, 0.0096142655, 0.7863367, -0.26182154, 1.7336379, -1.2259843, 0.85242575, -0.087928884, 0.6985546, -0.0013407756, 1.4996427, 0.53394973, 0.85648936, -0.63302004, 0.80806017, 0.8047669, 0.6436596, 1.6707012e-05, 1.266092, -1.5967385, 1.2878252, -0.74833673, 0.59695536, 0.45792833, 0.6335302, 0.024396949, 2.090534, -1.1539199, 0.9300914, -0.4765049, 0.8107161, 0.6367031, 0.5975731, 0.03465483, 1.3253137, -1.0043974, 0.96607697, -0.37687686, 0.82052815, 0.6733133, 0.6526783, -0.022508424, 1.2870864, -1.1487879, 1.1223389, -0.49649855, 0.88292724, 0.7343359, 0.6597037, -0.015720943, 1.2454513, -1.1734945, 1.5398519, -0.3818753, 0.9009631, 0.7425302, 0.6041965, -0.022396516, 1.2141626, -0.8516092, 1.0213684, -0.43703374, 0.92482716, 0.6517409, 0.60690516, 0.021853838, 1.1667064, -1.4626387, 0.94061756, -0.4190551, 0.9277263, 0.7075168, 0.61032605, -0.0054379087, 1.5417031, -1.1981732, 0.9017817, -0.33585447, 0.9115169, 0.7594796, 0.60699993, 0.029561952, 1.8093232, -0.8518788, 0.77145815, -0.35102743, 0.97902477, 0.6276659, 0.59388644, 0.034276675, 1.736756, -0.5578071, 0.5667148, -0.24789988, 0.9558246, 0.71432775, 0.60234046, -0.023932764, 1.6053298, -0.54652417, 0.63697326, -0.11308123, 1.0120975, -0.111823745, 0.65983313, 0.032038298, 1.5194813, -0.7521985, 1.1443363, -0.012865472, 0.9668824, -0.29274932, 0.6179424, 1.173706, 1.5533327, -0.7037165, 1.1450081, 0.09191668, 0.9497315, -0.39178813, 0.6265487, 1.1911106, 1.5170932, -0.4948077, 1.1436182, 0.20500703, 0.9862768, -0.8613469, 0.1751741, -0.0342699, 1.3021553, -0.29002196, 0.6531785, 0.24013619, 1.1090454, -0.63826406, 0.19633864, 0.0042055054, 1.2285677, -0.20897906, 0.6152052, 0.23000516, 1.1407632, -0.73631316, 0.18322864, -0.0073571964, 1.4942284, 0.14938101, 0.46406707, 0.1515852, 1.1179274, -0.7215496, 0.18805633, 0.029325062, 1.3117117, 0.1939423, 0.6647501, 0.10885861, 1.099201, -0.7062922, 0.20216678, -0.025007097, 0.7700114, -0.014348497, 0.55995184, 0.24310519, 1.0932035, -0.71458745, 0.19874398, -0.03064266, 1.1647214, -0.18585989, 0.6159767, 0.31292433, 0.61626333, -0.7883303, 0.20489137, 0.020003388, 1.2980101, -0.3146905, 0.7101975, 0.2680623, 0.548523, -0.8441466, 0.2264011, 0.018954927, 1.2860992, -0.34004402, 0.69230264, 0.3010917, 0.46093193, -0.8941685, 0.16731873, 0.016845385, 1.2459728, -0.34474477, 0.7080041, 0.31365117, 0.5111908, -0.88423055, 0.20910624, 0.020332733, 1.269538, -0.18673013, 0.63530296, 0.31241566, 0.7644985, -0.9194968, 0.19165634, 0.033097293, 1.2723454, -0.04130214, 0.6366018, 0.3089857, 0.7221418, -0.9513289, 0.18735711, 0.024997478, 0.86299396, 0.02402896, 0.6229966, 0.380791, 0.6585917, -0.9280873, 0.22415538, -0.015293495, 0.8655645, 0.054475144, 0.6166401, 0.44786876, 0.5043321, -0.9166762, 0.17089143, -0.0003874897, 0.8396432, 0.037393395, 0.61856914, 0.6050554, 0.43519035, -0.88076746, 0.19535504, 0.009884507, 0.86186826, 0.055195894, 0.64508057, 0.72300583, 0.35642627, -0.82805926, 0.18830822, 0.0091655115, 1.2264855, 0.005002744, 0.69439954, 0.811858, 0.28567165, -0.14513656, 0.1812173, 0.017033143, 1.139089, -0.03724285, 0.68205076, 0.87204486, 0.3213503, -0.16084509, 0.17568801, -0.03368646, 0.90053535, -0.09480357, 0.77150726, 0.92510724, 0.34628218, -0.11505602, -0.037184704, 0.00665511, 0.83774436, -0.110016994, 0.6729401, 0.9372279, 0.2957001, 0.0018530411, -0.04994992, 0.0072372635, 0.7615369, -0.21049358, 0.6968671, 0.92090315, 0.2986263, 0.10971923, -0.07145909, 0.01421722, 0.6984694, -0.24027178, 0.7587207, 0.96141416, 0.30395365, 0.15039967, -0.070605196, -0.0328631, 0.72793525, -0.31164923, 0.7957046, 1.0094953, -0.1800747, 0.18125147, -0.06421284, -0.005224633, 0.74294585, -0.3830356, 0.8360886, 1.0071036, -0.2869568, 0.1772801, -0.01192586, 0.002411234, 0.64601964, -0.41112182, 0.835264, 1.0467573, -0.33277535, 0.15788208, -0.011207684, -0.015887922, 0.67127806, -0.38720095, 0.8535326, 1.1338792, -0.39137122, 0.1838258, -0.072717175, 0.011673013, 0.726423, -0.3373892, 0.8181523, 1.2337792, -0.44238362, 0.35215956, -0.044105336, 0.0062178024, 0.63003975, -0.37116197, 0.82302916, 1.3141167, -0.4436209, 0.6223836, -0.06325308, -0.034923982, 0.68103784, -0.3441868, 0.8449878, 1.3770156, -0.49850357, 1.0511404, -0.018976726, -0.021403339, 0.6841184, -0.34263092, 0.8730347, 1.3655981, -0.49390596, 1.4165338, -0.020561615, 0.0049062306, 0.71409255, -0.32125866, 0.93492734, 0.5520681, -0.5214973, 1.8048824, -0.012848721, -0.0066929874, 0.68502504, -0.2323449, 0.9459245, 0.4029608, -0.5549524, 1.9340495, -0.03619557, -0.020805258, 0.6890837, -0.21432579, 0.96558374, 0.30382106, -0.6408409, 0.7629198, -0.069613315, -0.00028857106, 0.72651225, -0.22455353, 1.0509826, 0.3029261, -0.71317726, 0.58450186, -0.067983456, -0.026773391, 0.7238276, -0.27383968, 1.1196733, 0.1851575, -0.043673404, 0.37253857, -0.015741933, 0.018752538, 0.77725, -0.34937134, 1.2919022, 0.16311803, -0.06657517, 0.28343412, -0.05382905, 0.017278843, 0.8015115, -0.43308675, 1.433224, 0.13215694, -0.08419021, 0.050193924, -0.042551626, 0.020578828, 0.82853717, -0.5572634, 1.4821861, 0.07766315, -0.10698505, -0.6209549, -0.004306687, 0.019235393, 0.73775816, -0.7963381, 1.3799604, 0.011308282, -0.15260719, -0.7453386, -0.25032058, -0.029926654, 0.5746656, -0.78425246, 1.1491593, 0.09696065, -0.20200136, -0.22428937, -0.23985691, 0.019051362, 0.42315793, -0.7287209, 1.1179825, -0.055377867, -0.21848474, -0.25429723, -0.24423462, -0.02414306, 0.21915537, -0.72645134, 1.0798986, -0.105310075, -0.22721225, -0.36811072, -0.24206491, 0.003363681, 0.15790707, -0.7130369, 1.1051985, -0.01799369, -0.2714155, -0.34946913, -0.2474112, 0.004388309, 0.469903, -0.7676965, 0.99356586, 0.06067813, -0.36422998, -0.34620544, -0.19213402, 0.0033115244, 0.5599189, -0.92882943, 0.6301939, 0.1031583, -0.76159436, -0.050711945, -0.18947387, -0.0009415269, 0.6242546, -1.0037167, 0.611919, 0.018234812, -0.9230268, 0.26827717, -0.22984877, -7.586433e-05, 0.6061894, -1.0987803, 0.5633775, -0.074828595, -0.9891861, 0.43453386, -0.1733981, -0.011208281, 0.6562414, -1.0935489, 0.57998115, -0.110754, -0.95510983, 0.45575488, -0.22907922, 0.02744787, 0.7185857, -1.0622506, 0.57479346, -0.18242799, -1.0263629, 0.4703119, -0.22175716, 0.008980891, 0.81990415, -1.0476302, 0.54677737, -0.2265495, -0.9759415, 0.33895135, -0.23349914, 0.00032685726, 0.86900264, -0.9767311, 0.5179572, -0.2663724, -0.81591296, 0.18890077, -0.22370933, -0.009707347, 0.866006, -0.8750023, 0.25782412, -0.2648886, -0.71902996, -0.38208187, -0.21025847, -0.01753837, 0.74369395, -1.0392618, 0.5227738, -0.26937577, -0.67328984, -0.943641, -0.23232068, -0.005113766, 0.927515, -1.1162149, 0.44568735, -0.23662889, -0.532839, -0.7965143, -0.20253599, -0.01960014, 0.8290385, -0.7108529, 0.3362453, -0.2309352, -0.5288574, -0.07147688, -0.16745333, 0.032994922, 0.71813506, -0.20698397, 0.25080293, -0.26675543, -0.4992621, -0.63872814, 0.4075176, 0.51846266, 1.0460601, -0.0059954217, 0.72784495, -0.17154954, 0.07510044, -0.4699116, 0.3980638, 0.026734076, 1.14674, 0.074752204, 0.7253957, -0.101870835, -0.37404788, 0.083811685, 0.3982053, 0.024350293, 1.1888918, -0.026239764, 0.79676956, -0.07535996, -0.36839134, 0.08013955, 0.46686348, 0.002464512, 1.1927283, -0.12299689, 0.8809736, -0.093802795, -0.4852238, 0.16370653, 0.47371602, 0.03414343, 1.1504778, -0.22339912, 0.89352304, -0.09075132, -0.44272873, 0.18952654, 0.4493274, 0.02974602, 0.78794664, -0.24039829, 0.95110005, -0.06623936, -0.1310644, 0.3282416, 0.50909436, -0.03410612, 0.72791165, -0.34577996, 0.89367896, 0.43472472, -0.011715473, 0.45672902, 0.4986871, -0.026662005, 0.8036187, -0.29106584, 0.9296674, 0.48169246, 0.042375296, -0.14626625, 0.48672843, 0.03341088, 1.5909201, -0.27167937, 0.9828758, 0.48358238, -0.5029701, -0.21683799, 0.52824324, -0.03366737, 1.6062893, -0.33661446, 0.98767364, 0.41283864, -0.46944764, -0.19392936, 0.5097367, 0.03285413, 1.6210711, -0.38630623, 0.9058845, 0.32755527, -0.4552322, -0.24945785, 0.50022876, 0.032291222, 1.6146866, -0.4096039, 0.9456507, 0.3109658, -0.41293132, -0.21828017, 0.36572474, -0.020934032, 1.5230081, -0.37310913, 0.656977, 0.31885347, -0.38247254, -0.15706351, 0.4262878, 0.02301017, 1.5104636, -0.29453498, 0.65897924, 0.37544522, -0.3369136, -0.2683919, 0.38797545, 0.0009312178, 1.5807903, -0.12348887, 0.6275036, 0.31470937, -0.30512613, -0.33221278, 0.40240565, 0.008130477, 1.6252819, 0.0063549583, 0.6009896, 0.26979896, -0.17265807, -0.48009065, 0.40449578, -0.018264553, 1.697674, 0.2879174, 0.64845926, 0.16868868, -0.18261729, -0.43201122, 0.44952843, 0.023508012, 1.7058883, 0.23196578, 0.5578213, 0.21918409, -0.1422647, 0.32064858, -0.020216774, -0.012355766, 0.9940119, 0.32498565, -0.009216757, 0.18024233, -0.47133312, -0.29058653, 0.023572287, -0.03256517, 0.8766471, -0.4194366, -0.04819303, 0.095930696, -0.42047623, -0.55684924, 0.77414405, -0.02561734, 0.87854534, -0.39381692, 0.7532976, -0.002707704, 0.26666427, -0.61828643, 0.8298684, -0.018514475, 0.8646099, -0.40975296, 0.6931125, -0.029821197, 0.2882938, -0.72410655, 0.8106596, -0.022363907, 0.84815884, -0.40731567, 0.64893395, -0.08640321, 0.28919306, -0.7424996, 1.5595301, -0.8096468, 0.58634937, 1.334289, -1.1095302, -0.81647205, -1.1638801, -1.5584022, 1.5445982, -0.8576406, 0.6613707, 1.0825317, -0.97544134, -0.9441034, 0.24098545, -0.060647454, 0.8749081, -0.020202212, 1.0706427, 1.7573282, -0.77550334, 0.53517556, -0.24581715, -0.1381125, 0.8703165, -0.019722978, -0.04915448, -0.00028854798, -0.23396204, 0.918037, -1.9337809, -1.5913422, 0.8503274, -0.017189277, 0.00045028183, -0.19340882, -1.2616863, -0.7948805, 0.5702647, -1.3867372, 0.85788596, 0.021929128, -0.40074733, 0.3783266, 0.2779622, 1.6930102, -0.12123767, -1.8504303, 0.8630922, 0.0072434884, 0.0144223, 0.49505198, -1.2236729, 0.97323513, 0.14749683, -1.0292853, 0.86187905, -0.006768788, 0.3103842, 0.3737521, -1.5663792, 1.166992, -0.82032394, -0.5167257, 0.85701615, 0.028117834, -0.16125269, -0.8123492, -0.73143554, 0.3890496, -1.0218532, -1.785922, 0.87424284, -0.005544216, -0.67919344, 1.0751622, -1.3128995, 0.687602, -0.86170495, -1.8625336, 0.8151209, 0.025458358, 0.076406755, 0.77698594, -1.7377888, 0.3532248, -0.753966, -1.8513675, 0.82288885, 0.010265337, -0.03155922, 0.85583633, -1.6032323, -0.49151617, -0.9737552, -0.9295502, 0.809756, 0.017700113, -0.9942928, 1.3591335, -1.6485013, -0.76846206, -1.1085677, -0.5352148, 0.85346353, -0.0050449697, -0.8600571, 1.4946977, -1.7659955, -0.7392579, -1.1876658, -0.33293545, 0.8313391, -0.011120868, -1.0265524, 1.5705942, -1.7771397, -0.8590989, -1.2580537, -1.0554882, 0.8110688, -0.0053196154, -0.8974749, 1.4410706, -1.7871362, -0.5404268, -1.2668211, -1.2095256, 0.83362514, 0.011492186, -0.9284692, 0.1974276, -1.8168168, -0.06157762, -1.3449523, -1.2645785, 0.86307925, -0.0051184865, -1.0610198, 0.84527916, -1.7807186, -0.4496449, -1.3739747, -1.3484739, 0.8642807, 0.02610627, -1.2741319, 1.825373, -1.8303498, -0.74875355, -1.4271353, -1.388811, 0.85092837, 0.016005063, -1.2961931, 1.9162433, -1.7945434, -0.574061, -1.4297314, -1.4705658, 0.8735004, -0.86671776, -1.2788976, 1.6369245, -1.8281405, 0.14145516, -1.8193978, -1.8553077, 0.853636, -0.85331357, -1.2519169, 1.8341069, -1.72431, 0.5949222, -1.7939398, -1.7874849, 0.85583264, 0.0010138004, -1.253543, 0.6303238, -1.3736404, 0.59186196, -1.8058131, -1.7016973, 0.8487953, 0.013941571, -1.2905449, 0.1100507, -0.24162632, 0.6277672, -1.8613247, -1.661632, 0.848235, 0.031758912, -1.3397709, -0.1201239, -0.15788275, 0.6109214, -1.8720114, -1.5436536, 0.82263917, -0.020630643, -1.3303679, -0.1266693, -0.13670953, 0.6146384, -1.8521271, -1.1820027, 0.82480544, 0.007171388, -1.3791507, 0.26823846, -0.17068453, 0.619217, -1.8723325, -0.2518023, 0.8217921, -0.023922885, -1.393784, 0.36277315, -0.06963011, 0.60967004, -1.9284737, 0.09963006, 0.8424058, 0.0033579534, -1.4060286, 0.39187086, 0.03529761, 0.5629023, -1.9445169, 0.26852447, 0.8401653, -0.019936776, -1.4133365, 0.31571376, 0.046336744, 0.5732675, -1.9592283, 0.50089324, 0.87892133, -0.034591377, -1.3985287, 0.12642491, 0.16995467, 0.5466068, -1.9334314, 0.58980894, 0.8712293, -0.018275127, -1.4284804, 0.021858847, 0.17098694, 0.514789, -1.886401, 0.6548263, 0.844191, -0.0071153073, -1.4279791, 0.26254758, 0.15747538, 0.56269276, -1.8670053, 0.6920597, 0.816166, 0.006136118, -1.4377077, 0.38128066, 0.15596657, 0.6092274, -1.6980183, 0.6724473, 0.8238497, -0.0064481436, -1.4646552, 0.32225063, 0.20029561, 0.69353, -1.5614622, 0.37617508, 0.82148, -0.03262162, -1.4881238, 0.004956298, 0.31610066, 0.7432973, -1.3128017, -0.3248664, 0.8651393, -0.020670295, -1.781241, -0.25227895, 0.47909597, 0.77518415, -1.0745082, -0.83896947, 0.8237141, -0.010068992, -1.8047062, -0.21629511, 0.54016715, 0.78639257, -0.8713207, -0.89652234, 0.87404805, 0.02318295, -1.8165426, -0.15976235, 0.46541843, 0.7945476, -0.68425006, -0.8093568, 0.8715755, -0.017014645, -1.8012052, -0.5349295, 0.47032163, 0.7877672, -0.59757423, -0.81748766, 0.8638725, -0.03382927, -1.7850491, -0.63182527, 0.8407025, 0.8568587, -0.4489176, -0.85038465, 0.879475, 0.018729728, -1.8000089, -0.6966743, 0.8813314, 0.8542211, -0.402932, -0.80607426, 0.8184138, -0.035067633, -1.7907342, -0.692859, 0.84449166, 0.88270265, -0.3025047, -0.69148433, 0.82573223, -0.027270319, -1.8119106, -0.6797734, 0.8559558, 0.93612355, -0.22802083, -0.5347083, 0.850291, 0.024197292, -1.8113242, -0.7026299, 0.7753298, 0.94921666, -0.16048552, 0.08079628, 0.8549969, -0.018892158, -1.8912873, -0.67667645, 0.79472405, 0.87900984, -0.08659322, 0.43765572, 0.8518156, -0.022030935, -1.9397951, -0.57721597, 0.7977941, 0.8750807, 0.0029027888, 0.7189812, 0.8246658, -0.005588331, -1.9088318, -0.61403316, 0.8002921, 0.82228553, 0.061442893, 0.8325372, 0.82772386, -0.004167392, -1.9241809, -0.6039635, 0.7708909, 0.79074806, 0.07192752, 0.8190192, 0.85935485, 0.015474617, -1.9730169, -0.6004281, 0.75016814, 0.77494484, 0.11469268, 0.75644535, 0.8131437, 0.029327068, -1.9393183, -0.6654361, 0.77288747, 0.80049217, 0.21997558, 0.749869, 0.8384808, -0.0037146336, -1.9572412, -0.7466028, 0.744476, 0.7867002, 0.23506935, 0.7938364, 0.842204, -0.023529723, -1.9797347, -0.806018, 0.7478302, 0.7655768, 0.27274588, 0.8526962, 0.8419925, 0.033426337, -1.9551764, -0.8147857, 0.73900765, 0.7859702, 0.3392303, 1.0195041, 0.8373921, -0.032276444, -1.9661586, -0.8093576, 0.73114985, 0.687939, 0.39527294, 1.2115741, 0.8220054, -0.022806766, -1.9487971, -0.80237544, 0.77568156, 0.60815305, 0.5072518, 1.2381971, 0.8294078, 0.015229469, -1.9607444, -0.8288366, 0.8007296, 0.34329703, 0.62853676, 1.2269405, 0.86108196, -0.0053075952, -2.0028954, -0.7558047, 0.8577487, -0.16981097, 0.7631458, 0.7882718, 0.84293294, -0.014467847, -1.9679469, -0.75716835, 0.7850744, -0.6177574, 0.9527034, 0.82642555, 0.8446337, -0.0017005875, -1.9586519, -0.75266254, 0.6923289, -0.7834707, 1.0888629, 0.83142364, 0.84694254, 0.006959157, -1.8758774, -0.6539818, 0.39543298, -0.8322905, 1.239465, 0.7919549, 0.8695956, 0.024277775, -1.8540735, -0.6347432, 0.020897489, -0.58831984, 1.3686017, 0.76774186, 0.8234443, -0.0020454118, -1.7482555, -0.56558496, -0.1467768, -0.3636593, 1.3928945, 1.1728671, 0.8536946, -0.018076725, -1.6241509, -0.4750488, -0.2799809, -0.077190086, 1.4525676, 1.2308526, 0.8390737, 0.011727665, -1.224367, -0.5686478, -0.36325467, 0.0395298, 1.4812465, 1.30854, 0.85599107, -0.017880928, -1.106932, -0.5160459, -0.4025758, -0.26963907, 1.4678669, 1.4417434, 0.8545894, 0.0199785, -0.93482184, -0.59904927, -0.4275457, -0.26260808, 1.5042268, 1.6473076, 0.83890694, -0.017072037, -0.75326484, -0.57824945, -0.4959907, -0.27372527, 1.4980614, 2.0024488, 0.8152202, -0.015877726, -0.654534, -0.5812093, -0.51178867, -0.40087545, 1.4701288, 1.8937012, 0.84234405, 0.026955359, -0.6204686, -0.46716, -0.4900614, -0.7320822, 1.4695604, 1.6591935, 0.8738804, 0.01203972, -0.5323687, -0.25055644, -0.5605142, -0.91524214, 1.4067601, 1.0561472, 0.8287419, 0.032299105, -0.528058, 0.034015235, -0.72742164, -1.0292535, 1.4018203, 0.76206636, 0.83451927, -0.0034108518, -0.50524765, 0.23794389, -0.85356766, -1.0095643, 1.3011526, 0.6303283, 0.8352137, -0.027130682, -0.4965215, 0.4217442, -0.93901366, -0.9603445, 1.209762, 0.4560654, 0.82140946, 0.025230492, -0.43059248, 0.5010638, -0.9684916, -0.9078212, 1.027536, 0.14203675, 0.86945796, -0.015345078, -0.42281166, 0.44919372, -0.9224557, -0.80022645, 0.7137652, -0.22896138, 0.87204576, -0.029752268, -0.2561699, 0.17813906, -0.83043194, -0.7260304, 0.40661064, -0.47021765, 0.8232558, -0.8476052, 0.0148450015, -0.15907903, -0.64390475, -0.6510709, 0.23643151, -0.6257061, 0.84318894, -0.025830438, 0.14589363, -0.44317654, -0.3325492, -0.6517156, 0.19628277, -0.6844459, 0.8603469, -0.03284939, 0.15499242, -0.54671425, -0.15592219, -0.69074106, 0.16070555, -0.6795266, 0.8613437, 0.00014707143, 0.09707988, -0.5857972, -0.02990567, -0.6804503, 0.18149391, -0.48331848, 0.87206405, -0.010985648, 0.040377673, -0.5701363, -0.005179046, -0.6844049, 0.4914106, -0.09570676, 0.83956444, 0.011441845, -0.040495533, -0.6025036, 0.099300794, -0.7144291, 0.55946827, 0.50846773, 0.8503231, -0.007469248, -0.27819222, -0.5559883, 0.20798081, -0.7598857, 0.54587734, 1.0268989, 0.78891814, -0.022975866, -0.25689217, -0.63883233, 0.35163394, -0.80215406, 0.39997077, 1.4165885, 0.7694621, -0.019348333, -0.6359712, -0.6183983, 0.37896264, -0.8432884, 0.09652838, 1.6004823, 0.78452855, 0.033903394, -0.20283863, -0.5550955, 0.41031578, -0.94092554, -0.0546098, 1.14912, 0.779208, 0.015231695, 0.1643524, -0.49211138, 0.27780902, -0.92574984, -0.15013285, -0.117883116, 0.7944208, -0.011138136, 0.16298082, -0.4570485, 0.26109588, -1.0029233, -0.17085032, -0.3340538, 0.7723506, -0.016181622, 0.2574952, -0.4869939, 0.34574983, -0.96303344, -0.13430506, -0.45203134, -0.7381089, -0.01028145, -0.36150202, 0.095213495, -0.7967626, -0.81027955, -0.031751774, 0.55980575, -0.6837195, 0.021491118, -0.3390948, 0.12455471, -0.84602016, -0.7979465, -0.001793252, 0.50952023, -0.67544, -0.0024267356, -0.38816363, 0.1140137, -0.7670099, -0.7456856, -0.013939755, 0.56489366, -0.66815895, -0.019215854, -0.48536003, 0.29217234, -0.7671682, -0.7317997, 0.0076406924, 0.80420744, -0.6775954, 0.009929203, -0.5612344, 0.44993034, -0.7718362, -0.7402329, 0.028068472, 0.9738784, -0.66347444, 0.019240974, -0.71137136, 0.47097537, -0.6518133, -0.7247187, 0.03218217, 1.029213, -1.2197787, -0.0022274526, -0.6612933, 1.4317918, -1.0928969, -0.69960856, -0.94911873, 0.7964313, -1.136268, -0.011547997, -0.7486044, 1.2992841, -1.043792, -0.7609904, -1.0304676, 0.73175746, -1.1536723, -0.022705263, -0.7899224, 1.3216923, -0.9951476, -0.7537669, -1.244222, 0.46048728, -1.1238078, 0.0045432113, -0.8915612, 1.5634557, -0.96704125, -0.79607445, -1.6490555, 0.06345273, 0.56738955, 0.5436469, -1.7244078, -0.19250412, 0.38334003, 0.8229387, 0.13430418, 1.0851079, 0.51380295, 0.560695, -1.0770006, -0.7721416, 1.325992, -0.16164237, 0.7048905, 0.1811243, 0.44085452, 0.016813226, -0.63057935, -0.46193054, 0.71243143, 0.89134634, 0.50963235, 0.24645083, 0.46746233, -0.023174733, -0.82972896, -0.54977053, 0.30333012, 1.2594341, 0.9586357, 0.7603608, 0.4642413, -0.013324229, 0.41902566, 0.18594006, 0.112121396, 0.9818184, 0.6301002, 1.1862705, 0.44411692, -0.027807906, -0.7325988, -1.7850893, 1.3872433, 0.74406314, 0.22278416, 1.4151213, -0.09586154, -0.010624905, 0.30810446, -1.1256859, 0.28899047, 0.6029093, -0.27524734, 1.4451684, -0.11612392, 0.01521361, -0.22085482, -1.2809111, 0.52335995, -0.056297027, -0.48743528, 1.2364641, -0.105919525, 2.569272e-05, -1.1670055, -1.0760878, 1.1002573, -1.6225147, -0.61503816, 0.79430073, -0.2360695, -0.0072744703, -0.8990738, -0.568976, 0.6182574, -0.6405865, -0.32759982, 0.17054862, -0.23719221, -0.02096115, -0.4354679, -0.50395644, 0.6678802, -0.48638558, -0.22027712, 0.1703497, -0.25807887, 0.03064299, -0.15677331, -0.5169463, 0.6315349, -0.7702367, -0.1623139, 0.74399805, -0.26327753, 0.024986975, -0.47513297, -0.84765077, 0.5812601, -0.76511323, -0.10558198, 0.7622776, -0.2606601, -0.031227926, -0.5067688, -0.76018447, 0.62071645, -0.7663133, -0.11392436, 0.70918965, -0.20808557, -0.019306596, -0.59555715, -0.80836403, 0.71196127, -0.4058807, -0.10494319, 0.61629146, -0.22385195, -0.029142799, -0.98056704, 0.10475822, 0.702919, -0.39488757, -0.12471934, 0.4533142, -0.20924082, 0.029851088, -1.6068213, 0.5407937, 0.6967941, -0.5569233, -0.048954505, 0.3914027, -0.25695056, 0.014682736, -0.83893543, 0.40108347, 0.70345503, -0.7980902, -0.061393023, 0.27904695, -0.23615247, -0.025547823, -0.57557845, 0.342178, 0.616865, -1.1057812, -0.08829721, 0.30347994, -0.23461664, 0.017632311, -0.52613354, -0.3146234, 0.56292015, -1.213942, -0.023258043, 0.3581154, -0.23507792, -0.62049913, -0.43785223, 0.3908651, 0.19066995, -1.3176622, 0.0053261914, 0.70251644, -0.22044137, -0.5848745, -0.36265546, 0.006582709, 0.12437898, -1.3216671, -0.050671913, 0.7336671, 0.3709203, -0.03025316, 0.30693236, -0.8478148, 0.7590902, -1.3572888, -0.07495633, 0.21169075, 0.38906214, 0.026810126, 0.169101, -0.8259331, 0.79850674, -1.4139934, -0.09885022, -0.10442072, 0.3891634, -0.030657632, 0.18386231, -0.58246213, 0.748413, -1.4470215, -0.09572335, -0.47661796, 0.37467748, 0.02960372, 0.1271922, -0.4377655, 0.7315233, -1.446699, -0.06586584, -0.29862928, 0.36979038, -0.018928526, 0.12430821, -0.6824999, 0.7362645, -1.4602897, -0.09297327, -0.24656212, 0.39085355, 0.015392452, 0.1316167, -0.5102844, 0.0053772316, -1.4718302, 0.3215869, -0.17543021, 0.42183977, -0.020819925, 0.13109925, -0.37994647, 0.028870003, -1.5978003, 0.3329944, -0.14756039, 0.37515765, 0.0024772107, 0.086600885, -0.1905543, -0.013693525, -1.6936673, 0.30985114, -0.16112174, 0.40192038, 0.012834226, 0.11411137, 0.084889546, -0.018440673, -1.790813, 0.32229605, -0.1515513, 0.42296654, -0.027257452, 0.03061243, 0.27114668, -0.026305318, -1.8291966, 0.28238297, -0.11275679, 0.37581062, -0.012444768, 0.021411788, 0.0973297, 0.003257904, -1.8413454, 0.25698075, -0.05375208, 0.3995628, -0.0041363, 0.047834385, 0.062379126, -0.037948746, -1.8247688, 0.28836608, -0.04785061, 0.3922411, -0.0097001735, 0.08932172, 0.15640259, -0.056102395, -1.849655, 0.23992689, -0.07183173, 0.4083001, 0.019294841, 0.34945995, 0.2928714, -0.098043695, -1.7859186, 0.2784297, -0.02329214, 0.385725, -0.011592736, 0.35624513, 0.2591873, -0.12789276, -1.7542285, 0.22774297, 0.03880889, 0.38402995, 0.014893605, 0.3390778, 0.14192386, -0.14776596, -1.7583517, 0.2691358, 0.24959269, 0.3819423, 0.008856065, 0.27922866, 0.051382788, -0.18368891, -1.7177584, 0.16459832, 0.123249345, 0.4000887, -0.03155935, 0.28216377, 0.25586054, -0.22248575, -1.7111148, -0.005536356, 0.58892745, 0.43663746, 0.026767937, 0.24372436, 0.6096436, -0.26090658, -1.6531796, -0.3979678, 1.0715728, 0.4260093, -0.018388346, 0.2078959, 1.341063, -0.31672645, -1.6949508, -0.5386441, 1.0650954, 0.37714446, -0.027579783, 0.24252795, 1.661303, -0.38573226, -1.6844201, -0.66337085, 0.95417845, 0.41659868, -0.016768146, 0.24004047, 1.6543156, -0.49903843, -1.6953522, -0.71330863, 0.87193626, 0.430862, 0.03393345, 0.2757354, 1.696285, -0.5506985, -1.7155747, -0.7971661, 0.84331965, 0.39358315, -0.019680994, 0.28003937, 1.6396085, -0.58864325, -1.6828542, -0.8149599, 0.8109723, 0.37202686, -0.020094763, 0.28322488, 1.7569134, -0.6660044, -1.7491276, -0.7671766, 0.6943869, 0.4302163, 0.0064363214, 0.19024454, 1.791102, -0.6664973, -1.7386009, -0.7301209, 0.6127623, 0.42497933, -0.00024521037, 0.21985069, 1.8412023, -0.65130115, -1.7543763, -0.73484606, 0.77662665, 0.4017007, 0.010997749, 0.21207981, 1.8151256, -0.6634092, -1.7307017, -0.6536003, 0.6324141, 0.41193217, -0.022360485, 0.1354433, 1.8222977, -0.68680197, -1.6992944, -0.6132442, 0.42045555, 0.39881465, -0.02790913, 0.12792973, 1.7805109, -0.7161487, -1.1816905, -0.5230807, 0.23228611, 0.4069551, -0.0011315418, 0.16842486, 1.7758682, -0.72105056, -1.0510178, -0.21492013, 0.17699832, 0.40335473, 0.0329576, 0.13650563, 1.7255584, -0.7110806, -0.9522183, 0.14859109, 0.66270167, 0.4237045, -0.030213168, 0.18003696, 1.7795724, -0.7805447, -0.8829335, 0.46290392, 0.69624996, 0.4196443, 0.026822984, 0.21952116, 1.7856848, -0.7848676, -0.74696606, 0.27315703, 0.8190074, 0.43322742, 0.0135369785, 0.25435773, 1.8048388, -0.79769504, -0.6283257, 0.11598649, 0.9251583, 0.39547488, 0.006526933, 0.26836327, 1.7589585, -0.8020203, -0.55693215, -0.23020211, 1.0733799, 0.40503642, 0.0056823436, 0.28266272, 1.7240157, -0.7838561, -0.5670967, -0.23545948, 1.2591635, 0.40730318, 0.013397805, 0.34033966, 1.731706, -0.8222815, -0.5127322, -0.2801192, 1.2549634, 0.40103585, -0.0129410215, 0.34950247, 1.7331738, -0.7532664, -0.48831093, -0.33361167, 0.74059325, 0.441653, -0.029523447, 0.33217174, 1.7729741, -0.71149445, -0.4301926, -0.18098556, 0.67862695, 0.4157898, 0.03414267, 0.35360837, 1.7585495, -0.6998685, -0.31310603, -0.38844165, 0.7699896, 0.4409864, -0.028503004, 0.39736468, 1.7290606, -0.6599624, -0.1187908, -0.4094314, 0.83592904, 0.4549743, 0.020295672, 0.3860193, 1.6355987, -0.71557784, 0.11337875, -0.1653624, 0.9185224, 0.44502544, 0.025017515, 0.3777396, 1.6427691, -0.70986736, 0.3862747, -0.10514246, 0.9239172, 0.40646237, -0.0019353707, 0.39171702, 1.5711801, -0.68838096, 0.66374475, -0.016126273, 0.83423775, 0.44794378, 0.017343206, 0.35464573, 1.5283035, -0.3879828, 0.8761886, -0.025429172, 0.10166212, 0.3903171, -0.025517233, 0.32199505, 1.4276036, -0.31797367, 1.0612315, -0.031902116, -0.17179489, 0.41370082, -0.028695637, 0.038286317, 1.365012, -0.26088867, 1.2880459, -0.031036992, -0.42036, 0.41391778, -0.023003729, -0.0549883, 1.4298949, -0.22276427, 1.3483678, 0.029766625, -0.52135956, 0.45284677, 0.018433107, 0.23111905, 1.5048494, -0.59936595, 1.3772341, -0.035351314, -0.59905624, 0.39394087, 0.027539156, 0.2259618, 1.5656953, -0.6867284, 1.3913463, -0.010706642, -0.10751893, 0.39559725, 0.006273453, 0.09730314, 1.6489685, 0.5413756, 1.4266442, 0.018967127, -0.18976611, 0.45027927, -0.019714957, -0.029605247, 1.7230173, 0.6764221, 1.5087731, 0.028693572, -0.26546118, 0.39808658, 0.013014147, -0.28736788, 0.96735376, 0.74997187, 1.5822839, 0.021577377, -0.3871672, 0.4518989, -0.00442021, -1.1292841, 0.34692144, 0.7381888, 1.6156696, 0.015526194, -0.5556685, 0.40735337, 0.55092794, -0.90618366, 0.34638578, 0.7212622, 1.7361512, 0.03581008, -1.0545144, 0.41948754, -0.022274636, -0.7740727, 0.41174084, 0.7349697, 1.7618701, 0.045110535, -0.8851736, 0.46931306, 0.015702508, -0.6741661, 0.46022448, 0.71152127, 1.7845899, 0.10974473, -0.6203964, 0.47124192, -0.016518561, -0.62109697, 0.37503967, 0.6573218, 1.7791722, 0.17161083, -0.52694166, 0.46185857, -0.031437095, -0.65981805, 0.51280236, 0.6310805, 1.8271677, 0.1653984, -0.49998406, 0.45429364, 0.016095962, -0.69801605, 1.0342202, 0.6075112, 1.7886723, 0.034910455, -0.54000765, 0.44890782, 0.028045619, -0.67790896, 1.0011432, 0.50758654, 1.3216119, 0.12492877, -0.5518974, 0.47178766, 0.01998688, -0.6096401, 0.9462367, 0.36083364, 1.2394726, 0.32481617, -0.6107435, 0.48709276, -0.013981505, -0.58292204, 0.9240715, 0.21312562, 1.1241294, 0.9627486, -0.26843202, 0.43365926, -0.013505975, -0.4843649, 0.92100495, 0.071877815, 1.0264062, 0.7845553, -0.33101627, 0.4468894, 0.010564184, -0.28509277, 0.48483822, -0.008053183, 1.0272162, 0.6183081, -0.34753603, 0.48897415, -0.011074148, -0.3623944, 0.35484686, -0.030100534, 0.95896184, 0.5326964, -0.35828614, 0.4660433, 0.010807864, -0.35910735, 0.7570664, -0.22818103, 0.94138163, 0.4322328, -0.32355824, 0.4611569, 0.010662273, -0.33851632, 0.91355294, -0.31106594, 1.0108696, 0.35425523, -0.33141378, 0.45207933, 0.029430151, -0.7665716, 0.09689141, -0.20088622, 0.9656185, 0.31988323, -0.40142405, 0.4958166, 0.006801372, -0.7018622, 0.124456674, -0.07752009, 1.037319, 0.24343407, -0.8379541, 0.4380354, 0.01877409, -0.58399415, -1.2137569, -0.06820267, 1.0970365, 0.6454586, -1.1265278, 0.4865059, 0.0137715675, -0.46194452, -0.78162456, 0.0010101029, 1.0603348, 0.6380992, -1.6354591, 0.43853945, -0.0071142493, -0.08120904, 0.007072862, -0.008186961, 1.0006999, 0.6153282, -1.5799071, 0.44848922, -0.018045178, 0.6641903, 0.07969941, -0.042310465, 1.0376751, 0.54022324, -1.0291761, -0.059893083, 0.021562686, 0.8075051, 0.11190863, -0.47704163, 1.091034, -0.07131443, -1.0533915, -0.10128533, -0.011580189, 0.619528, 0.1329376, -0.43229815, 1.0922449, -0.12626725, -0.5260813, -0.04732979, 0.028256623, 0.49909237, 0.13555557, -0.3688446, 1.033218, -0.2465041, -0.10896197, 0.75818187, 0.046598084, -0.68309623, -0.2126117, 0.9425535, 0.47544432, -0.64367074, -0.019601002, 0.7523957, 0.06290546, -0.7818788, 0.12115285, 1.0566851, 0.0025224856, -0.6411421, -0.4853806, -0.038518768, -0.0014673005, -0.7865968, 0.8698715, 0.7656114, 0.117986284, -0.5431392, 0.129849, -0.011693822, -0.018153002, -0.53731436, 1.0365881, 0.5480203, 0.07967992, -0.3697709, 1.2613863, -0.054741573, -0.029311938, -0.50249904, 0.8989108, 0.46619707, -0.07945703, -0.1752517, 1.2104816, -0.006354077, 0.005189908, -0.4809279, 0.757202, 0.47536737, 0.033823803, -0.10324564, 1.0035086, -0.074926816, 0.020656487, -0.53165054, 0.72427243, 0.58022153, 0.15718098, -0.14160398, 0.26185417, -0.0050634346, -0.03332116, -0.7026605, -0.7065831, 0.70899224, 0.89288086, -0.18658553, 0.4516634, -0.012492266, -0.033877246, 0.04464473, 0.8863064, -0.7709831, 0.23656245, 0.574797, 0.31839567, -0.040719625, 0.024046704, -0.4995879, 0.40625602, 0.67322075, 0.3382469, -0.44735643, 0.29918432, -0.07181038, -0.023371255, -0.852984, -1.1931943, 0.81002885, 0.5180441, -0.5955761, 0.124110326, -0.035430722, -0.02804126, -0.7001708, 0.8751247, 0.660686, 1.0024847, -0.44627216, -0.39609012, -0.06868291, -0.033413626, -0.77832633, -1.4920516, 0.74019474, 0.51307464, -0.3860673, -0.47763902, -0.042572763, 0.0012894786, -0.7306731, -0.4191354, 0.81963664, 0.34803802, -0.37846023, -0.2323297, -0.050075866, -0.026794663, -0.7178064, 0.44184774, 0.74187905, 0.15407616, -0.42954522, -0.18802454, -0.015131082, 0.019548602, -0.7133618, 0.47645745, 0.6837484, -0.012460395, -0.38132584, -0.2440551, -0.015474045, 0.009984576, -0.7071611, 0.5516643, 0.6087016, -0.14204581, -0.40821767, -0.6356852, -0.02989293, 0.025724204, -0.6828667, 0.5734372, 0.56766486, -0.2556094, -0.37270415, -0.1909956, -0.01530459, -0.019483367, -0.6934013, 0.12325206, 0.53807586, -0.3163984, -0.4109205, -0.18677197, -0.036772273, 0.009962639, -0.6751337, -0.042056948, 0.57675105, -0.35591558, -0.395776, -0.10943825, -0.042943563, 0.027769664, -0.17459676, -0.037566815, 0.6083967, -0.38135424, -0.43164864, -0.14984208, -0.035512887, 0.01901902, -0.16141492, -0.0006985876, 0.6707244, -0.48750156, -0.39707443, -0.17398947, -0.04979377, 0.03281077, -0.18963997, -0.1388277, 0.68040425, -0.6353581, -0.46231326, -0.15654723, -0.0395027, -0.003241312, -0.20697932, -0.3330889, 0.7263017, -0.7121313, -0.41647983, 0.59366375, -0.031842228, -0.02515279, -0.19273317, -0.3976297, 0.7925727, -1.2317765, -0.42438197, 0.751265, -0.04030739, 0.03261926, -0.26256078, -0.3911251, 0.833806, -1.2224544, -0.45596734, 0.864923, -0.06632416, -0.028766358, -0.25192901, -0.31682354, 0.77052236, -1.2012199, -0.40783888, 0.89420503, -0.059025932, -0.029117977, -0.2548965, -0.24466349, 0.7905423, -1.259864, -0.4231399, 0.8585843, -0.047083993, 0.0048216376, -0.2785183, -0.13865101, 0.72210026, -1.2307425, -0.44579682, 0.850046, -0.042677272, -0.011607867, -0.27191958, 0.019986546, 0.67533857, -1.2630179, -0.39977443, 0.86203146, -0.015113242, -0.020171488, -0.33960485, 0.3419378, 0.5995778, -1.2523369, -0.45665184, 0.9064248, -0.012913746, 0.0053445664, -0.35645154, 0.41617325, 0.56473714, -1.2630923, -0.4440589, 0.8805733, -0.040299643, -0.0058884122, -0.35015973, 0.46491092, 0.54312354, -1.2163287, -0.48421147, 0.9855907, -0.04410057, -0.034240935, -0.35868326, 0.56024534, 0.38666677, -1.2615272, -0.4462729, 1.0311781, -0.04845487, 0.027501667, -0.38348988, 0.34553382, 0.9175484, -1.2121974, -0.49555612, 1.0754211, -0.034160066, -0.0013470218, -0.31417966, 0.45843443, -0.52818173, -1.2320445, -0.48890737, 1.1479326, -0.023014022, -0.034435928, -0.4240416, 0.9742021, -0.4495514, -1.2417929, -0.49063584, 1.1548095, -0.0687349, 0.010035056, -0.41270822, 0.9264155, -0.29432023, -1.287881, -0.5415854, 1.1261247, -0.057879675, 0.013036602, -0.35040766, 1.0051005, -0.5202136, -1.2252724, -0.552455, 1.2372987, -0.071580365, 0.026513977, -0.4092919, 1.0299399, -0.44910607, -1.3072028, -1.0671481, 1.267822, -0.04469616, -0.033412013, -0.8903525, 1.1173571, -0.54930544, -1.3569015, -1.0208006, 1.3475435, -0.061763022, 0.022019297, -0.40863279, 1.1634158, -0.6192011, -1.3689758, -0.98893625, 1.3852178, -0.03430091, -0.019479098, -0.43771932, 1.2238299, -0.6164131, -1.3598446, -0.95289135, 1.4765303, -0.048405863, -0.022833114, -0.3783034, 1.2096052, -0.70353955, -1.3243988, -0.9040703, 1.1386925, -0.011114169, -0.013597842, -0.38982454, 1.2895406, -0.7350379, -1.2901907, -0.8924036, 0.8339993, -0.05709705, -0.021122092, -0.42025673, 1.2809653, -0.7610648, -1.301339, -0.79012513, 0.61168426, -0.0055595194, -0.011489893, -0.37510577, 1.2656748, -0.74907625, -1.2556528, -0.7654698, 0.5573369, -0.040200807, -0.010640482, -0.3906753, 1.2215194, -0.75486124, -1.2476181, -0.7282918, 0.43174544, -0.023373175, -0.011337701, -0.3558632, 1.2131945, -0.699097, -1.2300332, -0.6576133, 0.17784289, -0.027418962, 0.03252123, -0.3415464, 1.1981238, -0.6107797, -1.2565084, -0.5636308, -0.16780728, -0.028212747, 0.014549468, -0.28838438, 1.1539837, -0.50759965, -1.2987787, -0.4595407, -0.6741948, -0.022759277, -0.025863234, -0.29003775, 1.2199597, -0.54502696, -1.3728293, -0.3722768, -0.48902318, -0.039165474, 0.026351206, -0.29602838, 1.1990519, -0.54719687, -1.4474679, 0.16321708, -0.31912255, -0.070969895, -0.006980298, -0.29947707, 1.2616289, -0.5604442, -1.4739479, 0.22889693, -0.3271351, -0.0053724498, -0.0010470162, -0.2892633, 1.2220552, -0.508292, -1.5119987, 0.27889362, -0.29006222, -0.056984674, -0.028932443, -0.31252134, 1.2605515, -0.55148005, -1.4612719, -0.20704132, -0.19542071, -0.060325153, 0.018624546, -0.2503624, 1.3056191, -0.505535, -1.4332728, -0.13384598, -0.2829325, -0.04501068, -0.0029415677, -0.26225588, 1.301451, -0.5200565, -1.4047226, -0.11870855, -0.35042915, -0.04526668, -0.0125701, -0.24591692, 1.2944266, -0.5617122, -1.3747916, -0.057422794, -0.44672415, -0.04375299, -0.03245492, -0.23697312, 1.3014158, -0.49650586, -1.2517381, -0.009991043, -0.48777, -0.024557898, -0.02037619, -0.22984368, 1.2713795, -0.42839217, -1.121192, -0.016035605, -0.3010776, -0.04436607, -0.024945443, -0.18613842, 1.2751211, -0.39050913, -0.99009395, -0.010538403, 0.016167838, -0.03592527, -0.0002512121, -0.21462724, 1.3197644, -0.38252673, -0.89395094, -0.012999179, 0.2839991, -0.06664592, -0.019445216, -0.17705521, 1.27378, -0.31760648, -0.7140617, 0.07189323, 0.37291494, -0.03962809, 0.023158696, -0.19310118, 1.3496457, -0.39029223, -0.56623065, 0.1588986, 0.95697796, -0.057107177, -0.02211777, -0.228974, 1.2946441, -0.38107383, -0.43944255, 0.2645055, 1.1034079, -0.040056616, 0.02348882, -0.21906823, 1.2949743, -0.4024974, -0.24190396, 0.29821005, 1.2033371, -0.011406001, -0.015791139, -0.23557855, 1.322749, -0.3965032, 0.42996347, 0.32554248, 1.3956696, -0.042610344, 0.02358462, -0.23162849, 1.3286923, -0.41274342, 0.5515704, 0.33131254, 1.4860799, -0.028576782, -0.025274914, -0.24796999, 1.3311764, -0.4277255, 0.5900652, 0.3860128, 1.4462521, -0.06837134, 0.0040216357, -0.24946767, 1.3081526, -0.3943902, 0.64068604, 0.37121984, 1.352321, -0.071286306, -0.0012917125, -0.22388168, 1.3378415, -0.34259498, 0.6246431, 0.4422684, 1.0066895, -0.06975259, 0.007742351, -0.17548095, 1.3280779, -0.35463065, 0.54785055, 0.43352342, 0.4918641, -0.031452905, -0.01763198, -0.6520776, 1.3493832, -0.31394923, 0.5423942, 0.45565248, 0.27806035, -0.032017987, -0.023990013, -0.635422, 1.319088, -0.24951951, 0.5937962, 0.5145827, 0.1982265, -0.04573257, 0.022634005, -0.6558583, 1.3278946, -0.18922475, 0.5608302, 0.54922134, -0.45581505, -0.007869182, -0.025917199, -0.6402577, 1.363123, -0.109832674, 0.639092, 0.55415213, -0.48077947, -0.065381564, 0.075126916, -0.64616287, 1.3667063, -0.07822862, 0.712901, 0.6210105, -0.32756424, -0.06938623, -0.0033586025, -0.64360756, 1.3315225, -0.04705616, 0.79956865, 0.66933477, -0.1827933, -0.009936518, -0.021883257, -0.6286655, 1.3546381, -0.12586816, 0.858938, 0.72463036, -0.13807967, -0.021151418, -0.0016386148, -0.5522629, 1.3413299, -0.34704438, 0.9044439, 1.2418041, 0.006672437, -0.047966514, 0.03513298, -0.5480442, 1.2869359, -0.44541597, 0.8829034, 1.2322516, 0.032388404, -0.005222874, 0.009962829, -0.54651403, 1.2966434, -0.5116794, 0.9431757, 1.2134994, 0.09382379, -0.04338717, 0.0016397274, -0.48072928, 1.2544298, -0.5918565, 0.99844414, 1.1837726, 0.047479488, -0.058610782, 0.005161257, -0.4775883, 1.2497767, -0.76856285, 1.0778333, 1.144985, 0.010371175, -0.07137435, 0.02956674, -0.37993443, 1.2501811, -0.8791967, 1.1694626, 1.1201727, -0.13841863, -0.022287183, -0.018591974, -0.35612798, 1.1472224, -0.8609063, 1.2715933, 1.0745243, -0.19545895, -0.02564221, 0.013700917, -0.2768996, 1.0273572, -0.7318207, 1.3006684, 1.0862043, -0.2412371, -0.019856317, 0.028650876, -0.26744056, 0.91422355, -0.749819, 1.3489499, 1.0576321, -0.26786855, -0.07344901, 0.009661997, -0.2083193, 0.78890866, -0.7195954, 1.3032736, 0.9760525, -0.2770565, -0.052384052, -0.0009303454, -0.1922597, 0.7193547, -0.7347055, 1.2023985, 0.9275847, -0.26343325, -0.026726222, -0.0025941513, -0.1285543, 0.58113694, -0.70666885, 1.1648709, 0.8596261, -0.2538553, -0.051718324, 0.026988255, -0.05901171, 0.4856048, -0.6285078, 1.2788498, 0.7945251, -0.1417797, -0.02310932, -0.015970374, -0.041103456, 0.42460763, -0.47476655, 1.3193063, 0.68798506, -0.1082384, -0.058910005, 0.014920402, 5.3969823e-05, -0.08311191, 0.03871337, 1.337128, 0.5746749, 0.040820014, -0.074727096, 0.0010655735, 0.02234913, -0.06500908, 0.091069795, 1.3688406, 0.4249006, 0.090463, -0.048113327, 0.024438893, 0.4669848, 0.0043807556, 0.13237643, 1.3509285, 0.35988992, 0.1294844, -0.037277844, -0.0012756671, -0.0055863596, -0.032493863, 0.17424235, 1.1363113, 0.29277048, 0.15812466, -0.03553311, 0.013725977, -0.02445131, -0.03491495, 0.20621534, 0.829804, 0.1814766, 0.20103912, -0.057699054, -0.0224455, 0.45239985, -0.096963316, 0.22175613, 0.6053927, 0.13090044, 0.1991457 };
const float layer_1_bias[] = { 1.2181973, -2.2852998, -3.1264503, -0.52062744, -1.3455119, -0.7488364, -0.4718527, 0.8719972, -0.5952275, -0.04806034 };
const float layer_2_weights[] = { -0.010421345, -0.35627493, -0.23863696, -0.6439251, -0.34037626, 0.388163, 0.5309126, -0.48592225, -0.3725668, -0.7287183, -1.8330959, -0.11157924, 0.02697469, 0.40665114, 0.36948153, -0.542772, -0.60919213, -1.400154, 0.5908005, 1.0150731, 1.1666937, 0.42543963, 0.20127168, -0.38594273, 0.3188993, 0.26749155, -0.23300643, 1.4231144, 0.06737474, -0.17020564 };
const float layer_2_bias[] = { -2.71868, 1.594554, 0.7757992 };
